-5.33 
 6.17 
 -7.42 
 7.79 
 9.75 
 9.28 
 -2.97 
 0.18 
 5.25 
 1.18 
 2.73 
 -9.65 
 4.12 
 -3.59 
 -7.8 
 8.99 
 -0.93 
 0.25 
 7.94 
 -5.99 
 -4.1 
 -5.9 
 -0.92 
 -5.8 
 -5.55 
 -0.69 
 3.14 
 -3.62 
 9.5 
 -2.58 
 -9.28 
 -8.71 
 -9.13 
 -3.59 
 7.94 
 0.57 
 6.8 
 8.36 
 -3.51 
 2.83 
 0 
 2.13 
 -7.78 
 5.87 
 -3.2 
 -3.68 
 -3.94 
 6.28 
 7.5 
 -0.61 
 -9.46 
 4.76 
 6.1 
 9.61 
 3.37 
 -1.3 
 -7.87 
 0.44 
 -5.68 
 6.2 
 -8.08 
 5.52 
 0.89 
 -7.48 
 0.43 
 3.98 
 3.48 
 -0.78 
 8.48 
 -5.45 
 7.13 
 -2.33 
 -9.04 
 3.3 
 2.14 
 -1.83 
 -5.8 
 -9.12 
 -7.2 
 8.43 
 -7.62 
 0 
 6 
 -2.58 
 -6.24 
 6.17 
 -2.08 
 9.03 
 -0.83 
 3.6 
 -6.19 
 1.63 
 5.83 
 3.51 
 -2.41 
 -9.83 
 9.69 
 5.76 
 9.03 
 -2.25 
 2.38 
 3.91 
 -6.63 
 -8.16 
 6.82 
 -5.62 
 6.98 
 8.76 
 1.36 
 2.23 
 5.55 
 3.36 
 -0.45 
 -0.72 
 -3.05 
 -9.37 
 4.88 
 9.31 
 -1.19 
 -4.15 
 -9.81 
 9.82 
 0 
 0.36 
 -9.18 
 3.77 
 7.14 
 -9.76 
 -3.68 
 9.02 
 7.72 
 4.07 
 3.63 
 0.7 
 5.99 
 2.53 
 7.51 
 -4.55 
 -3.91 
 8.44 
 -4.53 
 3.74 
 -3.85 
 -3.25 
 7.81 
 6.92 
 -0.69 
 4.64 
 0.66 
 0.39 
 8.53 
 -9.4 
 5.13 
 2.88 
 -7.38 
 6.3 
 6.33 
 5.26 
 6.88 
 -6.54 
 -9.05 
 8.42 
 5.22 
 0 
 4.13 
 -8.94 
 6.83 
 0.0600004 
 8.63 
 1.63 
 -3.24 
 -2.7 
 2.87 
 -7.72 
 -4.13 
 -9.55 
 -5 
 -1.91 
 8.53 
 -3.36 
 -0.89 
 4.29 
 6.68 
 -9.86 
 2.94 
 6.2 
 -5.82 
 8.01 
 -3.72 
 -1.84 
 -1 
 -7.94 
 0.24 
 5.94 
 2.1 
 -0.38 
 3.33 
 -6.04 
 7.18 
 -4.44 
 1.78 
 4.68 
 6.51 
 4.68 
 0 
 3.63 
 -0.64 
 -3.63 
 -3.44 
 9.98 
 5.65 
 -2.24 
 -9.63 
 4.77 
 0.85 
 -7.83 
 7.86 
 -6.37 
 5.49 
 -4.35 
 -3.25 
 -3.86 
 1.32 
 -7 
 6.82 
 3.27 
 -0.13 
 -5.88 
 2.11 
 -2.05 
 4.71 
 -2.1 
 -0.79 
 9.79 
 -6.91 
 9.25 
 0.39 
 -2.95 
 3.01 
 -0.44 
 6.98 
 -8.19 
 1.94 
 -8.58 
 4.45 
 0 
 -8.87 
 -3.24 
 0.13 
 3.33 
 3.28 
 4.03 
 8.3 
 -3.61 
 1.13 
 -8.27 
 -1.39 
 0.17 
 7.26 
 6.97 
 8.87 
 4.41 
 -8.81 
 9.09 
 -3.18 
 -1.18 
 -5.49 
 -1.1 
 -8.37 
 3.03 
 -7.33 
 -1.84 
 6 
 -4.52 
 -1.07 
 7.32 
 -4.17 
 1.86 
 -6.73 
 7.84 
 -4.01 
 -3.82 
 -0.86 
 9.54 
 3.65 
 -9.64 
 0 
 9.11 
 -9.75 
 -6.96 
 3.23 
 -4.46 
 -0.46 
 8.92 
 1.74 
 -8.09 
 -8.81 
 3.99 
 -8.68 
 -1.47 
 1.44 
 -4.43 
 2.18 
 8.11 
 4.76 
 -7.4 
 8.37 
 -4.86 
 -4.2 
 6.63 
 -7.52 
 7.08 
 7.68 
 8.09 
 -2.04 
 -9.81 
 3.04 
 9.97 
 9.68 
 6.85 
 1.66 
 -3.65 
 4.65 
 -8.9 
 -3.9 
 -9.39 
 3.95 
 0 
 -5.14 
 -2.77 
 2.01 
 -5.39 
 4.6 
 -4.77 
 -2.15 
 1.49 
 7.32 
 -2.51 
 -3.09 
 3.11 
 -4.54 
 -0.34 
 0.36 
 6.24 
 0.4 
 7 
 -8.18 
 -6.75 
 0.47 
 1.38 
 4.98 
 9 
 8.76 
 8.91 
 -1.35 
 1.89 
 -1.19 
 -7.88 
 1.11 
 -7.51 
 -6.63 
 -2.19 
 2.97 
 2.9 
 -7.28 
 -1.59 
 -2.96 
 -7.24 
 0 
 4.15 
 4.47 
 -8.21 
 -6.53 
 8.39 
 2.58 
 0.92 
 -4.65 
 -8.79 
 -9.29 
 6 
 -7.17 
 -1.1 
 -6.07 
 -4.18 
 8.11 
 7.6 
 -5.1 
 5.44 
 1.65 
 -5.03 
 -1.75 
 -1.59 
 3.58 
 7.75 
 -2.19 
 -8.51 
 -2.75 
 -7.3 
 -4.15 
 4.9 
 0.21 
 -6.07 
 5.84 
 3.34 
 2.22 
 0.74 
 -4.14 
 9.13 
 -2.59 
 0 
 -9.76 
 -1.08 
 -6.22 
 -8.9 
 3.48 
 -7.02 
 -4.69 
 5.94 
 -6.67 
 8.54 
 -1.52 
 -8.13 
 -5.5 
 -6.11 
 3.03 
 8.71 
 -4.28 
 -0.67 
 9.45 
 4.6 
 -0.23 
 -1.38 
 3.32 
 -9.08 
 6.07 
 9.2 
 4.66 
 -1.14 
 -5.95 
 -2.66 
 -3.26 
 -5.09 
 5.52 
 -2.14 
 9.18 
 -5.29 
 -5.31 
 3.92 
 -4.11 
 3.21 
 0 
 -5.05 
 -9.35 
 -0.92 
 -4.63 
 -0.35 
 5.23 
 -2.58 
 3.83 
 5.38 
 2.05 
 -3.59 
 -6.93 
 -4.55 
 -4.15 
 -1.11 
 -4.21 
 -9.9 
 9.85 
 0.77 
 2.03 
 9.8 
 7.18 
 7.85 
 -7.36 
 -0.47 
 9.33 
 5.31 
 -9.67 
 -7.11 
 2.07 
 3 
 -6.33 
 2.36 
 0.96 
 -3.66 
 0.47 
 6.5 
 4.34 
 -9.72 
 -3.54 
 0 
 2.98 
 -2.98 
 -5.95 
 2.34 
 -1.17 
 -3.39 
 0.52 
 -3.96 
 -2.62 
 3.33 
 6.43 
 -8.47 
 6.26 
 -2.39 
 7.19 
 8.33 
 4.41 
 -2.62 
 -8.06 
 9.56 
 -8.62 
 -8.35 
 6.63 
 -6.93 
 7.4 
 9.98 
 0.44 
 -9.33 
 -9.48 
 -5.91 
 -6.48 
 -8.67 
 4.63 
 -1.18 
 -4.89 
 -8.31 
 9.3 
 -9.73 
 8.36 
 -6.04 
 0 
 6.95 
 4.94 
 -2.33 
 -3.24 
 7 
 5.74 
 7.23 
 1.36 
 -6.42 
 7.44 
 4.41 
 -2.65 
 -4.86 
 6.88 
 -1.29 
 4.79 
 9.84 
 3.03 
 -3.12 
 -5.43 
 -0.0299997 
 5.18 
 -7.5 
 3.87 
 -2.25 
 -4.94 
 9.03 
 -2.74 
 -6.62 
 0.65 
 0.12 
 6.5 
 3.22 
 4.68 
 7.18 
 5.18 
 6.18 
 -7.95 
 -3.87 
 -5.32 
 0 
 -1.18 
 -9.67 
 -2.84 
 -5.48 
 5.55 
 -7.55 
 -7.6 
 9.27 
 -5.27 
 -0.0699997 
 -1.35 
 9.43 
 4.15 
 -2.51 
 9.76 
 0.91 
 -8.58 
 -7.02 
 4.07 
 -5.51 
 -6.37 
 4.67 
 2.01 
 2.64 
 -8.52 
 6.04 
 -1.38 
 -7.33 
 7.79 
 7.3 
 -4.36 
 1.69 
 2.17 
 4.03 
 -6.69 
 -6.45 
 3.99 
 -3.21 
 4.71 
 -7.15 
 0 
 3.11 
 2.52 
 -8.64 
 1.08 
 -3.71 
 3.49 
 -5.69 
 -8.86 
 7.64 
 -3.63 
 -2.79 
 1.47 
 -2.22 
 0.0200005 
 -0.81 
 0.62 
 -8.21 
 -4.42 
 -0.97 
 4.88 
 -8.49 
 -0 
 -9.76 
 -7.72 
 -0.0100002 
 7.3 
 0.3 
 1.49 
 6.52 
 9.96 
 -8.32 
 3.36 
 -7.91 
 -7.34 
 6.64 
 9.17 
 3.54 
 -1.58 
 7.47 
 -0.1 
 0 
 -0.16 
 4.82 
 5.53 
 8.15 
 -2.11 
 2.72 
 3.07 
 4.34 
 -7.87 
 5.17 
 -6.82 
 4.22 
 -8.96 
 -8.46 
 -6.6 
 2.78 
 -1.73 
 -6.74 
 -0.12 
 7.33 
 -8.4 
 -2.63 
 -7.07 
 4.08 
 8.51 
 -5.77 
 -0.47 
 3.17 
 4.71 
 1.11 
 -2.52 
 -1.32 
 -6.88 
 7.96 
 -4.2 
 9.17 
 -2.54 
 -2.69 
 -5.41 
 4.42 
 0 
 -1.62 
 9.7 
 -2.18 
 -3.49 
 -8.07 
 8.49 
 -6.89 
 4.37 
 -1.72 
 -1.07 
 -7.44 
 5.21 
 3.44 
 -0.0699997 
 3.3 
 2.47 
 5.09 
 -1.84 
 0.68 
 -7.65 
 7.14 
 -9.99 
 -6.55 
 3.18 
 -0.0100002 
 -5.87 
 -8.87 
 -7.27 
 2.88 
 -5.71 
 -1.82 
 -2.57 
 -6.69 
 4.79 
 6.32 
 8.67 
 8.92 
 -0.78 
 -2.86 
 -3.28 
 0 
 -6.73 
 1.83 
 -4.48 
 -8.43 
 2.84 
 -2.15 
 -1.69 
 -2.47 
 4.35 
 -1.42 
 -1.11 
 1.02 
 -9.92 
 3.4 
 5.28 
 -6.06 
 3.31 
 -1.71 
 -5.5 
 -9.45 
 -9.26 
 4.9 
 -1.65 
 -5.03 
 -8.69 
 5.31 
 4.24 
 3.54 
 -3.28 
 -1.2 
 -5.24 
 1.57 
 -4.53 
 -0.62 
 2.45 
 -5.37 
 -2.75 
 5.89 
 -4.23 
 -7.4 
 0 
 8.6 
 7.9 
 4.73 
 -8.01 
 -9.46 
 6.07 
 -2.1 
 1.03 
 7.2 
 8.78 
 -9.69 
 -8.79 
 4.67 
 6.22 
 5.07 
 -7.62 
 2.71 
 7.44 
 -4.28 
 -1.5 
 2.8 
 9.29 
 -4 
 3.69 
 3.35 
 -4.95 
 -7.93 
 -2.52 
 -1.31 
 -0.0900002 
 3.34 
 -1.4 
 -3.56 
 1.23 
 8.44 
 -3.54 
 -5.38 
 9.8 
 -5.01 
 7.52 
 0 
 -9.33 
 -4.31 
 -2.93 
 -0.0500002 
 -5.92 
 3.36 
 -6.31 
 0.36 
 -0.68 
 8.9 
 -6.87 
 -0.7 
 4.07 
 7.13 
 3.28 
 4.24 
 -5.5 
 -8.51 
 -3.42 
 0.65 
 7.11 
 0.87 
 -6.62 
 -4.55 
 2.16 
 1.19 
 2.94 
 3.88 
 -0.26 
 8.01 
 8.63 
 3.08 
 2.83 
 -3.95 
 -3.93 
 9.41 
 -1.35 
 1.59 
 -1.16 
 9.39 
 0 
 5.4 
 6.28 
 3.9 
 3.5 
 5.26 
 -2.47 
 -1.23 
 -2.78 
 -5.27 
 4.71 
 9.29 
 -5.57 
 0.63 
 -6.21 
 9.87 
 6.13 
 -1.43 
 -7.37 
 8.97 
 -7.88 
 7.12 
 5.07 
 -5.79 
 9.32 
 2.67 
 -9.94 
 1.74 
 -7.35 
 -5.75 
 -6.02 
 -9.81 
 1.76 
 3.37 
 -5.32 
 0.69 
 -4.34 
 -4.24 
 -0.0500002 
 8.28 
 -6.65 
 0 
 3.06 
 7.57 
 7.21 
 0.78 
 -5.04 
 8.59 
 0.75 
 -3.32 
 0.8 
 -3.32 
 -0.8 
 -7.13 
 -9.15 
 -7.63 
 -2.88 
 7.31 
 7.28 
 1.84 
 -5.92 
 3.18 
 -1.44 
 -4.52 
 7.53 
 -0.13 
 -3.2 
 3.82 
 4.63 
 3.67 
 1.99 
 -4.25 
 0.59 
 -3.81 
 6.92 
 3.9 
 6.83 
 -0.85 
 -2.39 
 5.12 
 -6.56 
 -1.86 
 0 
 -8.43 
 1.53 
 -9.84 
 7.17 
 5.17 
 2.3 
 0.6 
 -9.96 
 -3.02 
 -0.0100002 
 -2.42 
 3.85 
 8.87 
 7.73 
 3.12 
 2.17 
 0.57 
 -4.87 
 -3.25 
 2.29 
 8.78 
 4.13 
 3.36 
 -2.03 
 7.48 
 2.96 
 8.63 
 1.97 
 -8.46 
 8.46 
 -3.2 
 -0.36 
 -8.67 
 7.98 
 6.57 
 5.46 
 9.48 
 0.77 
 -0.25 
 -5.25 
 0 
 0.36 
 -6 
 2.1 
 1.63 
 8.86 
 4.89 
 5.11 
 -0.97 
 0.21 
 2.43 
 8.11 
 1.19 
 -4.75 
 -3.09 
 -8.04 
 -7.07 
 5.92 
 4.82 
 1.56 
 7.62 
 9.87 
 -2.3 
 8.23 
 -8.62 
 -4.23 
 4.75 
 -9.55 
 6.82 
 -7.05 
 2.44 
 8.84 
 5.51 
 -6.48 
 -3.62 
 0.42 
 -8.72 
 -2.78 
 -4.19 
 7.93 
 -7.29 
 0 
 -9.12 
 -9.08 
 6.84 
 3.46 
 7 
 -1.27 
 0.35 
 -2.61 
 -4.68 
 0.16 
 3.99 
 6.25 
 1.72 
 0.43 
 3.35 
 -6.55 
 -5.31 
 6.37 
 0.31 
 -8.61 
 0.59 
 -3.12 
 -5.58 
 1.48 
 -8.66 
 3.86 
 -7.69 
 -8.69 
 -9.94 
 -9.92 
 -7.1 
 -9.14 
 4.26 
 -9.22 
 -1.88 
 -0.26 
 4.27 
 -5.47 
 -9.39 
 4.33 
 0 
 8.7 
 -8.71 
 -1.7 
 -3.71 
 -8.81 
 1.21 
 -0.5 
 6.09 
 -9.25 
 -5.32 
 -6.87 
 9.64 
 6.78 
 6.37 
 -0.82 
 -7.11 
 7.7 
 -3.85 
 -5.92 
 5.3 
 5.07 
 -0.66 
 -0.51 
 7.45 
 -5.02 
 7.44 
 -0.48 
 -6.4 
 -5.68 
 -5.32 
 5.06 
 -7.48 
 -0.87 
 1.77 
 -8.76 
 -7.61 
 -2.77 
 -4.86 
 -0.88 
 3.65 
 0 
 -8.4 
 -4.95 
 8.55 
 -4.09 
 1.93 
 -2.4 
 -5.29 
 2.09 
 8.16 
 -7.04 
 -6.53 
 9.79 
 9.57 
 1.09 
 -7.31 
 8.71 
 -6.57 
 -6.56 
 3.38 
 -9.83 
 -0.34 
 -9.14 
 -5.74 
 -9.45 
 -3.06 
 2.42 
 4.48 
 -1.36 
 -2.31 
 -9.53 
 -5.18 
 7.76 
 -2.6 
 6.19 
 7.47 
 8.03 
 7.09 
 -8.63 
 -2.17 
 -9.53 
 0 
 2.93 
 6.95 
 -1.77 
 -5.78 
 -6.67 
 7.26 
 -0.26 
 -8.31 
 8.94 
 -6.78 
 9.85 
 2.78 
 9.01 
 -4.25 
 -7.68 
 -7.76 
 -3.28 
 5.93 
 7.98 
 9.9 
 7.71 
 -0.96 
 -8.74 
 4.63 
 4.71 
 7.77 
 5.61 
 -9.75 
 -4.24 
 -6.29 
 3.49 
 5.99 
 8.06 
 4.71 
 -4.56 
 -2.94 
 6.87 
 -9.57 
 9.1 
 7.1 
 0 
 6.24 
 5.91 
 -5.67 
 -9.53 
 9.07 
 7.09 
 3.12 
 0.46 
 8.97 
 -1.88 
 -1.74 
 5.65 
 -1.53 
 -2.7 
 2.81 
 3.97 
 -2.63 
 -7.11 
 -8.66 
 -0.97 
 -6.55 
 5.07 
 -8.04 
 7.63 
 9.22 
 8.22 
 7.28 
 0.66 
 -0.43 
 9.68 
 9.19 
 4.53 
 -7.88 
 6.6 
 5.45 
 3.8 
 -3.3 
 4.69 
 -1.08 
 -0.2 
 0 
 2.11 
 2.36 
 -4.93 
 7.27 
 -0.76 
 6.1 
 -5.86 
 4.67 
 -7.15 
 4.99 
 8.45 
 7.86 
 6.33 
 -5.9 
 -9.96 
 9.54 
 -2.56 
 7.2 
 5.02 
 4.04 
 3 
 1.39 
 -7.39 
 1.02 
 -2.72 
 -7.31 
 4.29 
 0.79 
 5.22 
 2.95 
 8.42 
 -7.34 
 -6.7 
 7.25 
 2.78 
 -2.33 
 3.71 
 -5.09 
 9.84 
 -7.7 
 0 
 -5.68 
 -3.42 
 -9.54 
 3.97 
 -8.14 
 -4.15 
 -4.83 
 7.35 
 -7.73 
 -4.46 
 -7.12 
 -9.91 
 -3.58 
 2.91 
 -7.31 
 9.7 
 -9.63 
 -7.52 
 -1.45 
 -5.67 
 6.14 
 9.12 
 3.06 
 -2.46 
 3.39 
 8.55 
 6.24 
 9.2 
 -5.73 
 -6.76 
 -8.92 
 -0.93 
 -4.43 
 7.34 
 -5.56 
 4.98 
 1.63 
 -2.22 
 9.88 
 6.98 
 0 
 -8.48 
 5.53 
 5.27 
 3.97 
 3.68 
 -7.97 
 -1.02 
 -6.38 
 -7.37 
 6.86 
 0.29 
 -1.97 
 4.54 
 -5.42 
 4.03 
 2.08 
 -8.84 
 -0.0600004 
 2.83 
 6.18 
 3.31 
 6.03 
 -1.38 
 -4.93 
 -2.39 
 3.42 
 3.5 
 -3.22 
 8.4 
 0.95 
 -3.58 
 -0.89 
 0.55 
 8.78 
 5.43 
 2.99 
 -7.74 
 1.18 
 -7.26 
 -9.33 
 0 
 5.32 
 6.19 
 -7.23 
 -5.88 
 -7.58 
 3.72 
 0.04 
 7.03 
 -2.27 
 -8.77 
 -1.11 
 -8.85 
 -1.96 
 -8.85 
 7.61 
 0.27 
 5.3 
 2.34 
 4.57 
 -2.95 
 -0.82 
 2.14 
 6.64 
 -1.45 
 9.12 
 -5.35 
 1.72 
 5.87 
 7.43 
 -5.77 
 -4.8 
 -3.39 
 0.89 
 8.46 
 -1.56 
 -7.5 
 -7.02 
 -6.03 
 7.09 
 3.9 
 0 
 6.64 
 0.63 
 -7.62 
 -0.81 
 -0.69 
 5.76 
 4.2 
 -9.27 
 -3.87 
 9.26 
 0.62 
 -5.76 
 -7.61 
 -6.12 
 9.77 
 -4.24 
 -6.68 
 -9.99 
 1.53 
 -0.0299997 
 8.52 
 6.34 
 -9.47 
 0.21 
 6.04 
 3.13 
 3.45 
 -8.47 
 6.24 
 -9.15 
 -9.81 
 -8.03 
 -8.45 
 -1.8 
 -2.22 
 -7.25 
 -4.82 
 -9.45 
 -1.08 
 -2.29 
 0 
 -7.95 
 -2.56 
 -0.65 
 1.8 
 3.46 
 6.75 
 9.87 
 6.01 
 -9.99 
 5.42 
 3.86 
 -5.3 
 4 
 8.87 
 0.31 
 0.45 
 1.15 
 -4.81 
 -5.43 
 -9.34 
 -0.28 
 -9.71 
 6.19 
 -9 
 -1.59 
 -8.07 
 -6.78 
 -7.41 
 0.78 
 9.95 
 6.96 
 -1.82 
 8.05 
 -6.67 
 -1.11 
 3.74 
 6.51 
 -1.94 
 -4.6 
 -9.44 
 0 
 -8.79 
 3 
 -9.36 
 5.86 
 -2.51 
 2.56 
 -8.86 
 -3.9 
 -1.14 
 -3.28 
 -0.82 
 -4.8 
 9.24 
 3.05 
 7.94 
 -5.71 
 -5.42 
 -1.42 
 8.75 
 -6.99 
 -8.86 
 3.52 
 9.96 
 4.7 
 -6.02 
 8.47 
 1.01 
 -5.07 
 8.26 
 -8.7 
 2.72 
 -4.29 
 9.37 
 -2.84 
 3.6 
 -9.6 
 -1.78 
 -1.28 
 0.11 
 8.55 
 0 
 6.87 
 2.42 
 -3.41 
 8.07 
 6 
 7.9 
 -4.16 
 9.97 
 -6.6 
 2.61 
 -7.71 
 -3.05 
 -9.5 
 -5.55 
 -4.32 
 1.88 
 2.56 
 -4.88 
 -1.58 
 7.2 
 -3.8 
 -2.23 
 9.09 
 -2.08 
 -7.34 
 -8.1 
 1.55 
 -6.46 
 0.23 
 7.27 
 -3.99 
 8.99 
 5.09 
 8.14 
 -8.36 
 3.84 
 1.19 
 -5.69 
 -2.3 
 -0.87 
 0 
 -5.1 
 1.41 
 0.91 
 -4.65 
 5.18 
 6.99 
 3.98 
 3.82 
 6.32 
 -7.9 
 3.74 
 -3.89 
 -0.36 
 -5.82 
 3.97 
 -8.34 
 -4.36 
 8.67 
 1.93 
 -6.44 
 2.79 
 9.92 
 4.74 
 -8.04 
 -7.89 
 -1.8 
 -5.78 
 -2.48 
 -6.82 
 8.44 
 -1.68 
 -6.5 
 -2.63 
 -8.35 
 6.47 
 8.23 
 1.26 
 -9.12 
 -5.25 
 9.11 
 0 
 -8.13 
 -0.26 
 7.43 
 4.09 
 -8.13 
 2.16 
 -4.8 
 1.27 
 1.9 
 -2.13 
 -7.43 
 -0.62 
 6.37 
 3.28 
 -2.38 
 -5.11 
 7.21 
 -7.11 
 -4.15 
 0.74 
 -1.78 
 -7.11 
 8.53 
 -8.77 
 4.38 
 -3.91 
 -5.66 
 -3.3 
 -8.09 
 5.49 
 -8.83 
 8.13 
 -8.57 
 -6.98 
 3.2 
 7.83 
 4.62 
 3.93 
 7.83 
 -5.99 
 0 
 4.16 
 6.12 
 0.0100002 
 -9.29 
 5.83 
 -7.28 
 -4.25 
 -1.86 
 1.86 
 -0.21 
 -1.16 
 -2.82 
 8.04 
 -5.85 
 1.03 
 1.75 
 -7.09 
 6.24 
 -8.9 
 -3.78 
 -8.05 
 6.22 
 9.62 
 -7.06 
 2.08 
 2.21 
 2.47 
 -0.43 
 0.56 
 5.32 
 0.82 
 -0.78 
 -3.44 
 -4.9 
 -6.77 
 -5.46 
 -1.94 
 -5.54 
 -7.31 
 -7.2 
 0 
 -2.74 
 8.84 
 1.74 
 -6.54 
 3.22 
 8.47 
 3.68 
 -3.96 
 -3.84 
 -1.07 
 -8.41 
 -2.59 
 4.75 
 5.32 
 -3.7 
 -3.25 
 7.6 
 -2.48 
 -2.24 
 7.81 
 -10 
 -9.58 
 -1.5 
 -5.49 
 -1.53 
 7.13 
 -2.86 
 -9.87 
 8.2 
 5.49 
 -3.11 
 4.89 
 9.62 
 -6.95 
 -2.43 
 -9.03 
 -3.21 
 -6.08 
 -1.42 
 9.88 
 0 
 0.28 
 -9.59 
 9.63 
 5.39 
 5.87 
 6.89 
 4.46 
 -2.49 
 9.71 
 -2.82 
 -6.39 
 4.64 
 -5.13 
 1.99 
 1.14 
 7.18 
 -1.57 
 4.04 
 -4.92 
 8.89 
 -4.36 
 3.12 
 -0.0799999 
 -0.49 
 1 
 -5.01 
 -5.42 
 -9.87 
 4.2 
 -7.4 
 -6.78 
 1.93 
 -9.9 
 6.69 
 0.85 
 -2 
 0.62 
 3.18 
 -0.61 
 -7.17 
 0 
 5.11 
 -1.98 
 6.31 
 8.04 
 -5.28 
 -2.85 
 -0.43 
 3.36 
 -9.97 
 4.35 
 -3.37 
 0.37 
 -4.27 
 4.13 
 3 
 7.8 
 5.93 
 -9.55 
 6.7 
 0.19 
 5.02 
 7.12 
 9.78 
 -6.4 
 -3.98 
 7.79 
 -1.04 
 -6.98 
 -7.86 
 0.97 
 -5.88 
 -8.9 
 -1.89 
 5.61 
 -4.44 
 -6.81 
 2.53 
 2.31 
 -3.34 
 -3.91 
 0 
 -4.7 
 5.72 
 1.66 
 9.05 
 -3.54 
 0.5 
 -1.18 
 3.9 
 1.55 
 -3.52 
 9.16 
 0.56 
 -0.67 
 -0.34 
 9.26 
 6.32 
 2.37 
 -7.16 
 -7.1 
 -4.56 
 -3.04 
 -3.03 
 -4.35 
 9.71 
 5.43 
 8.78 
 1.61 
 -3.29 
 -2.97 
 -0.82 
 8.69 
 7.94 
 3.69 
 9.37 
 0.23 
 2.83 
 1.17 
 7.46 
 6.61 
 -5.26 
 0 
 -6.99 
 0.16 
 4.75 
 -9.43 
 8.28 
 2.75 
 -0.57 
 -9.73 
 -1.56 
 -8.13 
 -1.4 
 6.48 
 9 
 3.42 
 -4.98 
 -5.98 
 -3.38 
 -2.95 
 9.33 
 2.33 
 2.89 
 -4.19 
 -1.11 
 -4.16 
 1.26 
 7.85 
 -2.37 
 9.2 
 -5.67 
 4.7 
 -1.78 
 0.44 
 5.63 
 -6.73 
 0.86 
 -2.44 
 -9.54 
 2.31 
 -1.2 
 -7.63 
 0 
 -7.44 
 -2.78 
 1.61 
 8.19 
 5.37 
 -9.24 
 -7.56 
 -2.12 
 6.64 
 -9.77 
 -4.73 
 -9.09 
 2.32 
 -8.35 
 7.2 
 -3.02 
 -6.6 
 -8.22 
 9.13 
 -8.7 
 1.49 
 -4.31 
 2.63 
 5.62 
 -2 
 -7.02 
 9.98 
 -7.02 
 -2.84 
 7.86 
 1.72 
 -8.49 
 -0.62 
 7.71 
 2.75 
 7.59 
 7.33 
 -6.34 
 -1.49 
 -2.08 
 0 
 -5.3 
 8.88 
 1.39 
 3.35 
 -4.89 
 -2.33 
 0.31 
 -7.85 
 -7.93 
 -6.82 
 -8.76 
 7.93 
 0.83 
 -3.47 
 -7.56 
 -5.09 
 2.93 
 -3.44 
 2.33 
 3.67 
 8.61 
 8.14 
 1.87 
 -1.52 
 4.22 
 6.31 
 4.56 
 -6.93 
 -8.69 
 -2.39 
 -2.07 
 -9.83 
 6.49 
 4.51 
 -0.13 
 -0.39 
 7.42 
 2.38 
 6.19 
 2.75 
 0 
 9.61 
 6.7 
 -7.1 
 8.93 
 5.88 
 9.04 
 -5.98 
 1.06 
 -8.72 
 3.06 
 8.51 
 7.7 
 -6.35 
 2.02 
 -8.29 
 1.72 
 4.67 
 -5.46 
 4.27 
 -1.01 
 -8.11 
 -2 
 1.07 
 -5.2 
 4.18 
 -8.47 
 -8.64 
 3.7 
 5.58 
 -3.85 
 8.63 
 -5.24 
 -0.39 
 -7.03 
 3.22 
 9.18 
 -8.74 
 -7.39 
 4.02 
 0.0600004 
 0 
 4.07 
 -3.79 
 8.72 
 -7.61 
 3.73 
 -6.61 
 0.59 
 -9.12 
 -2.72 
 -2.52 
 -9.45 
 -4.34 
 9.42 
 -4.6 
 -1.08 
 -6.44 
 -8.02 
 4.41 
 0.68 
 3.65 
 7.55 
 4.28 
 5.64 
 8.06 
 -2.67 
 8.22 
 -9.22 
 8.42 
 0.84 
 0.0600004 
 8.83 
 4.21 
 4.62 
 1.6 
 1.51 
 -1.62 
 -2.37 
 5.83 
 6.69 
 -6.01 
 0 
 -5.14 
 -7.87 
 3.1 
 -5.35 
 7.64 
 6.6 
 -1.03 
 1.14 
 -9.78 
 -7.97 
 5.17 
 1.27 
 -9.43 
 -3.42 
 -4.16 
 -2.54 
 -0.15 
 1.5 
 2.24 
 -6.67 
 -1.01 
 -6 
 -4.93 
 -3.99 
 2.02 
 -4.08 
 -5.28 
 -2.1 
 -3.84 
 -5.66 
 3.66 
 -6.28 
 5.78 
 -8.48 
 5.16 
 -7.99 
 1.7 
 -1.28 
 7.37 
 -3 
 0 
 0.71 
 -1.47 
 -7.58 
 -2.17 
 4.62 
 9.11 
 -4.65 
 7.92 
 -6.27 
 -2.56 
 -9.84 
 -3.56 
 -4.67 
 -5.29 
 -7.78 
 -7.25 
 -4.3 
 -7.93 
 2.2 
 -9.79 
 7.92 
 5.59 
 -5.55 
 0.56 
 5.73 
 0.32 
 6.4 
 -7.46 
 -6.08 
 4.76 
 -2.74 
 4.91 
 3.61 
 1.24 
 4.3 
 -0.26 
 -3.11 
 5.39 
 -8.91 
 0.22 
 0 
 3.22 
 -2.04 
 2.07 
 5.71 
 -5.89 
 6.93 
 -8.36 
 6.21 
 5.54 
 -5.21 
 4.87 
 4.97 
 1.44 
 -7.26 
 -3.29 
 -6.58 
 8.5 
 -1.48 
 -7.74 
 -8.35 
 2.42 
 -8.42 
 4.83 
 9.92 
 6.04 
 6.73 
 7.09 
 -3.34 
 2.84 
 -3.23 
 -8.31 
 -2.88 
 0.94 
 -5.42 
 -0.36 
 -4.23 
 -7.46 
 -3.44 
 6.77 
 -2.54 
 0 
 3.41 
 -5.87 
 3.81 
 -6.45 
 -7.15 
 9.68 
 5.54 
 -7.5 
 -4.33 
 8.59 
 1.42 
 7.63 
 0.0500002 
 -3.45 
 -9.56 
 -5.24 
 -9.96 
 1.73 
 1.94 
 -4.38 
 -0.51 
 -1.75 
 -8.19 
 -8.2 
 1.39 
 -0.68 
 -3.05 
 -7.05 
 4.85 
 -8.19 
 8.72 
 -0.92 
 -8.33 
 -9.28 
 0.5 
 7.91 
 9.4 
 5.14 
 -8.38 
 4.24 
 0 
 6.44 
 -3.4 
 -4.01 
 -9.89 
 -0.34 
 5.25 
 9.08 
 -5.86 
 -0.43 
 6.87 
 6.21 
 1.41 
 3.04 
 5.77 
 6.12 
 -9.08 
 5.35 
 -6.19 
 3.6 
 7.58 
 7.65 
 -6.81 
 2.5 
 5.08 
 -6.24 
 -8.06 
 -4.21 
 -7.91 
 -8.66 
 8.84 
 7.81 
 -3.63 
 9.39 
 5.25 
 -0.89 
 -3.45 
 -0.64 
 3.72 
 2.84 
 7.13 
 0 
 -8.93 
 -2.26 
 -3.29 
 -8.29 
 5.49 
 9.42 
 -0.72 
 -7 
 1 
 -8.24 
 -9.11 
 0.76 
 4.07 
 1.09 
 -5.7 
 -3.56 
 -7.24 
 -0.15 
 2.58 
 -5.56 
 0.66 
 -0.57 
 7.44 
 -4.88 
 3.95 
 -3.11 
 1.55 
 3.42 
 -3.2 
 6.68 
 0.59 
 -8.73 
 -8.1 
 4.67 
 9.93 
 -9.07 
 -8.65 
 8.67 
 9.1 
 2.36 
 0 
 5.35 
 0.63 
 7.87 
 -6.87 
 3.09 
 7.23 
 6.05 
 -9.27 
 3.36 
 -7.05 
 -1.49 
 -7.88 
 -4.81 
 -9.1 
 7.72 
 2.38 
 5.26 
 -5.39 
 2.16 
 7.78 
 -8.92 
 -7.3 
 -7.99 
 -4.81 
 6.77 
 -6.99 
 -5.49 
 -3.91 
 -6.31 
 6.53 
 9.18 
 -5.01 
 -2.43 
 5.35 
 0.58 
 -3.24 
 -6.48 
 -7.72 
 8.58 
 2.08 
 0 
 7.3 
 7.15 
 0.57 
 7.98 
 2.33 
 5.35 
 -4.36 
 5.43 
 -4.34 
 3.81 
 -6.15 
 6.36 
 -2.56 
 9.72 
 -3.14 
 7.49 
 -2.47 
 -5.76 
 6.35 
 8.1 
 -6.42 
 -1.33 
 4.35 
 8.34 
 5.63 
 8.4 
 0.65 
 -2.73 
 9.05 
 -8.2 
 -6.87 
 -5.83 
 -7.59 
 -7.38 
 4.97 
 2.82 
 5.5 
 4.88 
 -3.37 
 -2.38 
 0 
 6.86 
 1.49 
 -8.03 
 -4.63 
 -4.65 
 1.31 
 -1.43 
 -9.86 
 -3.26 
 -6.61 
 -1.64 
 -1.19 
 2.43 
 4.51 
 -9.46 
 4.73 
 6.45 
 7.42 
 -0.94 
 -3.98 
 9.86 
 -4.36 
 4.99 
 2.46 
 -5.67 
 -6.44 
 -3.07 
 -1.59 
 4.96 
 -5.61 
 -4.95 
 6.05 
 0.0200005 
 -5.86 
 -5.15 
 -4.77 
 -1.42 
 -1.62 
 7.79 
 4.83 
 0 
 -5.25 
 0.0900002 
 -5.7 
 -1.55 
 3.4 
 -2.31 
 -6.7 
 -2.94 
 5.97 
 0.41 
 2.86 
 3.33 
 9.86 
 -5.38 
 -8.73 
 1.99 
 -3.81 
 -0.35 
 2.58 
 -1.7 
 0.34 
 -5.41 
 4.34 
 -5.42 
 -3.15 
 -1.23 
 -0.04 
 -1.45 
 -4.32 
 8.18 
 -9.34 
 -7.7 
 7.95 
 8.71 
 -8.99 
 -1.19 
 -1 
 -5.33 
 9.34 
 8.15 
 0 
 -4.99 
 2.79 
 6.84 
 -6.22 
 -9.02 
 -4.59 
 -9.15 
 7.32 
 4.84 
 3.04 
 8.67 
 6.74 
 6.07 
 -2.17 
 -0.26 
 -8.39 
 7.34 
 0.7 
 5.39 
 1.61 
 -0.51 
 -8.31 
 -7.11 
 -3.27 
 4.16 
 8.05 
 9.68 
 -2.19 
 -8.36 
 5.89 
 2.51 
 -4.49 
 1 
 0.19 
 -6.24 
 -1.47 
 -5.04 
 -1.21 
 -4.26 
 -4.62 
 0 
 8.37 
 -3.06 
 6.63 
 3.03 
 -4.46 
 -5.07 
 9.7 
 -3.7 
 -4.89 
 3.37 
 -2.33 
 6.78 
 -8.31 
 -8.71 
 9.51 
 -1.49 
 -1.2 
 8.26 
 -8.25 
 -2.19 
 -4.34 
 8.55 
 -6.3 
 4.08 
 -9.33 
 -5.43 
 0.65 
 -4.26 
 5.03 
 0.0799999 
 1.06 
 -5.89 
 1.35 
 -0.32 
 -1.53 
 -0.38 
 -3.08 
 2.15 
 -8.31 
 -9.45 
 0 
 6.15 
 3.16 
 3.4 
 1.78 
 -3.93 
 -3.72 
 -4.01 
 0.12 
 8.86 
 -9.52 
 7.64 
 6.43 
 9.55 
 -3.53 
 -0.97 
 1.02 
 -4.58 
 5.2 
 -6.11 
 8.11 
 6.83 
 -8.66 
 6.68 
 -7.05 
 -1.75 
 -9.16 
 6 
 -1.95 
 1.34 
 7.41 
 -9.85 
 5.6 
 3.09 
 -1.85 
 -5.93 
 8.12 
 -4.7 
 -3.67 
 5.34 
 4.74 
 0 
 -7.81 
 -8.38 
 8.66 
 2.06 
 -5.56 
 8.19 
 -3.06 
 -0.4 
 7.3 
 -4.74 
 -5.96 
 4.56 
 5.49 
 3.31 
 -6.99 
 -2.64 
 0.77 
 0.65 
 0.76 
 -5.05 
 -4.02 
 -8 
 -9.99 
 0.68 
 8.17 
 8.79 
 -0.42 
 -5.01 
 5.89 
 -4.89 
 4.25 
 3.98 
 5.09 
 3.92 
 -2.84 
 2.16 
 -4.77 
 -1.65 
 4.57 
 9.1 
 0 
 -2.97 
 3.86 
 4.39 
 1.36 
 6.32 
 -5.12 
 3.5 
 -1.57 
 -1.95 
 -8.78 
 3.41 
 -6.51 
 5.13 
 -7.59 
 4.12 
 4.17 
 1.24 
 9.38 
 6.74 
 -9.52 
 -9.34 
 9.15 
 3.78 
 5.91 
 3.97 
 4.81 
 -0.78 
 -4.28 
 -6.9 
 -7.99 
 4.65 
 2.51 
 -5.98 
 5.97 
 -4.65 
 -7.86 
 7.15 
 -9.18 
 4.9 
 -0.6 
 0 
 -9.36 
 -2.66 
 9.93 
 -9.27 
 -8.87 
 0.36 
 5.59 
 -6.58 
 1.1 
 9.34 
 -2.78 
 -2.81 
 -6.58 
 -8.47 
 9.14 
 -9.76 
 -3.52 
 5.16 
 2.05 
 3.58 
 3.16 
 -8.24 
 -0.84 
 -4.58 
 -8.51 
 1.37 
 -5.77 
 -2.92 
 4.25 
 -6.83 
 -2.93 
 2.22 
 -4.76 
 2.26 
 -0.0600004 
 -5.5 
 -4.31 
 7.4 
 1.95 
 -4.35 
 0 
 7.19 
 2.52 
 -7.94 
 2.27 
 -1.82 
 -9.94 
 6.51 
 -7.89 
 2.13 
 2 
 5.38 
 -6.85 
 3.96 
 9.66 
 0.34 
 3.53 
 -0.36 
 4.03 
 -8.13 
 -5.54 
 1.66 
 0.93 
 -0.45 
 -3.69 
 -3.02 
 7.44 
 9.63 
 -0.87 
 5.02 
 -4.1 
 -5.74 
 -6.15 
 -0.42 
 -4.91 
 9.44 
 -3.26 
 -0.5 
 1.69 
 -7.47 
 -1.04 
 0 
 0.28 
 6.26 
 8.29 
 -8.11 
 -5.25 
 -0.72 
 -4.38 
 2.25 
 -8.13 
 -8.24 
 7.29 
 5.5 
 -4.76 
 -6.92 
 -2.88 
 7.5 
 -9.72 
 -9.24 
 1.04 
 7.03 
 3.19 
 -3.81 
 -8.81 
 -0.93 
 9.9 
 3.31 
 -7.89 
 -5.4 
 -2.11 
 -0.59 
 -0.64 
 1.34 
 -1.42 
 -1.54 
 6.12 
 4.9 
 0.58 
 -1.29 
 5.6 
 3.84 
 0 
 -3.16 
 4.42 
 -1.48 
 8.07 
 -8.81 
 -8.63 
 -6.91 
 6.29 
 0.0500002 
 4.56 
 -1.66 
 0.38 
 -3.27 
 6.15 
 -6.91 
 -1.15 
 -0.16 
 -0.5 
 -7.95 
 -9.75 
 -4.11 
 -4.69 
 -8.58 
 7.84 
 -1.3 
 7.66 
 6.44 
 3.4 
 -9.61 
 1.71 
 4.64 
 -1.55 
 7.01 
 6.4 
 8.65 
 -2.42 
 5.97 
 -7.6 
 -7.45 
 -8.12 
 0 
 8.63 
 0.93 
 -5.88 
 -5.15 
 -8.57 
 -8.35 
 3.16 
 9.68 
 1.22 
 -8.56 
 -8.82 
 -5.64 
 -0.79 
 3.58 
 5.29 
 -8.78 
 -7.16 
 -5.98 
 -4.4 
 -2.56 
 -0.45 
 7.45 
 4.22 
 3.64 
 5 
 -5.15 
 2.74 
 5.51 
 0.94 
 5.66 
 -4.24 
 4.87 
 6.46 
 7.84 
 -8.16 
 -9.87 
 2.48 
 -9.66 
 -6.69 
 -4.39 
 0 
 1.82 
 -1.49 
 3.22 
 7.77 
 3.49 
 8.1 
 -2.93 
 5.1 
 3.89 
 7.34 
 3.62 
 -5.61 
 5.33 
 -4.13 
 -4.38 
 -4.5 
 0.87 
 0.26 
 3.15 
 -7.25 
 7.03 
 0.57 
 -9.83 
 -0.59 
 -1.48 
 6.42 
 2.83 
 5.14 
 -0.35 
 4.41 
 4.92 
 -2.4 
 -1.38 
 3.2 
 -0.81 
 8.12 
 7.07 
 7.41 
 -2.89 
 -0.92 
 0 
 -5.78 
 8.69 
 4.24 
 9.21 
 2.44 
 -8.35 
 -3.3 
 1.52 
 7.66 
 -8.69 
 -1.37 
 1.57 
 5.91 
 -9.18 
 -4.61 
 9.53 
 -0.77 
 -7.79 
 1.88 
 3.34 
 -9.87 
 4.74 
 -7.1 
 8.33 
 9.33 
 -0.37 
 7.07 
 -4.15 
 -8.71 
 9.03 
 0.61 
 -3.44 
 -7.35 
 -6.95 
 6.78 
 4.96 
 -7.05 
 9.59 
 9.32 
 -9.69 
 0 
 7.66 
 1.37 
 -7.94 
 8.35 
 -0.93 
 -1.82 
 5.42 
 -5.98 
 2.85 
 -2.08 
 -7.64 
 -8.14 
 -1.02 
 -3.86 
 -5.45 
 -8.93 
 5.59 
 6.43 
 6.23 
 -2.9 
 2.68 
 6.75 
 -0.8 
 4.46 
 -6.9 
 -5.27 
 4 
 2.7 
 7.11 
 -0.8 
 2.53 
 -2.92 
 -6.45 
 6.5 
 -3.82 
 6.04 
 -2.27 
 -9.6 
 3.24 
 -4.65 
 0 
 1.16 
 -4.4 
 9.49 
 6.75 
 -2.05 
 4.23 
 -1.27 
 -8.95 
 -4.57 
 -7.48 
 3.81 
 -4.6 
 5.72 
 9.89 
 -3.06 
 1.24 
 -4.15 
 -7.35 
 6.96 
 -5.96 
 -5.91 
 -4.78 
 -3.31 
 6.36 
 2.27 
 9.54 
 6.42 
 3.34 
 -6.42 
 3.38 
 8.59 
 3.07 
 -8.47 
 -0.15 
 7.6 
 8.63 
 0.18 
 1.46 
 0.4 
 -6.3 
 0 
 -8.39 
 7.33 
 1.36 
 9.29 
 4.55 
 -1.85 
 -9.48 
 9.9 
 2.84 
 -0.42 
 -7.6 
 5.28 
 4.13 
 1.38 
 8.72 
 1.22 
 5.66 
 -6.1 
 -7.68 
 9.72 
 0.33 
 -3.15 
 -5.9 
 3.99 
 -0.89 
 0.0299997 
 5.01 
 -4.13 
 1.35 
 9.58 
 7.23 
 -4.09 
 -1.71 
 -7.14 
 -8.47 
 0.41 
 -3.79 
 6.27 
 2.28 
 -5.29 
 0 
 -0.97 
 0.98 
 -0.11 
 -3.94 
 -1.08 
 2.31 
 -1.37 
 0.61 
 -5.53 
 8.57 
 2.74 
 -9.68 
 -3.63 
 6.22 
 8.54 
 0.68 
 9.88 
 -3.87 
 -3.06 
 -6.89 
 0.61 
 2.9 
 5.63 
 -2.39 
 -5.11 
 -0.26 
 0.94 
 8.96 
 -4.38 
 1.58 
 4.77 
 0.63 
 0.75 
 -1.58 
 -0.72 
 -9.7 
 -5.18 
 1.77 
 -2.84 
 -6.96 
 0 
 -2.53 
 -7.61 
 8.32 
 8.83 
 0.95 
 2.53 
 2.06 
 -2.75 
 -0.97 
 3.47 
 -7.67 
 -6.75 
 6.4 
 -1.58 
 9.49 
 4.85 
 -6.42 
 -3.78 
 -3.69 
 -1.74 
 6.4 
 0.32 
 7.9 
 -5.89 
 -4.48 
 0.65 
 -5.87 
 -4.59 
 -2.26 
 2.15 
 -5.14 
 -3.99 
 -0.43 
 1.97 
 -4.31 
 9.04 
 -4.19 
 -9.3 
 7.97 
 8.45 
 0 
 9.78 
 -3.62 
 5 
 -6.66 
 -4.36 
 -5.2 
 -4.22 
 -4.13 
 2.83 
 2.83 
 4.05 
 -9.24 
 -1.76 
 8.39 
 -6.91 
 7.56 
 -2.97 
 -8.06 
 0.12 
 1.5 
 -9.02 
 -2.48 
 3.06 
 -7.77 
 1.3 
 -4.46 
 -7.41 
 1.28 
 -7.21 
 -3.58 
 9.81 
 4.49 
 6.02 
 1.34 
 9.56 
 -1.65 
 6.01 
 6.27 
 -9.99 
 6.2 
 0 
 -5.17 
 -1.01 
 -7.68 
 5.8 
 -2.46 
 5.64 
 -5.7 
 3.39 
 6.86 
 6.15 
 8.01 
 8.35 
 5.73 
 3.04 
 -2.72 
 -3.93 
 -2.6 
 -7.15 
 -8.47 
 -4.07 
 0.29 
 -6.13 
 1.93 
 5.88 
 5.04 
 3.01 
 -3.3 
 -6.72 
 -2.43 
 -0.88 
 4.01 
 9.19 
 5.04 
 -8.54 
 -5.94 
 9.98 
 1.03 
 -8.03 
 -9.3 
 2.85 
 0 
 -8.5 
 -7.13 
 -2.94 
 6.78 
 -3.97 
 4.1 
 3.15 
 -2.82 
 -3.71 
 -3.3 
 -5.4 
 -1.95 
 5.53 
 -6.77 
 -2.72 
 -3.64 
 -2.43 
 4.33 
 0.9 
 9.59 
 -8.3 
 0.9 
 -9.62 
 0.26 
 -9.32 
 -9.71 
 8.12 
 7.08 
 6.26 
 -6.84 
 9.73 
 3.21 
 -0.38 
 7.69 
 4.25 
 -9.49 
 -0.92 
 -1.16 
 -1.68 
 4.89 
 0 
 -0.0799999 
 -9.37 
 3.07 
 -4.09 
 3.91 
 -3.7 
 1.32 
 7.9 
 -6.85 
 -4.97 
 -3.52 
 5.56 
 -2.41 
 5.78 
 -1.68 
 -5.68 
 -4.03 
 -5.77 
 9.56 
 -8.06 
 -9.75 
 -2.77 
 -1.75 
 -0.62 
 4.69 
 4.39 
 -7.65 
 3.14 
 -0.18 
 8.52 
 9.24 
 1.19 
 0.31 
 -3.72 
 -1.06 
 0.76 
 -3.7 
 -9.79 
 1.57 
 -2.89 
 0 
 1.51 
 -0.39 
 0.16 
 -10 
 0.25 
 1.87 
 2.47 
 2.06 
 0.39 
 -2.83 
 1.73 
 5.71 
 -5.62 
 0.63 
 8.14 
 -0.2 
 -9.97 
 -5.05 
 3.82 
 -2.48 
 8.89 
 8.4 
 5.86 
 -7 
 8.09 
 -5.13 
 5.12 
 9.5 
 -7.13 
 3.62 
 1.45 
 2.04 
 1.22 
 -6.39 
 -0.43 
 3.17 
 2.2 
 9.22 
 -4 
 -7.52 
 0 
 8.88 
 0.68 
 -7.57 
 4.48 
 -6.85 
 -2.01 
 9.59 
 -9.62 
 1.9 
 5.99 
 6.91 
 -3.55 
 -0.75 
 -7.57 
 -6.27 
 -2.33 
 -5.07 
 3.31 
 -2.16 
 -6.06 
 -2.71 
 -5.09 
 -4.77 
 2.4 
 -7.35 
 -5.89 
 9.66 
 6.59 
 -4.18 
 8.91 
 -5.17 
 7.25 
 1.56 
 4.7 
 -4.54 
 -8.73 
 0.38 
 -7.48 
 -1.08 
 5.04 
 0 
 8.45 
 -9.55 
 8.72 
 -7.26 
 -7.02 
 1.96 
 7.02 
 1.13 
 -8.74 
 -7.55 
 -5.69 
 1.86 
 4.61 
 -8.79 
 0.64 
 -8.15 
 -5.89 
 -1.17 
 4.22 
 0.46 
 0.64 
 -7.29 
 1.23 
 -9.99 
 -2.61 
 4.3 
 -7.24 
 8.64 
 -2.27 
 8.69 
 0.97 
 2.31 
 -5.36 
 -0.25 
 9.8 
 -9.13 
 -5.68 
 -2.24 
 -5.23 
 -1.98 
 0 
 8.91 
 -6.26 
 7.66 
 -9.21 
 3.5 
 -5.73 
 -6.48 
 3.8 
 -0.11 
 4.76 
 -0.93 
 3.76 
 -9.64 
 -5.86 
 -3.75 
 8.6 
 -3.99 
 2.78 
 -4.72 
 -7.25 
 8.09 
 -7.52 
 -4.23 
 -2.71 
 6.25 
 -5.05 
 0.46 
 7.08 
 1.84 
 5.34 
 8.09 
 -7.43 
 2.68 
 0.14 
 -5.55 
 6.82 
 -3.02 
 -6.39 
 5.59 
 1.35 
 0 
 1.43 
 -9.08 
 3.94 
 0.34 
 -9.78 
 7.86 
 -7.2 
 -7.9 
 -5.93 
 -0.57 
 -2.51 
 -5.37 
 1.26 
 -6.41 
 -1.61 
 5.88 
 -9.33 
 3.96 
 -8.02 
 6.3 
 7.43 
 4.06 
 -8.14 
 -6.33 
 3.37 
 -6.98 
 3.81 
 9.49 
 -8.3 
 -1.47 
 -7.42 
 4.52 
 -1.39 
 -7.58 
 4.63 
 -1.11 
 5.71 
 -5 
 -1.61 
 3.2 
 0 
 -1.07 
 -2.69 
 -5.83 
 4.04 
 -4.8 
 1.54 
 6.7 
 -8.42 
 1 
 2.86 
 -3.83 
 4.81 
 -6.48 
 3.45 
 1.63 
 1.41 
 3.61 
 -6.32 
 -5.12 
 8.93 
 -6.93 
 1.91 
 -8.07 
 -8.09 
 -8.99 
 -9.94 
 7.54 
 -8.12 
 -6.56 
 -1.58 
 2.85 
 1.21 
 1.05 
 3.02 
 8.54 
 -2.81 
 -5.08 
 -5.01 
 4.33 
 6.57 
 0 
 6.69 
 -7.51 
 3.96 
 -2.64 
 2.01 
 3.14 
 3.47 
 -2.48 
 -6.2 
 2.97 
 -6.92 
 7.84 
 -9.3 
 -4.13 
 8.12 
 8.2 
 -2.41 
 -8.53 
 7.38 
 6.14 
 -4.8 
 -6.32 
 -9.17 
 4.11 
 -1.47 
 -4.42 
 7.54 
 8.04 
 0.89 
 8.12 
 8.03 
 -0.04 
 3.54 
 -7.7 
 3.36 
 -8.67 
 9.83 
 -5.41 
 -2.37 
 -4.55 
 0 
 -3.42 
 6.93 
 8.69 
 4.93 
 -6 
 -2.42 
 -8.08 
 2.34 
 7.25 
 -6.42 
 1.65 
 4.97 
 2.81 
 6.19 
 0.52 
 0.88 
 -9.27 
 -6.12 
 9.36 
 6.04 
 -9.7 
 -8.1 
 -6.91 
 -1.06 
 -6.72 
 4.21 
 1.44 
 0.13 
 9.18 
 -4.51 
 9.16 
 -0.2 
 2.17 
 0.65 
 2.42 
 -3.14 
 -2.22 
 -2.85 
 -0.48 
 -7.44 
 0 
 3.82 
 -1.23 
 8.61 
 -7.44 
 -3.99 
 4.44 
 4.87 
 3.83 
 -9.96 
 -8.41 
 -8.83 
 -0.0699997 
 -7.04 
 6.78 
 -8.48 
 1.43 
 7.38 
 3.93 
 6.1 
 7.63 
 -7.84 
 -7.82 
 -9.35 
 2.24 
 -8.24 
 3.02 
 -1.28 
 6.16 
 -0.43 
 -8.27 
 -2.72 
 -8.34 
 -5.82 
 -8.8 
 3.97 
 -5.63 
 -2.84 
 1.06 
 -6.21 
 2.32 
 0 
 5.38 
 9.31 
 -9.48 
 9.54 
 -7.35 
 -2.32 
 -1.25 
 -3.52 
 0.63 
 2.55 
 -4.86 
 -2.98 
 4.42 
 9.34 
 -7.79 
 5.13 
 2.42 
 -6.36 
 -5.1 
 1.06 
 -8.98 
 3.3 
 -8.05 
 8.12 
 -1.81 
 -4.88 
 -8.16 
 0.77 
 5.03 
 8.67 
 5 
 7.05 
 -0.71 
 -0.26 
 -4.57 
 -8.84 
 -8.29 
 9.98 
 3.24 
 2.47 
 0 
 5.87 
 -6.29 
 -0.11 
 -7.79 
 -4.21 
 3.54 
 0.7 
 2.77 
 0.0900002 
 -5.04 
 4.43 
 1.64 
 -9.46 
 -3.26 
 -3.58 
 1.61 
 -1.53 
 8.41 
 -1.55 
 2.02 
 -4 
 -4.05 
 0.0600004 
 1.39 
 6.38 
 0.17 
 6.22 
 8.39 
 -4.29 
 -6.46 
 8.31 
 -9.25 
 9.42 
 5.18 
 -2.82 
 -8.69 
 6.09 
 -8.66 
 -6.59 
 4.16 
 0 
 -1.27 
 -4.01 
 -1.13 
 -7.95 
 8.82 
 9.57 
 1.2 
 4.32 
 4.32 
 3.69 
 -5.16 
 -1.6 
 -9.38 
 2.58 
 0.72 
 -5.24 
 7.08 
 -1.05 
 4.18 
 5.98 
 -3.39 
 -4.97 
 -3.98 
 -4.16 
 -8.76 
 -3.51 
 -6.85 
 -1.29 
 -4 
 5.59 
 -6.14 
 9.67 
 -6.17 
 -6.72 
 -7.94 
 -6.01 
 6.98 
 -3.87 
 -0.72 
 7.66 
 0 
 -1.8 
 -5.71 
 5.57 
 -7.25 
 -7.08 
 -6.47 
 -4.97 
 -9.36 
 -7.51 
 3.99 
 2 
 -4.58 
 8.01 
 3.82 
 4.74 
 -1.97 
 8.93 
 6.3 
 -7.07 
 1.62 
 -8.44 
 -7.56 
 5.43 
 9.3 
 -2.68 
 4.66 
 0.26 
 -9.32 
 -3.34 
 8.42 
 5.02 
 6.65 
 2.53 
 3.64 
 -1.29 
 -0.93 
 -0.18 
 9.34 
 -1.04 
 -7.17 
 0 
 2.12 
 -1.93 
 1.23 
 2.99 
 -0.48 
 9.63 
 0.84 
 -3.17 
 -1.97 
 1.16 
 -4.05 
 -8.61 
 -4.67 
 -8.07 
 1.68 
 8.04 
 1.86 
 -4.4 
 3.03 
 -8.6 
 -8.58 
 -5.42 
 -5.66 
 -6.93 
 -2.78 
 9.08 
 -2.33 
 -3.7 
 4.86 
 -7.78 
 -7.54 
 -0.29 
 -0.71 
 1.65 
 1.34 
 -4.58 
 3.36 
 8.67 
 -9.84 
 -6.28 
 0 
 -6.46 
 4.35 
 -5.86 
 3.58 
 -5.95 
 7.38 
 8.88 
 -7.77 
 -2.16 
 7.79 
 -9.02 
 1.31 
 6.81 
 -0.7 
 8.15 
 -4.26 
 -6.58 
 -2.75 
 -1.87 
 2.42 
 -7.19 
 -7.19 
 -4.36 
 2.63 
 5.62 
 -4.03 
 8.1 
 -6.51 
 1.63 
 0.93 
 4.3 
 -7.86 
 8.74 
 -1.1 
 -5.41 
 -6.89 
 7.54 
 -0.4 
 6.8 
 -6.24 
 0 
 4.72 
 5.74 
 9.06 
 6.11 
 -5.13 
 -1.11 
 -6 
 -3.07 
 -5.13 
 8.42 
 6.89 
 -7.35 
 9.32 
 -6.2 
 -2.02 
 -8.68 
 9.06 
 -1.13 
 5.99 
 -2.46 
 0.29 
 -3.18 
 8.75 
 3.13 
 1.6 
 -0.45 
 -9.93 
 -4.16 
 8.34 
 2.99 
 -9.14 
 3.19 
 -5.77 
 -6.66 
 8.18 
 -1.51 
 -1.09 
 -1.67 
 -6.78 
 7.19 
 0 
 5.35 
 -6.6 
 -4.01 
 4.96 
 -2.03 
 8.29 
 -5.15 
 0.52 
 -7.08 
 -0.49 
 -9.92 
 4.46 
 -1.61 
 -1.5 
 -1.43 
 8.86 
 3.18 
 6.23 
 -6.73 
 6.49 
 6.83 
 -5.68 
 -7.78 
 -7.3 
 -5.81 
 -5.24 
 9.94 
 4.45 
 -0.0200005 
 4.02 
 7.98 
 -6.05 
 6.74 
 7.31 
 0.98 
 -8.21 
 -1.55 
 7.57 
 -3.88 
 -4.46 
 0 
 2.93 
 -0.82 
 -7.42 
 -0.33 
 8.36 
 5.37 
 6.98 
 -5.32 
 8.22 
 9.52 
 8.35 
 -1.14 
 9.03 
 1.6 
 -7.46 
 8.36 
 2.79 
 5.02 
 5.96 
 3.94 
 0.4 
 8.5 
 -5.86 
 0.84 
 4.21 
 7.38 
 1.75 
 9.09 
 3.89 
 5.14 
 -1.62 
 6.89 
 7.68 
 -2.93 
 5.2 
 -9.84 
 7.05 
 3.93 
 -6.35 
 -1.71 
 0 
 -2.54 
 8.1 
 6.21 
 6.27 
 -0.6 
 -0.89 
 3.31 
 4.2 
 -7.07 
 -6.86 
 9.15 
 -9.55 
 -4.31 
 -0.92 
 0.21 
 -2.37 
 -0.4 
 -8.78 
 -0.43 
 -8.26 
 -7.3 
 6.23 
 9.37 
 -9.19 
 9.91 
 2.72 
 -4.77 
 5.04 
 -4.54 
 -5.12 
 -2.08 
 -9.49 
 9.97 
 -7.96 
 -3.53 
 -8.61 
 -8.54 
 9.14 
 1.5 
 -6.53 
 0 
 -2.9 
 -9.58 
 -0.63 
 9.65 
 2.77 
 0.13 
 3.64 
 -8.69 
 8.78 
 6.13 
 -8.01 
 -4.96 
 -7.71 
 0.26 
 4.23 
 0.82 
 -6.94 
 -0.88 
 3.86 
 -5.73 
 4.97 
 0.22 
 2.97 
 9.22 
 -1.33 
 6.86 
 8.48 
 4.42 
 -7.71 
 -7.22 
 7.63 
 -1.86 
 -8.16 
 6.06 
 8.03 
 -8.75 
 7.53 
 -9.08 
 0.88 
 5.47 
 0 
 8.52 
 2.65 
 -6.15 
 -9.6 
 -7.72 
 5.47 
 2.21 
 5.57 
 4.95 
 -5.53 
 4.76 
 6.58 
 -8.49 
 -6.73 
 -8.72 
 -9.06 
 7.36 
 -8.95 
 -9.63 
 -5.74 
 2.03 
 9.32 
 0.24 
 -7.2 
 8.65 
 -0.93 
 -0.86 
 -3.68 
 -5.11 
 -6.39 
 -1.03 
 -1.47 
 -2.28 
 -2.6 
 3.91 
 -1.92 
 -5.22 
 -5.4 
 3.43 
 -2.85 
 0 
 -8.82 
 -4.82 
 -9.35 
 5.47 
 -8.44 
 -3.13 
 3.96 
 2.23 
 -8.65 
 -5.5 
 -3.29 
 9.17 
 -3.92 
 4.77 
 -4.74 
 -1.1 
 4.59 
 -7.26 
 -4.22 
 -7.55 
 8.61 
 0.99 
 -6.71 
 -4.13 
 -8.33 
 0.84 
 -6.51 
 7.53 
 -5.73 
 -4.55 
 1.48 
 -5.91 
 -6.89 
 8.48 
 -3.52 
 6.18 
 1.28 
 8.31 
 -2.65 
 -8.47 
 0 
 -7.91 
 -5.7 
 6.12 
 3.32 
 7.33 
 2.02 
 8.72 
 -7.68 
 -3.04 
 5.51 
 -4 
 -4.76 
 2.36 
 -3.39 
 -3.66 
 2.67 
 -9.68 
 3.11 
 -6.99 
 5.04 
 -9.18 
 7.42 
 -3.38 
 -4.93 
 -3.9 
 -5.31 
 -5.65 
 -6.91 
 4.89 
 -1.78 
 -5.77 
 -6.24 
 -5.42 
 0.7 
 7.51 
 9.07 
 8.16 
 -2.68 
 -3.4 
 7.17 
 0 
 1.11 
 -2.38 
 8.47 
 3.13 
 -2.15 
 8.32 
 6.31 
 -5.82 
 -2.9 
 -9.66 
 -9.98 
 -5.58 
 5.3 
 4.12 
 1.3 
 2.61 
 -6.46 
 8.79 
 -9.12 
 -0.2 
 -4.87 
 0.48 
 7.72 
 -1.14 
 7.18 
 7.67 
 4.59 
 -6.25 
 -7.08 
 -3.14 
 0.4 
 3.91 
 1.87 
 -0.21 
 -1.86 
 -7.32 
 -4.51 
 -4.73 
 4.92 
 8.98 
 0 
 -3.28 
 5.62 
 5.05 
 5.28 
 8.03 
 -9.89 
 -9.68 
 -7.38 
 -4.34 
 5.8 
 -1.43 
 -8.16 
 -3.7 
 -9.24 
 -0.43 
 -3.6 
 -8.68 
 -7 
 -4.79 
 5.06 
 -4.99 
 6.65 
 6.65 
 0.0100002 
 4.66 
 -8 
 1.96 
 7.85 
 8.77 
 -5.11 
 -4.88 
 9.72 
 9.02 
 7.75 
 3.12 
 -2.64 
 -4.35 
 -9.13 
 -9.97 
 4.49 
 0 
 -5.45 
 8.31 
 -3.41 
 6.55 
 2.49 
 -7.87 
 3.95 
 2.86 
 6.07 
 -7.05 
 2.15 
 -4.53 
 -6.95 
 4.63 
 -8.54 
 9.45 
 8.05 
 -5.74 
 -6.91 
 7 
 -5.61 
 3.09 
 7.23 
 3.81 
 -9.74 
 9.02 
 -3.97 
 5.44 
 2.37 
 -5.06 
 0.75 
 2.05 
 -3.59 
 -9.94 
 -5.58 
 2.68 
 4.26 
 9.76 
 4.47 
 -1.31 
 0 
 1.27 
 -2.95 
 6.14 
 2.4 
 8.34 
 -2.57 
 -1.3 
 -5.45 
 6.76 
 -6.15 
 -8.38 
 0.3 
 -3.52 
 -2.42 
 8.05 
 0.26 
 9.39 
 -7.45 
 -5.23 
 2.14 
 -5.58 
 -9.4 
 -1.64 
 8.59 
 4.86 
 -2.1 
 8.93 
 0.8 
 6.45 
 -9.8 
 5.6 
 -7.74 
 -5.49 
 2.5 
 -1.53 
 6.93 
 -9.35 
 5.82 
 -3.34 
 9.95 
 0 
 9.57 
 0.15 
 8.21 
 -0.31 
 -2.81 
 8.38 
 4.4 
 7.84 
 5.74 
 -7.8 
 1.77 
 -4.42 
 2.28 
 -2.33 
 -9.15 
 7.68 
 4.05 
 -0.86 
 1.62 
 9.33 
 -2.94 
 5.44 
 -5.98 
 -6.77 
 -4.32 
 2.78 
 -2.39 
 5.24 
 9.85 
 5.64 
 -4.68 
 7.62 
 -0.47 
 4.37 
 -9.16 
 -5.11 
 1.48 
 -1.2 
 7.24 
 9.56 
 0 
 2.13 
 -0.73 
 -9.01 
 1.63 
 -9.4 
 5.5 
 7.39 
 6.72 
 7.62 
 -0.39 
 -9.06 
 -3.03 
 -7.95 
 0.75 
 2.61 
 -1.71 
 0.59 
 -0.53 
 -8.76 
 -8.97 
 -7.7 
 -2.72 
 -7.87 
 2.86 
 -0.46 
 4.28 
 -2.65 
 3.51 
 8.34 
 6.61 
 4.39 
 -7.99 
 -4.48 
 6.72 
 1.68 
 -6.47 
 -4.84 
 8.15 
 -7.12 
 7.28 
 0 
 9.4 
 1.63 
 -9.82 
 -5.69 
 4.7 
 -5.89 
 -8.17 
 -3.07 
 3.96 
 -3.76 
 6.87 
 -9.38 
 1.99 
 -6.19 
 -4.54 
 9.12 
 -5.95 
 -4.53 
 3.03 
 -6.59 
 -7.81 
 3.78 
 8.14 
 -0.84 
 2.59 
 -8.91 
 -4.18 
 4.38 
 -6.09 
 6.93 
 -8.45 
 -5.85 
 -7.96 
 0.17 
 9.87 
 3.82 
 -3.98 
 -8.51 
 2.32 
 -4.26 
 0 
 -9.76 
 -1.41 
 -7.31 
 -8.06 
 3.94 
 5.43 
 6.13 
 4.39 
 -9.22 
 -2.61 
 -9.9 
 -5.36 
 0.76 
 3.96 
 -1.25 
 -0.55 
 -1.18 
 2.35 
 -9 
 6.55 
 -6.04 
 -2.46 
 4.51 
 -9.67 
 3.14 
 0.61 
 4.17 
 2.8 
 -4.55 
 7.91 
 -3.24 
 7.69 
 -8.28 
 -7.34 
 -5.09 
 -6.23 
 3.09 
 -7.01 
 8.74 
 -6.4 
 0 
 -4.67 
 0.22 
 -8.23 
 8.37 
 -8.59 
 -8.85 
 -3.75 
 2.24 
 2.94 
 -9.56 
 -6.02 
 -1.63 
 0.0600004 
 0.82 
 -1.9 
 -4.43 
 7.61 
 1.7 
 3.36 
 5.29 
 -1.08 
 6.32 
 9.5 
 -7.71 
 6.92 
 8.72 
 7.39 
 1.09 
 -9.44 
 4.7 
 6.43 
 -4.5 
 -1.48 
 6.92 
 2.41 
 -9.46 
 -0.8 
 9.09 
 6.04 
 -8.18 
 0 
 -2.17 
 0.45 
 3.1 
 -6.26 
 1.1 
 -1.36 
 -2.78 
 4.37 
 2.39 
 -1.43 
 0.28 
 -9.85 
 6.58 
 5.13 
 -6.38 
 -7.83 
 0.6 
 -9.35 
 -2.94 
 -4.99 
 2.27 
 9.34 
 -1.81 
 0 
 -0.93 
 -2.83 
 -8.82 
 8.21 
 -0.48 
 0.57 
 -4.2 
 -3.42 
 -8.99 
 -5.64 
 -4.23 
 0.73 
 6.85 
 -1.42 
 -0.62 
 -7.25 
 0 
 7.24 
 -6.37 
 0.88 
 -1.43 
 1.07 
 -6.44 
 2.89 
 4.38 
 8.58 
 -0.59 
 -4.63 
 3.91 
 7.53 
 -6.09 
 5.77 
 -2.46 
 -1.65964e-23 
 0.45 
 3.8 
 9.9 
 1.05 
 -1.41 
 -9.09 
 -7.86 
 0.42 
 5.57 
 -3.03 
 -1.51 
 1.69 
 8.04 
 -1.75 
 -4.48 
 3.04 
 7.81 
 -2.09 
 6.87 
 2.51 
 -7.66 
 -5.8 
 1.27 
 0 
 -6.52 
 -7.14 
 0.27 
 -7.38 
 -5.59 
 -2.17 
 5.94 
 5.04 
 0.83 
 6.53 
 9.57 
 -0.28 
 6.98 
 6.5 
 9.14 
 -4.81 
 6.35 
 -6.43 
 -7.76 
 2.76 
 5.36 
 7.05 
 -7.89 
 5.26 
 9.94 
 4.84 
 -5.1 
 4.1 
 -1.32 
 9.54 
 -4.81 
 1.27 
 6.26 
 0.83 
 8.55 
 -2.06 
 -3.11 
 -1.18 
 -0.13 
 1.33 
 0 
 -9.28 
 -3.94 
 -1.75 
 8.57 
 2.49 
 -5.76 
 0.84 
 5.86 
 6.13 
 -1.41 
 6.04 
 -8.73 
 5.93 
 -9.08 
 3.41 
 8.74 
 5.11 
 1.95 
 -8.49 
 6.74 
 -3.97 
 9.74 
 0.35 
 -6.04 
 -2.88 
 9.47 
 -4.41 
 4 
 2.75 
 -6.99 
 -8.79 
 -7.14 
 5.89 
 -1.91 
 1.69 
 -0.55 
 -9.05 
 -5.26 
 -2.55 
 -3.5 
 0 
 8.49 
 -5.51 
 -8.89 
 5.39 
 2.41 
 1.9 
 6.86 
 -1.04 
 1.54 
 -0.13 
 -3.87 
 1.44 
 8.2 
 2.75 
 -2.52 
 4.05 
 -5.06 
 7.09 
 -8.51 
 8.88 
 3.36 
 4.17 
 0.5 
 6.04 
 3.26 
 -7.81 
 -9.6 
 3 
 -7.06 
 -0.0200005 
 -7.73 
 6.97 
 -0.52 
 2.1 
 -8.93 
 4.22 
 -0.21 
 -9.28 
 6.93 
 6.47 
 0 
 -4.67 
 7.24 
 1.83 
 4.24 
 0.0600004 
 3.93 
 3.78 
 -7.26 
 9.64 
 0.57 
 7.86 
 3.95 
 -4.64 
 3.58 
 9.66 
 -4.99 
 -9.36 
 0.73 
 7.35 
 -1.48 
 1.29 
 -3.54 
 -0.43 
 7.94 
 -4.64 
 2.72 
 1.86 
 -1.02 
 -9.88 
 5.51 
 -7.79 
 8.57 
 -6.5 
 5.91 
 1.62 
 -8.77 
 -1.23 
 -7.24 
 -1.69 
 4.85 
 0 
 0.9 
 3.3 
 -9.45 
 2.43 
 -9.03 
 7.37 
 -1.31 
 -3.37 
 -9.51 
 4.1 
 8.54 
 4.53 
 -6.06 
 1.41 
 -1.56 
 -3.58 
 3.12 
 1.43 
 -7.47 
 -4.78 
 0.77 
 -7.12 
 8.33 
 1.02 
 -4.25 
 8.87 
 9.9 
 -1.37 
 -2.69 
 -8.92 
 -3.2 
 2.26 
 -7.74 
 2.46 
 -9.08 
 -6.67 
 -6.84 
 9.67 
 4.79 
 -0.79 
 0 
 1.64 
 -4.93 
 -4.64 
 9.6 
 1.21 
 9.78 
 1.53 
 -9.9 
 6.69 
 -1.22 
 -0.95 
 -4.5 
 5.06 
 2.23 
 -6.04 
 -3.49 
 4.64 
 3.66 
 -5.71 
 -4.4 
 8.41 
 9.95 
 4.82 
 7.53 
 -6.72 
 -4.46 
 6.2 
 9.89 
 3.82 
 5.71 
 6.13 
 -2.53 
 1.33 
 9.86 
 5.07 
 -0.81 
 -0.15 
 1.24 
 -3.64 
 -8.41 
 0 
 -7.33 
 4.9 
 1.78 
 -5.59 
 -3.25 
 -8.23 
 2.67 
 5.95 
 7.98 
 2.94 
 -0.45 
 -9.61 
 4.53 
 1.79 
 0.37 
 -0.34 
 2.25 
 9.44 
 -2.1 
 -3.04 
 -2.63 
 -0.76 
 2.05 
 -4.1 
 -4.92 
 -0.19 
 6.15 
 -4.98 
 6.33 
 -2.36 
 -0.67 
 6.28 
 -5.07 
 1.64 
 5.62 
 -5.85 
 4.93 
 -9 
 4.88 
 -6.46 
 0 
 7.39 
 5.71 
 7.64 
 -0.32 
 0.76 
 2.24 
 6.18 
 3.92 
 1.7 
 -4.49 
 -7.01 
 -0.79 
 6.78 
 -6.9 
 -1.31 
 4.89 
 3.66 
 -7.52 
 4.22 
 2.11 
 -3.84 
 -0.17 
 5.09 
 2.92 
 -2.32 
 5.33 
 -5.74 
 -7.39 
 6.94 
 6.89 
 5.72 
 -7.1 
 -7 
 4.56 
 4.57 
 2.66 
 -4.26 
 -2.3 
 1.07 
 5.45 
 0 
 5.66 
 -4.31 
 1.86 
 -8.94 
 -6.72 
 3.71 
 0.81 
 3.28 
 4.83 
 9.47 
 -3.2 
 -3.19 
 0.34 
 -9.12 
 4.4 
 7.01 
 -6.85 
 -0.04 
 -4.78 
 1.26 
 2.54 
 -4.8 
 7.26 
 -4.64 
 -1.1 
 -6.89 
 2.68 
 2.48 
 4.41 
 5.53 
 2.1 
 -5.61 
 -2.43 
 0.97 
 -5.15 
 -6.87 
 -9.33 
 -3.68 
 -5.25 
 3.2 
 0 
 -7.41 
 2.17 
 -9.13 
 4.32 
 4.35 
 -5.52 
 9.24 
 5.97 
 -9.8 
 -3.63 
 9.73 
 6.48 
 -3.04 
 1.29 
 7.99 
 5.46 
 5 
 1.74 
 -4.53 
 -6.81 
 -7.88 
 8.84 
 -4.38 
 5.07 
 9.22 
 3.54 
 -8.86 
 6.46 
 -5.15 
 -9.35 
 -1.75 
 8.2 
 -7.76 
 1.17 
 3.69 
 -5.44 
 6.87 
 -4.35 
 -4.19 
 6.9 
 0 
 -9.14 
 2.19 
 6.46 
 0.35 
 5.63 
 6.98 
 2.55 
 -6.54 
 3.76 
 3.26 
 -7.41 
 6.35 
 7.98 
 2.82 
 -1.03 
 -6.98 
 -0.15 
 6.62 
 7.29 
 -6.4 
 7.45 
 5.77 
 -1.09 
 6.88 
 7.98 
 -5.28 
 0.74 
 -4.19 
 -9.92 
 -5.53 
 -8.62 
 -2.26 
 -7.63 
 7.19 
 -4.32 
 4.65 
 2.92 
 3.29 
 8.49 
 6.88 
 0 
 0.82 
 -0.34 
 9.76 
 4.58 
 -6.48 
 -8.34 
 9.4 
 -0.78 
 -4.84 
 5.24 
 -4.77 
 -8.52 
 1.04 
 -5.01 
 -8.19 
 3.3 
 -5.57 
 -8.09 
 -3.17 
 2.62 
 4.83 
 -3.55 
 4.48 
 -1.9 
 -4.94 
 -7.22 
 -4.14 
 3.15 
 -3.49 
 0.16 
 -1.87 
 -8.45 
 -2.81 
 1.5 
 4.5 
 3.34 
 -7.56 
 -2.86 
 2.92 
 -7.07 
 0 
 0.88 
 -9.32 
 -8.22 
 1.91 
 -2.84 
 -2.5 
 0.67 
 2.75 
 0.94 
 3.95 
 -6.78 
 -7.92 
 8.44 
 -5.36 
 8.76 
 2.51 
 -2.79 
 -2.42 
 -8.63 
 -9.59 
 -0.91 
 -3.09 
 -9.56 
 -4.52 
 6.06 
 -8.22 
 -3.65 
 5.25 
 -5.95 
 7.26 
 -1.19 
 -0.39 
 4.84 
 6.93 
 9.38 
 4.14 
 7.74 
 -4.13 
 3.19 
 -1.69 
 0 
 -5.16 
 -6.21 
 -0.65 
 2.94 
 7.98 
 -8.36 
 4.99 
 6.16 
 4.77 
 -0.0200005 
 -2.61 
 3.76 
 0.41 
 -9.15 
 9.86 
 -5.65 
 2.7 
 -1.59 
 -2.85 
 2.64 
 -4.06 
 -1.77 
 9.43 
 8.56 
 -0.75 
 0.38 
 6.04 
 -1.66 
 6.36 
 2.15 
 1.52 
 -7.09 
 -7.55 
 6.64 
 -3.05 
 -7.48 
 -8.22 
 9.86 
 7.37 
 5.32 
 0 
 -3.58 
 4.72 
 6.55 
 -9.69 
 9.65 
 -8.4 
 5.19 
 -4.89 
 -3.68 
 6.63 
 0.1 
 -5.35 
 -8.57 
 -7.53 
 8.92 
 -8.77 
 -8.76 
 3.86 
 -2.49 
 -7.12 
 0.0200005 
 3.82 
 8.81 
 -8.88 
 6.1 
 8.49 
 -8.67 
 2.44 
 5.42 
 0.94 
 2.75 
 9.33 
 3.17 
 -5.44 
 -3.16 
 -7.23 
 -9.7 
 -9.29 
 5.85 
 4.45 
 0 
 7.05 
 -2.44 
 5.85 
 -5.51 
 7.06 
 3.61 
 -5.19 
 -2.59 
 8.71 
 -9.22 
 -8.47 
 -1.82 
 -6.24 
 8.49 
 -1.88 
 1.53 
 0.12 
 -9.51 
 -3.8 
 -3.84 
 0.34 
 -9.61 
 -9.47 
 7.02 
 -9.96 
 0.94 
 6.11 
 -3.3 
 8.22 
 6.01 
 5.21 
 0.48 
 2 
 6.12 
 7.23 
 -9.96 
 -9.76 
 0.39 
 2.54 
 7.77 
 0 
 2.22 
 2.87 
 -6.19 
 -4.41 
 -0.29 
 4.41 
 5.01 
 -7.11 
 -9.6 
 -3.17 
 -5.85 
 -7.32 
 -5.12 
 4.89 
 -7.14 
 1.48 
 -0.9 
 0.81 
 7.03 
 9.98 
 -0.8 
 -2.87 
 -4.47 
 8.37 
 7.8 
 -9.76 
 8.9 
 -6.87 
 7.8 
 6.02 
 -4.48 
 4.33 
 3.59 
 -5.04 
 -9.32 
 -1.66 
 3.36 
 9.27 
 0.62 
 8.8 
 0 
 1.83 
 7.33 
 0.76 
 -1 
 4.31 
 5.25 
 9.43 
 3.86 
 -0.49 
 2.95 
 -2.49 
 1.33 
 3.67 
 8.67 
 -5.13 
 -7.72 
 -3.14 
 -3.91 
 0.91 
 -4.78 
 2.13 
 8.89 
 3.89 
 -7.11 
 9.65 
 8.39 
 -5.58 
 -6.57 
 -7.38 
 -4.85 
 9.36 
 2.09 
 -0.71 
 -0.56 
 -3.17 
 -8.99 
 6.01 
 3.79 
 0.0600004 
 -5.96 
 0 
 -2.66 
 -2.88 
 -3.2 
 4.25 
 1.9 
 -1.13 
 -4.54 
 -1.77 
 4.82 
 9.85 
 2.08 
 3.75 
 -8.83 
 3.44 
 5.09 
 7.02 
 -6.9 
 -2.02 
 1.69 
 -9.62 
 -4.9 
 1.7 
 8.74 
 3.38 
 8.49 
 4.17 
 9.23 
 -1.47 
 0.0799999 
 -5.6 
 0.76 
 9.56 
 -1.06 
 -9.19 
 0.1 
 -8.71 
 9.22 
 -2.75 
 2.56 
 2.25 
 0 
 0.97 
 -3.7 
 -7.92 
 5.32 
 -7 
 4.42 
 -6.77 
 -8.56 
 4.95 
 -3.95 
 2.15 
 9.65 
 3.17 
 2.87 
 -1.19 
 -4.01 
 3.17 
 -4.2 
 3.41 
 -3.88 
 3.74 
 1.37 
 -8.38 
 -9.31 
 -2.29 
 -5.82 
 0.85 
 -8.02 
 -7.52 
 -8.9 
 -7.94 
 1.77 
 -9 
 -4.11 
 -3.36 
 -2.98 
 0.46 
 -7.92 
 9.65 
 -0.33 
 0 
 -0.85 
 5.13 
 7.69 
 -6.3 
 3.59 
 -0.59 
 7 
 5.28 
 7.62 
 -1.84 
 -6.42 
 -7.36 
 5.55 
 -8.55 
 -0.91 
 7.98 
 -4.88 
 9.67 
 1.96 
 -2.71 
 4.82 
 -0.12 
 7.76 
 -1.59 
 -0.36 
 -9.36 
 -8.37 
 8.64 
 -9.12 
 2.1 
 6.81 
 7.98 
 -2.53 
 -4.44 
 5.45 
 3.44 
 2.34 
 3.52 
 -2.26 
 8.34 
 0 
 -3.71 
 -3.13 
 -2.51 
 4.58 
 4.79 
 -8.92 
 -6.47 
 1.41 
 -9.54 
 7.54 
 6.95 
 4.46 
 -6.83 
 -9.2 
 3.44 
 7.16 
 7.9 
 9.55 
 5.94 
 -7.11 
 0.92 
 3.83 
 0.21 
 -0.1 
 2.65 
 1.91 
 8.16 
 -3.2 
 -3.03 
 -4.34 
 -8.06 
 -7.73 
 -8.02 
 -5.29 
 -4.34 
 -8.65 
 -8.1 
 -9.09 
 5.01 
 7.68 
 0 
 -4.79 
 6.98 
 0.0200005 
 0.8 
 7.78 
 -2.61 
 -4.21 
 2.91 
 -1.47 
 3.32 
 -0.53 
 -3.75 
 2.16 
 0.48 
 -8.53 
 6.94 
 -4.31 
 -1.5 
 9.3 
 -9.92 
 -0.6 
 9.76 
 -7.86 
 -4.62 
 6.22 
 7.06 
 -4.31 
 -2.52 
 3.29 
 2.5 
 -5.99 
 0.43 
 -8.88 
 8.52 
 6.12 
 6.85 
 -0.9 
 -6.73 
 0.67 
 -6.16 
 0 
 1.97 
 -3.37 
 2.75 
 7.5 
 4.4 
 -0.38 
 6.61 
 0.48 
 -4.67 
 3.76 
 9.96 
 -1.2 
 6.53 
 2.05 
 4.97 
 5.55 
 -5.82 
 4.4 
 -1.57 
 -3.52 
 -2.89 
 -1.76 
 4.33 
 -3.51 
 2.19 
 -8.66 
 4.52 
 -3.64 
 -1.77 
 0.76 
 7.15 
 8.26 
 5.65 
 -3.4 
 -0.47 
 1.35 
 -1.4 
 7.96 
 -1.16 
 -2.68 
 0 
 1.04 
 -8.73 
 -5.1 
 8.73 
 4.49 
 7.55 
 -1.12 
 2.05 
 5.88 
 -8.54 
 -7.06 
 -5.96 
 6.7 
 1.96 
 -7.82 
 7.27 
 5.83 
 6.85 
 -9.97 
 -1.91 
 2.04 
 9.98 
 9.01 
 -8.59 
 -8.38 
 5.54 
 -3.55 
 -5.47 
 -9.84 
 -6.19 
 2.29 
 -9.12 
 -8.68 
 5.44 
 4.57 
 9.23 
 7.36 
 -6.4 
 -4.93 
 -3.32 
 0 
 -2.24 
 -1.32 
 -7.42 
 -4.22 
 3 
 -5.87 
 2.57 
 -0.24 
 -0.96 
 6.45 
 5.09 
 2.05 
 -6.89 
 -8.45 
 -4.19 
 4.82 
 4.24 
 4.38 
 6.98 
 0.7 
 5.34 
 3.46 
 -9.76 
 -1.33 
 3.76 
 6.63 
 -9.64 
 7.08 
 -8.8 
 2.69 
 3.58 
 7.18 
 3.03 
 7.86 
 -6.23 
 -9.63 
 2.41 
 -6.72 
 4.81 
 1.83 
 0 
 -9.2 
 0.92 
 8.39 
 0.32 
 0.43 
 -3.64 
 -5.33 
 -8.78 
 0.27 
 4.84 
 -0.49 
 0.25 
 -5.31 
 -2.63 
 7.17 
 1.97 
 4.98 
 2.43 
 -9.87 
 -4.84 
 5.34 
 -6.12 
 5.54 
 5.1 
 -3.44 
 -5.68 
 -6.91 
 1.87 
 7.95 
 8.62 
 -6.9 
 3.88 
 -8.19 
 5.98 
 6.4 
 6.72 
 2.94 
 2.43 
 -9.47 
 -5.76 
 0 
 -8.93 
 -8.06 
 9.01 
 -1.24 
 -3.32 
 7.15 
 -4.32 
 -6.86 
 -4.07 
 3.78 
 5.54 
 9.34 
 1.26 
 -9.24 
 1.65 
 1.33 
 -4.24 
 -7.96 
 -7.01 
 -3.84 
 -8.79 
 -3.79 
 -7.63 
 -2.92 
 7.06 
 -2.38 
 0.39 
 -3.24 
 -0.31 
 6.4 
 5.54 
 4.72 
 2.7 
 -8.17 
 -9.58 
 -3.44 
 5.84 
 5.88 
 9.61 
 0.49 
 0 
 -6.93 
 6.11 
 5.32 
 -2.69 
 5.31 
 -0.52 
 -7.01 
 -9.35 
 -8.54 
 6.39 
 6.29 
 7.69 
 3.07 
 2.41 
 5.4 
 -2.63 
 -6.36 
 5.41 
 8.53 
 5.67 
 -6.75 
 9.52 
 -8.16 
 -9.14 
 3.1 
 3.92 
 8.65 
 9.74 
 -0.0699997 
 -3.99 
 -0.1 
 -9.43 
 -8.48 
 1.28 
 -5.67 
 8.51 
 0.96 
 0.59 
 5.84 
 5.62 
 0 
 1.04 
 -1.24 
 0.39 
 7.2 
 4.62 
 -8.57 
 -0.46 
 6.87 
 6.49 
 -9.35 
 3.49 
 -8.69 
 -4.94 
 -8.28 
 -9.98 
 -9.52 
 -7.38 
 2.94 
 -8.82 
 -4.88 
 -8.42 
 -4.56 
 -6.06 
 -9.58 
 3.75 
 -2.91 
 6.96 
 -1.27 
 -3.9 
 -9.95 
 1.39 
 -8.64 
 1.19 
 8.99 
 0.26 
 -5.56 
 -5.87 
 8.67 
 -0.42 
 -4.86 
 0 
 -4.81 
 6.5 
 -5.25 
 -9.11 
 7.8 
 -0.53 
 4.12 
 0.3 
 -9.91 
 3.19 
 -5.73 
 5.21 
 -9.92 
 -4.45 
 -5.84 
 -2.38 
 -2.96 
 -5.05 
 8.96 
 4.66 
 2.34 
 -7.23 
 -7.84 
 2.42 
 -4.86 
 -9.89 
 -3.12 
 5.91 
 9.53 
 8.29 
 9.41 
 1.85 
 -6.07 
 -1.7 
 -9.97 
 -2.13 
 7.04 
 1.84 
 -0.37 
 -0.96 
 0 
 -3.26 
 9.46 
 -9.73 
 -2.02 
 -5.19 
 -7.42 
 -7.77 
 9.62 
 9.71 
 -8.75 
 1.69 
 -4.74 
 5.6 
 -5.94 
 -3.65 
 -0.29 
 -1.67 
 -8.77 
 -5.26 
 -5.43 
 -7.86 
 6.08 
 -5.17 
 1.33 
 5.06 
 9.89 
 1.37 
 -9.37 
 1.54 
 -6.6 
 -3.1 
 -3.8 
 5.34 
 6.67 
 -0.0500002 
 9.14 
 -4.01 
 8.65 
 0.64 
 -7.02 
 0 
 2.15 
 7.12 
 -4.37 
 -4.85 
 8.51 
 7.53 
 -4.43 
 -1.06 
 3.49 
 -3.12 
 -9.1 
 -0.63 
 -5.32 
 -4.92 
 -8.44 
 -9.14 
 -0.63 
 3.56 
 0.27 
 -2.96 
 7.27 
 2.61 
 0.93 
 -7.24 
 -3.44 
 -8.08 
 -7.57 
 -1.02 
 6.12 
 8.84 
 -7.34 
 -6.76 
 4.46 
 -3.92 
 3.03 
 -4.57 
 0.0699997 
 8.83 
 -4.73 
 5.43 
 0 
 -3.92 
 4.54 
 -7.69 
 -9.84 
 -3.4 
 1.5 
 -9.99 
 -2.58 
 1.78 
 -8.14 
 5.55 
 8.52 
 3.93 
 -0.69 
 5.32 
 -0.95 
 8.36 
 7.95 
 -6.83 
 -1.17 
 1.86 
 1.52 
 -9.34 
 0.98 
 -7.21 
 6.67 
 -5.49 
 6.4 
 4.51 
 1.78 
 -7.7 
 9.11 
 -4.06 
 -5.73 
 -4.96 
 8.29 
 9.39 
 0.0200005 
 7.08 
 -0.04 
 0 
 9.49 
 6.03 
 5.24 
 -9.13 
 -1.23 
 2.61 
 3.32 
 3.58 
 -0.72 
 -5.7 
 1.42 
 -9.96 
 -0.19 
 -3.24 
 -3.88 
 -6.33 
 3.91 
 -5.44 
 -1.68 
 4.08 
 -5.3 
 -6.45 
 0.88 
 9.17 
 -3.82 
 7.31 
 2.57 
 7.14 
 6.41 
 1.51 
 -7.81 
 -7.89 
 -8.53 
 8.47 
 -9.06 
 7.81 
 -2.83 
 3.75 
 7.87 
 -8.26 
 0 
 -7.79 
 9.34 
 -0.31 
 -9.51 
 2.97 
 8.18 
 -5.06 
 -4.37 
 -3.55 
 4.38 
 8.42 
 4.03 
 -3.55 
 -8.01 
 8.35 
 -0.85 
 -6.31 
 -0.34 
 -3.53 
 -0.36 
 6.01 
 -3.73 
 9.02 
 -8.02 
 -0 
 9.22 
 4.44 
 8.97 
 -6.53 
 -7.23 
 -8.53 
 -1.8 
 -4.52 
 0.42 
 -6.87 
 8.51 
 0.26 
 0.15 
 9.66 
 -3.06 
 0 
 -6.05 
 -8.63 
 -5.2 
 -9.15 
 2.54 
 -1.81 
 6.3 
 9.78 
 7 
 -7.64 
 6.01 
 -4.14 
 8.29 
 -3.8 
 8.68 
 -1.23 
 -4.79 
 6.45 
 6.74 
 -5.59 
 2.75 
 5.91 
 1.3 
 -5.6 
 0.99 
 -6.68 
 -8.43 
 8.22 
 -8.08 
 -9.3 
 3.46 
 -9.58 
 1.82 
 -9.55 
 4.07 
 -3.17 
 -5.8 
 7.89 
 -3.42 
 5.25 
 0 
 8.79 
 -0.8 
 -6.45 
 1.29 
 8.79 
 -1.85 
 -2.97 
 -8.94 
 7.82 
 2.71 
 -8.24 
 4.12 
 -9.67 
 1.99 
 -1.97 
 -1.84 
 6.9 
 -7.63 
 -9.38 
 9.67 
 3.1 
 5.01 
 -0.71 
 -4.09 
 3.82 
 -8.42 
 9.34 
 5.62 
 6.49 
 0.16 
 3.86 
 6.31 
 9.7 
 -4.37 
 -9.8 
 -7.07 
 6.38 
 -4.19 
 1.09 
 -4.91 
 0 
 8.82 
 -6.71 
 -7.52 
 -7.83 
 -7.83 
 4.85 
 1.45 
 1.15 
 -4.36 
 -0.15 
 -8.13 
 8.69 
 7.28 
 6.65 
 -2.74 
 -2.04 
 -7.86 
 -8.02 
 1.67 
 7.51 
 -1.59 
 8.1 
 8.05 
 -1.96 
 -0.96 
 -3.56 
 7.15 
 -3.91 
 -7.05 
 -4 
 -8.93 
 -2.99 
 -4.95 
 -3.01 
 -7.29 
 -1.28 
 2.65 
 -3.3 
 8.86 
 -8.32 
 0 
 -4.48 
 -1.39 
 1.49 
 -5.18 
 -3.91 
 4.68 
 -4.64 
 -7.46 
 -7.48 
 -5.09 
 1.27 
 -0.77 
 9.89 
 4.2 
 -2.6 
 -7.11 
 8.52 
 -7.5 
 6.48 
 4.36 
 8.56 
 8.19 
 2.1 
 0.38 
 -5.85 
 6.66 
 6.36 
 7.75 
 4.85 
 -8.48 
 -9.93 
 -5.62 
 -4.85 
 -8.44 
 -9.31 
 -4.27 
 2.26 
 -2.24 
 -5.52 
 -10 
 0 
 8.78 
 5.62 
 3.34 
 4.5 
 -7.57 
 7.4 
 -4.36 
 5.23 
 6.83 
 8.99 
 -0.9 
 -8.04 
 1.09 
 8.79 
 -2.81 
 -4.43 
 5.44 
 -8.66 
 0.66 
 6.98 
 -1.7 
 8.57 
 -0.86 
 6.49 
 4.72 
 -0.75 
 -3.05 
 9.23 
 9.22 
 6.77 
 -6.3 
 -2.95 
 -5.59 
 -9.46 
 8.76 
 -7.98 
 8.18 
 -7.09 
 -6.86 
 3.3 
 0 
 -3.5 
 2.03 
 -6.52 
 -7.11 
 -4.26 
 2.2 
 -2.36 
 -5.91 
 9.74 
 -9.56 
 -0.5 
 3.52 
 -4.57 
 7.96 
 7.55 
 -1.67 
 5.33 
 1.3 
 7.49 
 1.87 
 -4.96 
 7.9 
 -6.16 
 1.47 
 -4.84 
 -1.41 
 8.2 
 7.7 
 5.53 
 -6.06 
 2 
 4.8 
 9.41 
 1.56 
 -0.86 
 4.48 
 -0.82 
 -0.49 
 -5.32 
 -2.34 
 0 
 0.35 
 8.25 
 -2.33 
 -5.13 
 -6.91 
 -1.12 
 9.6 
 3.9 
 -9.56 
 6.24 
 6.98 
 7.35 
 -0.46 
 -5.87 
 -8.04 
 -6.19 
 -9.8 
 -1.75 
 -2.71 
 2.14 
 6.3 
 -9.14 
 -9.48 
 4.92 
 -7.35 
 8.99 
 -5.51 
 9.75 
 -4.09 
 0.54 
 -0.26 
 -9.51 
 1.84 
 -9.9 
 -6.38 
 -0.53 
 -8.91 
 -1.03 
 0.36 
 2.06 
 0 
 -8.21 
 8.95 
 3.16 
 -0.0900002 
 -7.77 
 -5.87 
 9.91 
 -7.85 
 6.08 
 -8.22 
 -4.38 
 5.8 
 9.64 
 -5.98 
 7.75 
 -1.58 
 -7.42 
 -2.27 
 0.33 
 -2.13 
 -2.3 
 -3.75 
 -4.92 
 -2.45 
 3.7 
 5.05 
 -5.27 
 -3.4 
 4.21 
 -1.3 
 -5.54 
 -6.49 
 -1.54 
 9.95 
 -5.15 
 6.04 
 0.38 
 -3.79 
 6.76 
 -3.48 
 0 
 -0.94 
 7.17 
 3.09 
 -3.99 
 -5.11 
 -0.57 
 -3.78 
 -4.91 
 -0.93 
 -9.47 
 2.28 
 -4.17 
 -2.96 
 5.24 
 9 
 1.76 
 -1.23 
 5.23 
 -8.39 
 -1.79 
 5 
 9.5 
 -8.56 
 -6.94 
 -2.43 
 6.2 
 -8.37 
 1.07 
 -7.32 
 -0.21 
 6.59 
 -8.09 
 9.47 
 -6.01 
 -3.83 
 -9.78 
 6.65 
 5.94 
 -8.41 
 -1.16 
 0 
 -7.11 
 2.66 
 -5.14 
 -3.42 
 -0.53 
 8.9 
 8.05 
 -5.31 
 -6.88 
 2.46 
 -9.83 
 -6.4 
 6.15 
 -2.46 
 5.75 
 7.89 
 6.24 
 0.74 
 -0.66 
 -5.01 
 -3.41 
 -3.17 
 0.46 
 -2.84 
 1.61 
 -1.92 
 -4.94 
 4.43 
 8.5 
 4.27 
 -2.8 
 -3.47 
 8.3 
 -1.72 
 -7.37 
 3.27 
 6.8 
 -6.49 
 8.08 
 2.81 
 0 
 1.21 
 7.2 
 -4.22 
 4.79 
 1.79 
 0.76 
 -5.24 
 7.69 
 9.46 
 -9.54 
 -8.47 
 1.58 
 5.26 
 7.92 
 -1.31 
 -3.83 
 9.21 
 6.62 
 -4.34 
 9.73 
 -5.49 
 -7.03 
 0.34 
 1.32 
 -7.24 
 9.53 
 -2.16 
 -9.97 
 -9.75 
 9.14 
 9.3 
 -8.86 
 4.27 
 3.62 
 -7.92 
 5.68 
 -6.92 
 4.1 
 5.13 
 -0.74 
 0 
 -4.68 
 -7.7 
 -8.69 
 8.74 
 8.6 
 6.79 
 7.52 
 9.66 
 8.17 
 -5.98 
 -0.19 
 -3.22 
 7.66 
 -7.03 
 -2.84 
 4.72 
 3.88 
 7.24 
 -0.53 
 -9.91 
 9.55 
 -9.61 
 -6.72 
 3.08 
 -0.64 
 4.68 
 1.21 
 -3.88 
 0.49 
 -8.6 
 -9.67 
 -8.67 
 9.67 
 -3.42 
 9.86 
 7.68 
 -7.49 
 4.25 
 6.15 
 9.89 
 0 
 -2.16 
 5.68 
 9.1 
 -3.12 
 9.54 
 1.64 
 7.85 
 -3.43 
 -9.25 
 9.94 
 -9.45 
 1.7 
 3.12 
 9.13 
 4.11 
 4.58 
 8.06 
 8.25 
 6.85 
 1.04 
 -0.91 
 -1.43 
 4.15 
 -8.16 
 0.62 
 -1.89 
 1.35 
 2.12 
 -0.69 
 -1.48 
 -7.61 
 -3.69 
 -5.29 
 1.84 
 5.29 
 -5.06 
 -1.7 
 -0.34 
 3.19 
 6.4 
 0 
 -3.93 
 4.98 
 -0.25 
 -2.35 
 -6.83 
 8.9 
 -8 
 2.92 
 -4.14 
 7.73 
 6.31 
 -5.47 
 9.98 
 -8.69 
 -6.58 
 9.93 
 1.42 
 4.89 
 -4.4 
 -3.62 
 -0.55 
 -5.32 
 -3.99 
 1.51 
 -0.44 
 -6.55 
 -2.07 
 -4.04 
 6 
 -5.5 
 -5.28 
 -0.85 
 9.3 
 5.64 
 8.92 
 -5.77 
 0.52 
 -9.05 
 -7.76 
 -5.36 
 0 
 9.41 
 7.91 
 1.79 
 -5.76 
 -3.61 
 0.9 
 3.96 
 4.99 
 -0.04 
 0.55 
 9.93 
 4.36 
 -3.01 
 -0.37 
 4.41 
 2.28 
 -2.52 
 8.32 
 -6.04 
 -5.48 
 9.86 
 -6.86 
 1.32 
 0.91 
 -4.05 
 -3.86 
 1.57 
 2.3 
 -5.81 
 6.21 
 2.49 
 9.72 
 1.41 
 -8.48 
 2.72 
 1.68 
 -5 
 3.32 
 2.14 
 6.18 
 0 
 -4.4 
 7.56 
 0.0699997 
 -8.42 
 1.64 
 -8.84 
 5.6 
 4.83 
 2.68 
 7.59 
 -4.95 
 0.0600004 
 3.49 
 1.45 
 6.67 
 7.52 
 2.48 
 1.52 
 -2.04 
 -5.46 
 1.97 
 -1.92 
 -0.52 
 -7.87 
 -3.11 
 2.99 
 -9.08 
 5.46 
 2.99 
 -9.85 
 -0.85 
 6 
 -3.49 
 2.32 
 -9.03 
 5.71 
 -5.55 
 6.48 
 -2.73 
 9.49 
 0 
 2.2 
 7.34 
 -1.37 
 -6.78 
 -2.47 
 6.8 
 6.19 
 -4.64 
 -6.34 
 -4.76 
 -9.37 
 -3.76 
 -5.4 
 -0.11 
 -6.51 
 -9.81 
 3 
 8.93 
 1.12 
 -2.88 
 2.95 
 5.58 
 0.97 
 -5.26 
 8.04 
 8.18 
 1.71 
 -6.99 
 -7.95 
 1.87 
 9 
 -6.14 
 -3.73 
 -6.75 
 -8.91 
 9.29 
 9.16 
 9.07 
 9 
 0.94 
 0 
 -2.09 
 8.48 
 5.27 
 -0.83 
 -2.26 
 -6.76 
 -8.34 
 -0.69 
 -1.32 
 -4.96 
 5.46 
 7.83 
 -3.73 
 -7.56 
 -5.82 
 -8.32 
 8.1 
 9.26 
 5.57 
 -8.84 
 -0.84 
 -3.3 
 3.47 
 9.09 
 -3.15 
 5.68 
 -0.39 
 8.26 
 -1.96 
 1.14 
 7.15 
 3.21 
 2.7 
 1.43 
 -9.1 
 3.55 
 7.36 
 1.07 
 7.92 
 6.25 
 0 
 -4.72 
 1.06 
 -1.7 
 -2.77 
 2.72 
 -0.9 
 2.6 
 3.13 
 5.4 
 -0.12 
 4.04 
 -9.68 
 0.2 
 -1.98 
 5.36 
 -3.38 
 2.64 
 -0.7 
 5.32 
 -9.56 
 2.06 
 8.31 
 5.4 
 -2.33 
 -2.11 
 9.84 
 -3.53 
 7.53 
 -0.54 
 -7.96 
 -8.75 
 2.15 
 4.97 
 -3.53 
 4.84 
 -4.12 
 -6.98 
 -6.12 
 1.69 
 -6.01 
 0 
 9.31 
 -2.82 
 4.08 
 2.94 
 -1.64 
 -0.0900002 
 -6.72 
 -7.4 
 9.09 
 -9.19 
 7.45 
 7.05 
 0.49 
 -5.96 
 3.88 
 -1.74 
 -7.9 
 0.56 
 1.54 
 5.13 
 6.48 
 -0.49 
 3.41 
 -0.77 
 5.22 
 -5.1 
 -5.12 
 8.06 
 -9.08 
 4.54 
 5.08 
 6.79 
 5.14 
 4.72 
 1.32 
 -8.12 
 -9.8 
 3.67 
 9.63 
 -1.79 
 0 
 9.13 
 -2.19 
 -5.12 
 -9.18 
 6.65 
 -6.29 
 8.7 
 -5.12 
 3.11 
 0.19 
 6 
 -2.91 
 -7.6 
 6.8 
 -4.11 
 8.03 
 -2.49 
 -6.35 
 8.4 
 7.43 
 7.56 
 -6.24 
 -9.38 
 5.84 
 7.08 
 7.4 
 8.21 
 -2.08 
 -6.94 
 -9.29 
 -7.48 
 -5.36 
 -6.03 
 -0.66 
 -9.06 
 0.49 
 -1.51 
 -2.82 
 4.32 
 0.96 
 0 
 -8.91 
 5.82 
 -8.54 
 1.35 
 -3.13 
 -4.47 
 -8.79 
 -1.33 
 -3.87 
 8.84 
 -3.71 
 7.94 
 5.71 
 -9.13 
 -4.5 
 1.62 
 4.49 
 -6.37 
 4.64 
 2.23 
 0.61 
 0.54 
 7.68 
 3.64 
 9.74 
 4.1 
 -7.53 
 5.66 
 3.32 
 -1.66 
 -4.27 
 0.67 
 -6.02 
 7.24 
 -1.04 
 -9.08 
 -5.8 
 3.01 
 -4.04 
 -6.33 
 0 
 0.0100002 
 7.49 
 0.64 
 -2.03 
 9.06 
 -3.89 
 -0.4 
 9.93 
 4.04 
 2.93 
 6.14 
 4.03 
 -9.94 
 5.38 
 2.7 
 -1.16 
 -5.57 
 8.43 
 -2.65 
 1.8 
 3.62 
 -5.23 
 1.3 
 -6.88 
 -3.58 
 -7.7 
 -8.89 
 7.66 
 5.94 
 9.1 
 -8.3 
 -9.9 
 -3.92 
 9.76 
 1.42 
 0.54 
 -5.91 
 4.56 
 -7.68 
 -9.78 
 0 
 -3.61 
 -2.48 
 -5.98 
 8.51 
 -8.03 
 0.36 
 8.63 
 5.54 
 4.14 
 0.53 
 -9.36 
 0.41 
 -3.75 
 -0.75 
 -7.43 
 6.08 
 -6.35 
 0.41 
 9.81 
 6.96 
 -7.72 
 1.96 
 2.56 
 5.46 
 5.89 
 -3.87 
 -8.25 
 -7.1 
 7.96 
 -2.7 
 -8.34 
 -9.58 
 -1.95 
 -2.44 
 7.3 
 6.04 
 -5.75 
 2.76 
 -2.07 
 -0.0900002 
 0 
 -9.37 
 8.47 
 -8.34 
 -8.4 
 0.54 
 0.91 
 9.42 
 -0.76 
 -4.95 
 6.17 
 8.39 
 5.13 
 -0.1 
 6.72 
 4.68 
 5.09 
 -0.92 
 5.9 
 4.46 
 3.68 
 9 
 -7.25 
 -8.82 
 -0.32 
 5.22 
 5.88 
 -2.86 
 -7.69 
 -9.99 
 5.37 
 -4.14 
 5.2 
 5.49 
 5.29 
 0.0299997 
 -0.53 
 8.13 
 -1.16 
 1.55 
 4.04 
 0 
 -9.42 
 7.58 
 5.14 
 -2.1 
 4.26 
 1.53 
 2.95 
 -2.29 
 5.65 
 -0.27 
 -5.32 
 -8.8 
 -3.56 
 -8.81 
 -8.25 
 -7.41 
 -9.22 
 2.05 
 5.75 
 6.8 
 1.75 
 5.95 
 -2.89 
 -0.88 
 -8.26 
 -4.5 
 -3.59 
 -5.76 
 -8.42 
 -6.55 
 9.41 
 4.85 
 8.24 
 9.27 
 4.74 
 -2.33 
 -0.26 
 2.64 
 -3.16 
 9.55 
 0 
 -4.57 
 -1.21 
 4.62 
 -2.16 
 -5.33 
 1.87 
 4.86 
 0.66 
 -2.35 
 -0.24 
 -8.21 
 -9.97 
 -9.11 
 6.52 
 3.26 
 -8.58 
 3.13 
 9.23 
 -7.27 
 4.16 
 -8.1 
 -9.22 
 -9.6 
 1.95 
 0.88 
 -5.77 
 -9.86 
 -5.48 
 -1.84 
 2.83 
 -7.09 
 4.79 
 0.28 
 -8.23 
 -0.76 
 4.25 
 9.39 
 0.99 
 -2.69 
 0.87 
 0 
 -2.53 
 8.25 
 2.29 
 -9.71 
 4.24 
 2.81 
 6.97 
 2.98 
 -5.04 
 -5.61 
 -6.22 
 -2.05 
 -6.96 
 6.73 
 1.23 
 -5.82 
 -5.82 
 3.25 
 -5.56 
 4.82 
 -8.9 
 6.91 
 -8.93 
 2.67 
 4.28 
 -8.68 
 7.42 
 -8.73 
 -2.8 
 9.07 
 6.68 
 5.07 
 -3.13 
 1.07 
 5.81 
 7.27 
 7.46 
 8.09 
 -6 
 -5.18 
 0 
 -0.69 
 -0.92 
 -3.85 
 -3.26 
 -7.35 
 -6.8 
 -0.99 
 -4.62 
 -1.17 
 -7.14 
 -0.18 
 5.86 
 0.76 
 -0.27 
 1.41 
 -7.47 
 4.77 
 -8.73 
 5.82 
 -5.74 
 1.65 
 0.11 
 -6.47 
 -6.11 
 -7.93 
 -7.64 
 -8.49 
 -0.21 
 2.53 
 -3.59 
 -6.56 
 4.54 
 4.52 
 9.26 
 6.92 
 -0.43 
 0.0699997 
 -3.66 
 -2.8 
 -8.81 
 0 
 -7.73 
 -5.4 
 -2.23 
 -7.87 
 -9.61 
 -5.01 
 3.03 
 2.08 
 4.2 
 6.74 
 0.72 
 -2.63 
 -3.89 
 5.96 
 7.01 
 4.71 
 -9.52 
 -6.83 
 -8.78 
 2.69 
 -5.87 
 1.02 
 -6.34 
 0.98 
 -5.04 
 -2.8 
 -9.76 
 9.4 
 9.78 
 5.65 
 -7.09 
 -4.35 
 -5.03 
 -3.57 
 -3.81 
 8.78 
 -4.4 
 9.22 
 4.8 
 -1.97 
 0 
 3.53 
 -3.82 
 -8.32 
 -9.72 
 -0.92 
 0.3 
 -0.61 
 8.58 
 -8 
 -6.47 
 -1.75 
 -4.59 
 -5.26 
 6.25 
 4.29 
 6.66 
 -2.51 
 6.92 
 3.42 
 0.94 
 8.58 
 -5.65 
 -9.99 
 -4.55 
 -0.83 
 7.59 
 6.95 
 -8.4 
 5.01 
 -2.88 
 1.37 
 5.46 
 7.64 
 6.66 
 5.44 
 9.58 
 0 
 -7.28 
 5.77 
 -0.45 
 0 
 -2.83 
 -3.34 
 4.47 
 -0.83 
 -4.79 
 -8.34 
 7 
 1.77 
 6.48 
 1.11 
 -6.72 
 -7.04 
 2.66 
 -6.91 
 0.36 
 4.8 
 1.82 
 8.33 
 -9.37 
 -9.41 
 9.52 
 -2.25 
 -3.96 
 6.35 
 -0.11 
 5 
 -6.07 
 0.18 
 -6.51 
 7.48 
 3.77 
 -1.99 
 6.72 
 -1.53 
 -1.47 
 6.23 
 -5.64 
 -2.76 
 3.1 
 -9.4 
 0 
 -8.49 
 6.22 
 -9.93 
 -3.22 
 -8.49 
 0.8 
 1.89 
 -9.52 
 -7.65 
 -2.11 
 9.23 
 -2.88 
 2.15 
 -6.07 
 2.78 
 2.38 
 -2.55 
 -0.75 
 -6.24 
 -2.62 
 -4.23 
 -9.22 
 2.3 
 8.5 
 -2.64 
 -6.19 
 -9.44 
 4.74 
 -3.2 
 -5.76 
 0.4 
 -6.21 
 -3.24 
 -7.82 
 9.27 
 -3.37 
 -4.87 
 0.0699997 
 2.52 
 -8.44 
 0 
 -5.42 
 -8.42 
 -5.45 
 6.48 
 5.3 
 -5.72 
 -9.97 
 -4.63 
 9.78 
 -5.41 
 6.42 
 5.13 
 2.24 
 7.28 
 -0.14 
 7.82 
 -3.51 
 -8.89 
 -2.36 
 3.04 
 -0.45 
 6.43 
 -1.99 
 -0.16 
 -0.45 
 -0.41 
 -2.98 
 1.47 
 -1.77 
 -2.36 
 4.82 
 -9.91 
 -2.1 
 7.96 
 9.74 
 -3.42 
 -8.49 
 6.39 
 9.8 
 9.07 
 0 
 -5.41 
 -4.14 
 -2.27 
 7.37 
 -1.99 
 -7.75 
 -5.6 
 -0.56 
 4.93 
 9.93 
 -9.7 
 -0.43 
 -0.17 
 7.36 
 9.14 
 -7.28 
 2.08 
 -9.33 
 1.95 
 -9.42 
 6.39 
 8.76 
 -4.04 
 1.06 
 -0.91 
 0.84 
 -4.74 
 -1.59 
 -8.83 
 -4.94 
 -2.65 
 -4.24 
 2.32 
 -4.11 
 1.97 
 4.48 
 -9.29 
 -1.13 
 2.46 
 -3.83 
 0 
 5.7 
 -2.46 
 5.44 
 -9.42 
 1.43 
 -9.17 
 4.43 
 3.54 
 -7.15 
 -2.69 
 1.51 
 -5.57 
 0.55 
 1.11 
 -5.16 
 -2.32 
 0.9 
 9.95 
 -3.7 
 4.23 
 -3.71 
 4.46 
 8.96 
 9.05 
 6.89 
 -9.13 
 -0.6 
 0.52 
 -8.37 
 -9.52 
 -6.82 
 -4.09 
 2.31 
 5.3 
 2.02 
 -4.75 
 -9.13 
 -0.46 
 -4.29 
 -0.27 
 0 
 9.86 
 2.94 
 6.33 
 -5.46 
 2.91 
 4.45 
 -8.49 
 0.87 
 2.01 
 -4.64 
 -7.63 
 -0.36 
 -7.61 
 -1.75 
 -6.56 
 7.18 
 -0.91 
 7.11 
 -1.63 
 -3.47 
 -5.29 
 0.62 
 3.93 
 -8.01 
 8.08 
 1.73 
 -9.13 
 0.4 
 7.67 
 8.24 
 -0.15 
 5.86 
 1.93 
 3.58 
 -5.19 
 3.74 
 -0.49 
 -7.3 
 3.36 
 9.64 
 0 
 -9.78 
 5.9 
 -3.92 
 -0.7 
 -2.84 
 4.51 
 5.33 
 5.9 
 -2.24 
 1.81 
 -6.34 
 -7.82 
 -3.03 
 8.59 
 -2.77 
 8.04 
 9.12 
 1.06 
 -3.51 
 8.43 
 2.74 
 2.06 
 -1.55 
 6.71 
 -3.35 
 -0.85 
 -7.74 
 6.83 
 6.05 
 3.4 
 -1.35 
 -9.9 
 7.67 
 -5.96 
 4.56 
 -1.92 
 -0.17 
 0.27 
 4.78 
 9.15 
 0 
 4.19 
 -5.86 
 -6.94 
 -3.29 
 -0.93 
 -1.58 
 -1.8 
 -6.78 
 -7.08 
 4.34 
 -7.24 
 9.85 
 -9.73 
 -9.22 
 -2.6 
 2.86 
 2.14 
 1.28 
 -6.08 
 -0.68 
 9.15 
 1.89 
 -9.4 
 -8.67 
 9.49 
 -3.47 
 -2.24 
 7.16 
 -7.85 
 -5.44 
 6.67 
 -2.84 
 -9.94 
 6.2 
 -2.42 
 -5.04 
 -3.41 
 6.21 
 3.94 
 7.57 
 0 
 3.24 
 4.76 
 -0.75 
 5.05 
 -7.64 
 8.8 
 -0.27 
 -9.88 
 -1.6 
 -4.75 
 -4.38 
 -6.84 
 -1.04 
 9.76 
 -0.0100002 
 3.86 
 -5.54 
 -7.18 
 2.25 
 -4.07 
 6.28 
 -2.1 
 -3.69 
 2.88 
 -3.19 
 2.14 
 2.84 
 9.69 
 -6.2 
 -7.79 
 -6.8 
 -3.12 
 -8.81 
 1.63 
 8.94 
 -2.64 
 -3.13 
 -2.68 
 4.63 
 8.27 
 0 
 6.1 
 -1.3 
 7.69 
 4.36 
 3 
 -6.11 
 -7.73 
 -0.44 
 -4.49 
 7.28 
 2.39 
 9.45 
 -8.44 
 3.84 
 1.91 
 -8.36 
 0.9 
 -7.88 
 9.65 
 -7.71 
 -5.38 
 0.27 
 -8.46 
 -4.38 
 -6.32 
 9.88 
 -6.8 
 -5.68 
 -3.69 
 -0.62 
 -7 
 5.61 
 -0.48 
 -8.62 
 7.68 
 -9.54 
 -0.29 
 -3.85 
 -6.65 
 -9.85 
 0 
 0.4 
 -2.61 
 -3.84 
 -2.02 
 7.68 
 0.67 
 -1.86 
 5.79 
 -1.78 
 7.45 
 7.71 
 9 
 -1.22 
 -3.96 
 -9.62 
 -3.33 
 -3.28 
 -1.76 
 -5.77 
 8.42 
 -2.01 
 -8.09 
 -1.75 
 9.33 
 6.37 
 -4.54 
 7.61 
 -3.1 
 3.65 
 4.64 
 0.22 
 4.39 
 5.05 
 -1.25 
 8.73 
 -7.89 
 0.21 
 -6.82 
 -2.17 
 -2.8 
 0 
 1.39 
 -8.36 
 -2.17 
 -9.11 
 -6.51 
 -7.33 
 -8.2 
 4.72 
 -2.14 
 4.03 
 5.55 
 -8.74 
 -3.89 
 -6.6 
 7.16 
 3.11 
 0.71 
 0.99 
 2.51 
 8.47 
 2.52 
 8.57 
 0.67 
 8.35 
 -9.93 
 7.39 
 2.83 
 6 
 7.67 
 -9.06 
 0.97 
 1.24 
 0.21 
 5.93 
 0.55 
 -9.08 
 -9.46 
 -7.85 
 1.08 
 -7.14 
 0 
 9.09 
 -3.4 
 5.2 
 0.26 
 -9.35 
 5.38 
 6.32 
 -7.22 
 -6.28 
 4.45 
 7.17 
 -8.44 
 5.06 
 0.0799999 
 5.74 
 3.93 
 7.27 
 -8.65 
 9.46 
 8.21 
 -8.21 
 8.39 
 -4.73 
 -3.07 
 -5.03 
 2.85 
 9.99 
 5.03 
 -5.79 
 -8.06 
 0.72 
 3.51 
 -2.68 
 4.37 
 -5.09 
 -2.14 
 6.73 
 9.53 
 4.4 
 3.77 
 0 
 -3.12 
 0.79 
 -4.8 
 5.9 
 -2.55 
 8.66 
 -1.37 
 9.08 
 -2.58 
 -8.23 
 -9.91 
 -3.52 
 3.85 
 3.42 
 -5 
 5.73 
 2.72 
 6.74 
 -6.32 
 5.95 
 9.58 
 -3.76 
 7.79 
 -0.79 
 3.96 
 -4.63 
 9 
 9.4 
 2.88 
 6.39 
 8.46 
 5.58 
 -1.39 
 -9.79 
 3.44 
 9.12 
 -0.93 
 9.19 
 -3.17 
 8.42 
 0 
 -6.01 
 7.47 
 4.42 
 4.87 
 -4.97 
 9.85 
 -1.56 
 7.45 
 8.94 
 -3.27 
 -3.74 
 -4.63 
 3.32 
 6.16 
 -1.48 
 -3.25 
 6 
 6.56 
 5.13 
 -5.84 
 -2.67 
 -1.7 
 2.14 
 -2.29 
 -6.88 
 6.75 
 -0.9 
 -1.68 
 -4.59 
 -3.81 
 -5.81 
 2.86 
 9.3 
 -9.65 
 -7.8 
 6.74 
 3.16 
 -0.34 
 8.23 
 -9.46 
 0 
 -2.07 
 -2.63 
 -6.94 
 -5.78 
 3.81 
 -1.48 
 8.74 
 6.1 
 5.33 
 5.2 
 -4.09 
 -9.42 
 -4.87 
 -2.43 
 -8.45 
 7.02 
 9.87 
 -1.04 
 -2.97 
 -3.96 
 -2.88 
 -5.23 
 -1.13 
 7.72 
 -4.72 
 -4.93 
 -6.79 
 9.16 
 9.93 
 -7.22 
 5.53 
 -9.4 
 7.61 
 6.33 
 2.57 
 1.81 
 -6.69 
 3.46 
 -4.81 
 4.05 
 0 
 8.9 
 0.0699997 
 -4.5 
 -4.17 
 1.57 
 -0.93 
 -6.07 
 -6.66 
 8.95 
 -2.16 
 -8.84 
 -0.31 
 -8.16 
 8.75 
 -8.6 
 2.36 
 7.06 
 -1.88 
 -4.97 
 -6.45 
 7.68 
 -7.82 
 -5.92 
 4.25 
 -4.15 
 6.22 
 -9.68 
 2.27 
 -2.91 
 -7 
 3.47 
 0.3 
 0.31 
 -2.24 
 -5.58 
 -3.04 
 -4.36 
 -3.79 
 -4.33 
 -3.39 
 0 
 -6.52 
 6.14 
 -8.64 
 -2.67 
 9.39 
 2.33 
 7.49 
 -0.73 
 3.8 
 -1.24 
 -9.24 
 -5.87 
 -5.13 
 6.35 
 0.57 
 8.1 
 -5.18 
 9.29 
 5.62 
 4.13 
 3.68 
 4.75 
 -8.63 
 -5.46 
 -5.19 
 1 
 -9.89 
 2.26 
 8.17 
 -9.1 
 2.64 
 -7.57 
 -2.54 
 -10 
 2.27 
 -9.65 
 -8.42 
 -5.31 
 -6.84 
 6.18 
 0 
 -5.63 
 4.52 
 0.55 
 -5.02 
 3.67 
 5.13 
 3.95 
 4.61 
 -8.09 
 -6.61 
 -3.48 
 -5 
 0.45 
 1.1 
 0.8 
 5.54 
 1.89 
 -5.75 
 -1.2 
 9.41 
 -1.92 
 5.58 
 -1.6 
 8.75 
 0.12 
 -5.41 
 3.32 
 3.08 
 -0.57 
 0.73 
 4.04 
 -1.44 
 -3.51 
 -2.53 
 5.55 
 -7.57 
 6.75 
 -10 
 1.41 
 4.93 
 0 
 2.93 
 -3.6 
 -5.29 
 -4.71 
 9.57 
 -9.96 
 2.03 
 7.42 
 8.02 
 0.53 
 -8.61 
 0.19 
 -1.51 
 -6.63 
 -0.59 
 2.16 
 0.88 
 3.49 
 0.94 
 7.35 
 -7.97 
 -9.15 
 -0.52 
 -4.24 
 7.28 
 1.08 
 7.12 
 -6.9 
 -6.16 
 6.48 
 -9.4 
 -9.82 
 6.63 
 -8.47 
 4.49 
 -9.21 
 3.41 
 -3.41 
 4.85 
 8.53 
 0 
 5.31 
 7.14 
 -7.66 
 -9.77 
 9.59 
 -5.34 
 -9.86 
 5.7 
 -8.56 
 -8.54 
 6.05 
 3.16 
 0.28 
 -7.47 
 -8.86 
 3.64 
 -1.45 
 8.27 
 -4.54 
 -1.21 
 9.95 
 9.53 
 -6.17 
 8.9 
 -7.76 
 7.63 
 -4.01 
 0.47 
 -8.11 
 4.62 
 4.52 
 7.97 
 1.19 
 -8.69 
 1.81 
 -3.75 
 -6.63 
 5.13 
 6.36 
 8.65 
 0 
 -2.05 
 -9.35 
 6.02 
 -1.5 
 2.58 
 2.24 
 -5.69 
 -9.61 
 -8.69 
 -4.34 
 -9.46 
 -6.33 
 -4.92 
 -7.51 
 4.54 
 -0.91 
 -7.97 
 4.41 
 2.12 
 6.09 
 5.13 
 -9.34 
 -1.06 
 1.87 
 -9.15 
 0.35 
 -7.53 
 5.12 
 -5.41 
 -3.16 
 -7.96 
 8.92 
 5.26 
 0.75 
 -8.58 
 7.35 
 -0.0500002 
 7.68 
 -0.95 
 8.5 
 0 
 -4.62 
 -6.36 
 1.23 
 -6.26 
 0.97 
 -4.29 
 7.51 
 7.23 
 1.73 
 0.9 
 -4.24 
 -1.41 
 -9.45 
 4.5 
 -4.09 
 6.64 
 4.22 
 4.4 
 8.6 
 4.55 
 0.53 
 -9.8 
 7.71 
 -4.75 
 0.44 
 9.04 
 -1.91 
 -4.23 
 -3.97 
 0.34 
 -1.92 
 8.04 
 8.46 
 -3.81 
 -5.04 
 5.1 
 2.37 
 -3.43 
 -6.09 
 -7.97 
 0 
 0.57 
 -8.47 
 7.34 
 3.78 
 3.13 
 -5.57 
 8.85 
 4.85 
 5.74 
 -7.64 
 -2.67 
 -7.61 
 -7.51 
 -5.55 
 3.67 
 5.94 
 9.03 
 0.75 
 -1.09 
 -5.11 
 4.97 
 -0.77 
 -2.6 
 -6.78 
 -2.55 
 -1.07 
 -5.79 
 -1.14 
 -8.33 
 -5.8 
 -2.46 
 0.52 
 8.43 
 -9.55 
 6.81 
 2.93 
 8.35 
 -5.87 
 -7.74 
 -4.87 
 0 
 -4 
 -3.94 
 3.37 
 -9.01 
 -6.8 
 -1.4 
 -2.02 
 3.49 
 7.07 
 -8.62 
 4.83 
 5.52 
 -2.4 
 4.65 
 -7.54 
 7.92 
 -4.05 
 -8.47 
 2.53 
 5.26 
 -2.41 
 5.76 
 -1.22 
 -1.7 
 -8.69 
 -6.75 
 -8.09 
 1.04 
 9.68 
 5.61 
 -4.56 
 -3.4 
 -6.78 
 -6.07 
 5.09 
 9.78 
 2.93 
 2.05 
 -7.51 
 -7.36 
 0 
 -4.04 
 -2.25 
 -1.15 
 -6.23 
 -9.96 
 -3.5 
 9.26 
 2.89 
 -3.96 
 -3.2 
 -3.38 
 0.47 
 -1.31 
 -0.46 
 -0.12 
 -8.36 
 -7.03 
 7.6 
 9.43 
 -4.78 
 2.26 
 -9.33 
 -2.83 
 4.07 
 -2.74 
 5.14 
 7.97 
 0.51 
 -7.03 
 -0.87 
 -4.39 
 -5.61 
 5.55 
 -9.13 
 -3.11 
 -6.1 
 4.68 
 4.78 
 2.03 
 -9.28 
 0 
 1.13 
 -7.61 
 0.21 
 -0.0600004 
 -1.43 
 -5.97 
 -4.65 
 8.45 
 -9.44 
 9.14 
 -9.49 
 1.8 
 -2.14 
 6.18 
 2.74 
 0.85 
 -0.55 
 7.41 
 5.38 
 -0.4 
 2.8 
 2.72 
 -1.42 
 1.51 
 -7.27 
 6.59 
 3.67 
 7.38 
 4.27 
 7.29 
 -3.2 
 8.21 
 -4.42 
 6.57 
 6 
 -5.3 
 6.82 
 -7.17 
 8.13 
 -7.75 
 0 
 -9.21 
 8.61 
 3.83 
 -9.15 
 5.62 
 9.77 
 9.59 
 -0.0799999 
 1.94 
 -5.08 
 7.15 
 5.16 
 -4.51 
 5.17 
 2.94 
 4.87 
 2.29 
 -2.61 
 7.8 
 -1.29 
 -4.34 
 4.88 
 8.67 
 0.89 
 8.19 
 -4.3 
 -7.19 
 -7.96 
 -0.42 
 2.06 
 -2.26 
 -3.94 
 -7.61 
 -5.63 
 -5.81 
 -8.99 
 -3.61 
 7.48 
 -6.21 
 -8.56 
 0 
 -3.29 
 7.05 
 -4.57 
 -1.05 
 5.58 
 2.1 
 4.8 
 5.65 
 4.26 
 3.32 
 -0.6 
 -9.4 
 0.49 
 -8.81 
 9.13 
 1.35 
 6.64 
 5.72 
 9.53 
 8.74 
 -4.39 
 -3.97 
 8.99 
 6.97 
 -1.7 
 3.37 
 4.16 
 2.87 
 1.56 
 -0.0699997 
 -9.75 
 9.87 
 -6.77 
 -9.26 
 -8.09 
 1.68 
 -6.99 
 -7.98 
 -1.64 
 1.08 
 0 
 -2.46 
 6.72 
 -2.55 
 7.86 
 9.62 
 5.34 
 2.11 
 -5.88 
 -5.87 
 -4 
 6.01 
 1.35 
 -0.95 
 -8.41 
 -5.05 
 8.77 
 3.44 
 8.32 
 -7.01 
 2.49 
 4.58 
 5.55 
 -9.21 
 0.25 
 -4.09 
 5.1 
 6.46 
 -0.61 
 -4.17 
 -4.94 
 4.98 
 -0.6 
 -9 
 -6.75 
 9.74 
 -2.36 
 -1.41 
 -9.44 
 9.28 
 -0.98 
 0 
 -4.32 
 0.57 
 -1.77 
 4.14 
 -6.3 
 -3.61 
 -3.23 
 3.44 
 -1.73 
 1.23 
 4.1 
 5.09 
 -9.77 
 -2.81 
 8.41 
 4.87 
 0.67 
 -8.06 
 -9.28 
 5.12 
 -2.6 
 8.79 
 -2.74 
 5.88 
 6.73 
 -0.14 
 9.91 
 -1.82 
 1.82 
 -3.31 
 -2.91 
 -5.53 
 4.99 
 0.51 
 -8.38 
 9.48 
 -6.51 
 9.47 
 3.48 
 6.34 
 0 
 -2.1 
 -5.68 
 8.91 
 -9.89 
 2.76 
 6.26 
 9.22 
 -1.94 
 -7.4 
 -0.61 
 9.25 
 3.85 
 6.67 
 4.44 
 -3.35 
 -3.62 
 3.75 
 3.46 
 -1.44 
 -3.18 
 -9.8 
 -5.66 
 9.59 
 -7.52 
 -2.58 
 8.63 
 3.31 
 9.74 
 1.29 
 -7.34 
 -4.91 
 9.35 
 -0.1 
 -9.5 
 -8.06 
 2.41 
 8.54 
 -2.76 
 2.16 
 -0.41 
 0 
 -0.44 
 -9.3 
 1.21 
 4.77 
 1.33 
 -3.64 
 -8.77 
 -3.81 
 8.13 
 6.03 
 1.55 
 6.03 
 7.01 
 3.58 
 3.51 
 -5.88 
 -4.89 
 -5.35 
 9.59 
 -7.59 
 1.36 
 -1.11 
 8.54 
 4.57 
 -6.63 
 3.24 
 -2.73 
 2.93 
 -9.59 
 6.18 
 9.02 
 2.49 
 -3.55 
 -7.24 
 4.6 
 -8.02 
 -1.42 
 5.72 
 0.15 
 3.19 
 0 
 -7.62 
 -1.98 
 0.11 
 -3.07 
 -1.07 
 -4.4 
 -3.09 
 -1.34 
 5.68 
 -8.49 
 -7.63 
 6.14 
 -3.78 
 -2.62 
 -8.8 
 5.4 
 9.61 
 -6.81 
 -2.96 
 -2.66 
 8.39 
 -2.37 
 7.4 
 -3.01 
 8.78 
 -7.17 
 -3.14 
 9.38 
 -3.67 
 -6.52 
 6.59 
 0.46 
 7.1 
 4.21 
 -4.28 
 5.46 
 -0.29 
 6.11 
 -1.32 
 -2.09 
 0 
 -0.75 
 -3.57 
 4.51 
 2.53 
 -8.54 
 -5.09 
 -9.16 
 -9.05 
 -0 
 -5.99 
 -4.74 
 -2.48 
 8.86 
 3.49 
 -5.43 
 -7.07 
 5.32 
 -9.31 
 9.5 
 -0.2 
 -7.91 
 7.11 
 -6.45 
 -7.15 
 -1.23 
 -8.82 
 2.61 
 -8.4 
 4.57 
 8.15 
 8.62 
 -2.01 
 -7.41 
 4.21 
 -6.48 
 -9.79 
 -9.14 
 -5.67 
 4.97 
 0.32 
 0 
 -8.02 
 0.87 
 -3.81 
 2.95 
 8.92 
 -8.03 
 0.16 
 -5.52 
 4.43 
 -4.34 
 1.64 
 -1.7 
 4.35 
 8.65 
 -6.94 
 8.66 
 -7.83 
 -9.78 
 4.92 
 9.6 
 5.24 
 2.25 
 6.15 
 -5.04 
 -1.99 
 -4.2 
 -6.73 
 3.18 
 7 
 -2.86 
 -3.81 
 5.8 
 -0.48 
 -8.15 
 7.06 
 -0.0100002 
 0.73 
 -0.0100002 
 -4.49 
 -8.25 
 0 
 -3.59 
 -3.35 
 6.59 
 -6.26 
 9.03 
 8.93 
 -3.15 
 7.08 
 -4.28 
 3.92 
 -4.95 
 -3.57 
 -4.99 
 7.75 
 -9.56 
 -4.8 
 -8.08 
 7.3 
 -2.54 
 1.62 
 -1.53 
 -2.15 
 3.04 
 1.83 
 -6.91 
 -0.99 
 -7.8 
 -8.21 
 1.92 
 -2.86 
 1.54 
 2.99 
 1.28 
 -8.05 
 -8.72 
 1.93 
 -1.7 
 2.47 
 -5.4 
 0.96 
 0 
 9.79 
 3.88 
 8.67 
 -5.79 
 -4.8 
 -3.93 
 5.13 
 -2.68 
 0.22 
 5.62 
 -1.88 
 -1.18 
 -5.35 
 7.65 
 2.18 
 7.39 
 5.55 
 8.63 
 -6.13 
 4.4 
 -8.3 
 4.23 
 9.57 
 6.98 
 5.55 
 -1.15 
 -5.56 
 -7.46 
 -6.57 
 9.21 
 -7.71 
 7.46 
 8.37 
 -1.1 
 3.17 
 -6.49 
 -1.35 
 -4.39 
 -7.78 
 -6.97 
 0 
 -6.65 
 -7.74 
 -5.6 
 4.43 
 -8.93 
 -4.13 
 3.14 
 1.8 
 -1.83 
 -5.42 
 -4.18 
 -4.1 
 8.56 
 -8.1 
 3.52 
 3.12 
 4.91 
 0.31 
 -8.82 
 -9.95 
 0.9 
 -3.81 
 -7.91 
 4.07 
 2.73 
 4.65 
 8.35 
 -3.26 
 -9.58 
 -8.75 
 -0.39 
 4.02 
 9.19 
 6.36 
 -9.08 
 -9.53 
 -2.3 
 -6.8 
 8.27 
 -7.84 
 0 
 -4.27 
 -9.01 
 7.26 
 -8.45 
 0.77 
 0.41 
 -3.42 
 -7.44 
 -0.22 
 -4.57 
 2.98 
 -6.39 
 -9.5 
 -5.55 
 8.96 
 7.15 
 1.35 
 0.58 
 5.87 
 -6.78 
 9.03 
 -6.05 
 9.46 
 -1.49 
 -1.43 
 5.08 
 1.5 
 -9.02 
 7.22 
 3.97 
 -2 
 5.18 
 -4.97 
 -8.9 
 1.07 
 6.26 
 -1 
 0.46 
 2.5 
 4.77 
 0 
 -7.12 
 -8.67 
 7.24 
 0.41 
 0.87 
 -6.32 
 -8.57 
 0.39 
 -9.24 
 -4.43 
 2.01 
 -7.96 
 -2.91 
 -3.16 
 3.47 
 1.31 
 -1.38132e-23 
 -0.65 
 -8.04 
 -4.71 
 1.69 
 9.95 
 -1.82 
 5.99 
 -0.88 
 1.07 
 6.36 
 7.45 
 4.38 
 -0.97 
 5.95 
 4.14 
 -2.46 
 -4.98 
 7.01 
 6.18 
 0.23 
 -6.48 
 -8.36 
 -7.6 
 0 
 0.79 
 -6.17 
 -2.84 
 -8.98 
 8.14 
 1.44 
 -0.24 
 -4.07 
 -8.69 
 -6.98 
 -7.15 
 0.0600004 
 -7.43 
 6.03 
 4.04 
 -3.28 
 8.81 
 -6.15 
 -8.67 
 4.74 
 -6.38 
 -4.32 
 -9.84 
 -2.52 
 -3.62 
 -2.85 
 3.07 
 3.96 
 5.35 
 3.72 
 -0.77 
 -8.66 
 -2.71 
 6.37 
 8.62 
 0.31 
 -8.38 
 6.56 
 1.05 
 8.79 
 0 
 -5.11 
 -0.35 
 -1.31 
 -9.58 
 7.71 
 5.11 
 -0.33 
 -8.78 
 2.08 
 -9.12 
 -9.58 
 -9.35 
 2.7 
 -4.94 
 -5.13 
 6.2 
 -5.14 
 -9.31 
 9.11 
 -9.31 
 8.06 
 1.61 
 5.6 
 -1.4 
 2.57 
 -9.64 
 -7.92 
 -7.52 
 -2.51 
 8.14 
 -0.71 
 -4.72 
 -8.74 
 5.86 
 -3.3 
 -5.69 
 -2.63 
 -8.32 
 -9.87 
 3.76 
 0 
 9.06 
 2.13 
 -3.86 
 -9.09 
 -4.92 
 -1.74 
 0.72 
 5.66 
 -5.61 
 -4.73 
 -7.34 
 -2.78 
 -3.93 
 8.52 
 -8.65 
 -0.2 
 9 
 3.68 
 -7.14 
 5.02 
 2.86 
 3.84 
 -7.89 
 7.15 
 1.33 
 6.48 
 4.31 
 -6.35 
 -2.57 
 -7.99 
 -8.06 
 -8.63 
 8.51 
 -6.12 
 5.36 
 -6.63 
 -5.39 
 2.62 
 9.3 
 -1.25 
 0 
 4.61 
 -4.01 
 -4.08 
 -9.6 
 -4.3 
 -4.69 
 -2.33 
 3.19 
 -9.61 
 1.18 
 7.46 
 2.91 
 -4.05 
 -4.33 
 0.58 
 -9.08 
 2.99 
 -7.17 
 7.35 
 -8.12 
 0.28 
 -5.59 
 -6.94 
 -0.78 
 -5.46 
 -1.76 
 -4.73 
 -0.0100002 
 -3.01 
 -0.93 
 3.97 
 8.47 
 -2.8 
 2.35 
 1.04 
 6.59 
 4.51 
 3.34 
 -9.83 
 1.97 
 0 
 -6.49 
 -7.73 
 4.83 
 7.87 
 -4.18 
 0.89 
 -0.81 
 -8.55 
 -9.18 
 6.07 
 3.42 
 -0.67 
 -1.72 
 -9.3 
 -6.08 
 6.28 
 -3.71 
 1.65 
 5.68 
 -3.2 
 -6.7 
 -0.52 
 -9 
 -8.95 
 -1.93 
 -1.42 
 -0.57 
 -8.98 
 -6.22 
 -3.43 
 6.37 
 -6.19 
 -3.18 
 -0.96 
 -3.61 
 -9.45 
 -1.44 
 2.74 
 -6.56 
 -0.41 
 0 
 -2.75 
 -0.66 
 -7.71 
 0.75 
 -5.38 
 -2.67 
 -9.22 
 -5.05 
 2.02 
 5.05 
 -8.42 
 -10 
 -8.24 
 3.22 
 -8.64 
 8.02 
 -2.58 
 -2.03 
 5.4 
 -9.62 
 4.49 
 0.17 
 -3.09 
 -1.94 
 7.21 
 -3.45 
 -7.92 
 -0.0500002 
 -7.88 
 0.61 
 0.8 
 5.29 
 -4.15 
 2.76 
 8.67 
 -0.18 
 5.04 
 -3.11 
 2.99 
 9.67 
 0 
 7.29 
 -2.76 
 3.31 
 -9.03 
 -5.03 
 4.28 
 -2.92 
 7.88 
 -5.23 
 4.21 
 5.39 
 -2.48 
 -5.53 
 -9.03 
 -1.89 
 8.38 
 7.78 
 -8.42 
 1.53 
 0.3 
 -9.61 
 -4.38 
 8.5 
 2.91 
 8 
 -0.24 
 -8.74 
 1.25 
 -4.92 
 0.43 
 2.12 
 8.3 
 -4.14 
 3.79 
 -7.15 
 7.92 
 0.41 
 -4.5 
 4.05 
 -4.52 
 0 
 5.76 
 5.76 
 7.57 
 0.0799999 
 -0.58 
 -5.19 
 3.27 
 3.78 
 -5.44 
 0.97 
 -2.38 
 -7.86 
 5.57 
 -5.38 
 -2.28 
 8.26 
 -4.45 
 -8.38 
 3.17 
 6.37 
 3.19 
 -1.38 
 6.36 
 -9.98 
 -4.7 
 3.66 
 -5.97 
 -3.59 
 -3.71 
 4.7 
 7.19 
 -2.94 
 7.1 
 9.97 
 -9.74 
 -1.8 
 6.67 
 -0.0699997 
 7.8 
 9.41 
 0 
 -1.64 
 -0.33 
 -9.74 
 -8.3 
 -8.26 
 -6.7 
 -7.43 
 7.81 
 -9.42 
 -8.63 
 7.97 
 9.27 
 -0.59 
 -4.94 
 -7.41 
 6.9 
 6.2 
 -7.89 
 2.58 
 8.18 
 -3.62 
 5.15 
 -4 
 -0.66 
 -1.09 
 6.46 
 9.71 
 -8 
 -7.1 
 -5.31 
 0.76 
 -5.82 
 2.25 
 -6.59 
 8.83 
 0.65 
 -5.84 
 -2.1 
 4.23 
 -5.3 
 0 
 2.39 
 4.45 
 -5.42 
 -2.94 
 -2.95 
 0.59 
 -9.18 
 -8.23 
 -9.75 
 -9.47 
 2.92 
 -6.59 
 8.33 
 7.75 
 0.0100002 
 6.56 
 0.73 
 7.48 
 4.92 
 -3.63 
 8.82 
 -7.21 
 4.57 
 -1.04 
 -8.92 
 -5.36 
 1.61 
 8.54 
 -3.43 
 -5.34 
 5.41 
 -5.12 
 -3.51 
 7.7 
 2.25 
 -9.64 
 7.11 
 3.86 
 -5.01 
 -2.91 
 0 
 -0.81 
 -5.16 
 -0.6 
 -4.46 
 -6.8 
 8.39 
 7.75 
 -6.37 
 -9.84 
 -7.13 
 -7.03 
 -0.45 
 8.62 
 -6.34 
 7.93 
 -3.72 
 -5.81 
 -2.93 
 -9.2 
 -8.87 
 6.51 
 -6.05 
 2.13 
 6.85 
 -7.61 
 0.99 
 -9.57 
 9.17 
 -5.82 
 -0.19 
 4.3 
 -7.25 
 -9.73 
 -3.82 
 -0.46 
 -5.32 
 -7.89 
 -5.21 
 2.69 
 6.36 
 0 
 -1.82 
 -5.38 
 -3.91 
 5.6 
 1.99 
 1.73 
 0.93 
 -3.34 
 1.34 
 -4.6 
 -6 
 1.29 
 -2.33 
 -3.53 
 -4.99 
 -2.53 
 -2.55 
 -5.36 
 -9.97 
 6.81 
 1.35 
 -3.62 
 -2.08 
 -7.2 
 1.73 
 -8.65 
 8.89 
 0.0799999 
 -8.71 
 4.76 
 8.45 
 1.77 
 8.77 
 7.16 
 -7.9 
 9.27 
 -8.12 
 6.03 
 9.91 
 -9.06 
 0 
 -7.8 
 3.65 
 -8.26 
 8.02 
 -9.87 
 -6.16 
 -0.0299997 
 -6.85 
 -7.34 
 -2.06 
 -7.11 
 -2.54 
 -5.95 
 -4.55 
 3.17 
 -8.11 
 -1.4 
 -1.92 
 -8.42 
 -3.62 
 -2.61 
 5.4 
 1.74 
 -4.89 
 1.08 
 -6.56 
 -8.31 
 -3.3 
 -8.04 
 -0.53 
 8.62 
 -7.67 
 9.59 
 -6.25 
 -5.92 
 -9.49 
 -3.85 
 -6.18 
 -3.38 
 -0.16 
 0 
 0.96 
 2.4 
 -7.63 
 -8.87 
 -1.92 
 5.15 
 -5.72 
 2 
 2 
 -7.7 
 -9.7 
 0.18 
 -8.94 
 -6.66 
 -9.75 
 8.45 
 -1.91 
 0.79 
 -8.43 
 -3.94 
 -1.21 
 5.64 
 9.61 
 -7.06 
 2.48 
 -4.23 
 -7.57 
 -2.34 
 -7.86 
 -3.86 
 7.2 
 9.18 
 -5.29 
 4.23 
 -0.23 
 2.28 
 6.84 
 5.22 
 -5.61 
 -0.77 
 0 
 -0.88 
 4.32 
 -9.5 
 -4.72 
 -0.32 
 8.19 
 -9.37 
 0.87 
 -8.95 
 5.68 
 -4.29 
 -6.92 
 8.3 
 7.55 
 4.56 
 -7.53 
 -4.57 
 -7.9 
 -6.08 
 3.62 
 5.33 
 -4.83 
 -1.92 
 -3.79 
 -9.23 
 9.02 
 -0.11 
 3.41 
 -5.82 
 3.37 
 1.9 
 -2.88 
 4.76 
 -8.51 
 -8.86 
 0.84 
 0.53 
 7.07 
 -6.37 
 4.08 
 0 
 6.96 
 6.03 
 3.55 
 -9.71 
 -0.66 
 8.37 
 6.2 
 -4.78 
 1.91 
 -1.04 
 -5.59 
 -9.34 
 6.2 
 -6.09 
 2.36 
 -9.72 
 6.59 
 9.49 
 0.83 
 0.9 
 7.19 
 1.59 
 -6.73 
 -3.82 
 -8.75 
 -6.62 
 -5.77 
 -6.27 
 6.04 
 -2.64 
 -5.46 
 -4.8 
 -2.6 
 -4.76 
 -7.98 
 0.33 
 3.79 
 5.26 
 2.95 
 3.88 
 0 
 -9.41 
 -8.69 
 -1.69 
 0.72 
 -7.24 
 -2.45 
 5.22 
 -2.32 
 9.71 
 -2.58 
 -6.05 
 2.12 
 0.81 
 3.36 
 0.81 
 -2.89 
 -1.41 
 -9.74 
 -3.2 
 -5.56 
 -8.98 
 3.52 
 -1.31 
 5.41 
 0.0799999 
 -3.65 
 6.82 
 2.25 
 -2.31 
 -2.8 
 -1.73 
 4.29 
 4.43 
 9.44 
 9.46 
 1.66 
 -0.0200005 
 -0.0600004 
 6.24 
 9.26 
 0 
 -9.46 
 1.58 
 -5.38 
 9.69 
 -7.41 
 0.35 
 8.99 
 1.24 
 -0.28 
 2.3 
 -3.48 
 8.45 
 -5.54 
 -8.18 
 8.82 
 -8.01 
 -4.99 
 -2.17 
 6.33 
 -7.19 
 -2.81 
 9.53 
 4.38 
 -6.17 
 -0.0699997 
 -4.28 
 9.93 
 -5.15 
 5.93 
 -1.78 
 -0.67 
 -8.55 
 -4.85 
 -5.27 
 -3.22 
 -3.03 
 -9.36 
 -0.0200005 
 -6.78 
 -3.39 
 0 
 -9.86 
 -5.57 
 -2.58 
 2.95 
 -7.25 
 8.84 
 6.23 
 -2.17 
 7.22 
 5.54 
 -8.37 
 -5.96 
 -3.08 
 -5.71 
 -7.05 
 2.2 
 5.33 
 8.95 
 -6.38 
 -9.69 
 6.52 
 7.64 
 -7.18 
 -2.42 
 -0.6 
 0.19 
 3.68 
 7.03 
 -3.89 
 -9.8 
 5.43 
 9.96 
 7.61 
 0.58 
 -9.68 
 9.09 
 4.75 
 8.43 
 -4.14 
 7.63 
 0 
 -0.35 
 4.49 
 0.31 
 -1.4 
 1.47 
 -3.24 
 -3.66 
 -3.07 
 -7.6 
 4.83 
 -1.54 
 -9.26 
 0.36 
 -7.83 
 -7.55 
 5.93 
 -2.59 
 -7.54 
 0.41 
 0.98 
 -5.6 
 6.17 
 -6.05 
 9.35 
 5.28 
 -6.52 
 0.47 
 0.72 
 4.62 
 -8.33 
 -4.48 
 5.73 
 3.29 
 -5.98 
 -8.55 
 3.95 
 7.44 
 -9.71 
 -6.2 
 -3.49 
 0 
 7.95 
 4.85 
 6.31 
 5.4 
 -9.3 
 2.73 
 -4.98 
 8.22 
 7.56 
 -7.72 
 -6.62 
 6.71 
 -6.53 
 2.41 
 0.4 
 -1.62 
 5.53 
 -6.18 
 1.68 
 -6.83 
 -7.05 
 8.62 
 8.62 
 9.03 
 9.1 
 -3.36 
 -6.48 
 -7.57 
 -0.61 
 -1.04 
 -2.56 
 9.26 
 -9.93 
 -3.87 
 7.56 
 -5.95 
 2.74 
 -7.97 
 -9.87 
 -2.05 
 0 
 -2.07 
 -4.35 
 -5.6 
 4.37 
 7.74 
 2.44 
 6.03 
 3.67 
 -2 
 -0.12 
 -0.7 
 -3.27 
 -5.31 
 2.04 
 7.35 
 -4.42 
 7.97 
 -8.62 
 -1.56 
 -4.68 
 -7.77 
 8.12 
 1.22 
 4.57 
 6.44 
 0.0100002 
 2.39 
 3.4 
 7.61 
 3.64 
 -5.45 
 -6.18 
 7.85 
 1.29 
 -1.16 
 -3.28 
 2.98 
 7.54 
 -1.44 
 5.1 
 0 
 -1.24 
 -0.78 
 -6.83 
 0.53 
 -3.38 
 -8.72 
 -3.75 
 6.65 
 0.5 
 -1.48 
 -9.82 
 6.98 
 4.31 
 -9.9 
 -5.92 
 3.71 
 5.02 
 2.17 
 5.56 
 9.73 
 1.4 
 -3.84 
 2.89 
 9.3 
 -4.97 
 -4.54 
 1.47 
 -7.47 
 -9.48 
 -5.07 
 8.63 
 -6.4 
 8.32 
 3.28 
 5.55 
 2.86 
 2.69 
 4.11 
 -4.49 
 6.02 
 0 
 -4.85 
 6.13 
 3.28 
 -6.23 
 -6.9 
 5.88 
 6.42 
 -9.49 
 2.28 
 7.55 
 -2.35 
 -6.44 
 -8.82 
 -5.88 
 9.42 
 -7.21 
 -9.25 
 2.71 
 -6.25 
 2.8 
 1.29 
 6.97 
 3.58 
 -8.65 
 -4.14 
 -9.72 
 -2.56 
 5.61 
 -0.65 
 7.05 
 -0.7 
 9.64 
 -2.8 
 -6.21 
 -1.2 
 -2.3 
 0.69 
 -3.46 
 6.82 
 0.23 
 0 
 -3.84 
 8.27 
 5.34 
 -1.74 
 5.83 
 -0.21 
 6.32 
 8.31 
 2.27 
 7.68 
 -6.09 
 -5.95 
 -2.52 
 9.21 
 7.95 
 7.76 
 1.51 
 -7.01 
 2.74 
 0.77 
 9.18 
 -3.53 
 -3.79 
 -7.72 
 9.26 
 7.24 
 -1.43 
 -9.45 
 8.85 
 0.0100002 
 -3.17 
 -7.42 
 8.27 
 2.14 
 -3.04 
 -6.04 
 0.96 
 -3.49 
 1.64 
 2.77 
 0 
 8.32 
 -6.95 
 7.52 
 -5.51 
 -7.53 
 3.3 
 3.87 
 -5.79 
 9.6 
 9.52 
 2.36 
 -5.86 
 -4.93 
 7.17 
 9.75 
 -5.95 
 5.95 
 -3.05 
 -1.71 
 -6.71 
 -9.75 
 -5.85 
 -7.45 
 9.25 
 -4.18 
 -3.97 
 9.71 
 -3.59 
 3.17 
 -7.11 
 -9.46 
 0.0299997 
 1.04 
 9.09 
 6.27 
 6.23 
 -4.78 
 -7.79 
 3.15 
 8.76 
 0 
 -6.62 
 8.37 
 3.46 
 9.41 
 6.1 
 5.36 
 2.81 
 -7.07 
 0.76 
 -2.57 
 -8.77 
 1.6 
 -2.77 
 -3 
 2.21 
 6.5 
 9.83 
 -5.12 
 -1.67 
 -7.51 
 0.8 
 6.73 
 -0.16 
 -3.54 
 9.01 
 -2.59 
 -2.1 
 -3.92 
 2.28 
 3.27 
 -1.3 
 -4.29 
 -3.18 
 0.96 
 -9.03 
 -1.71 
 7.81 
 1.27 
 -4.39 
 -5.51 
 0 
 -3.64 
 -8.3 
 -5.04 
 -0.73 
 -5.51 
 -4.29 
 -4.92 
 -3.96 
 9.06 
 -2.47 
 -2.97 
 1.93 
 0.55 
 -3.47 
 -3.4 
 -3.61 
 5.99 
 3.99 
 -6.45 
 -4.66 
 -4 
 -4.69 
 -0.69 
 -2.66 
 9.48 
 1.39 
 8.03 
 -6.34 
 1.41 
 5.65 
 5.29 
 5.46 
 9.09 
 -5.38 
 -1.29 
 3.06 
 -4.65 
 -5.53 
 7.71 
 -7.99 
 0 
 6.4 
 9.18 
 -0.6 
 7.59 
 9.86 
 4.08 
 5.24 
 7.29 
 8.25 
 -9.42 
 4.45 
 7.17 
 6.01 
 1.39 
 4.47 
 -3.42 
 -5.2 
 1.75 
 -6.84 
 0.74 
 -0.75 
 -4.04 
 6.68 
 -7.83 
 7.6 
 -9.61 
 4.22 
 5.58 
 -2.06 
 9.59 
 2.48 
 1.76 
 -1.06 
 -9.52 
 4.48 
 -7.1 
 -7.28 
 9.88 
 4.59 
 -8.54 
 0 
 2.28 
 -1.53 
 1.35 
 0.66 
 8.29 
 -1.87 
 7.45 
 2.17 
 2.41 
 7.05 
 3.65 
 -4.14 
 -6.85 
 6.28 
 -7.59 
 -3.21 
 -9.61 
 -7.43 
 3.65 
 -5.97 
 -8.8 
 -0.49 
 2.99 
 1.47 
 2.28 
 -4.97 
 -7.44 
 8.06 
 0.94 
 7.82 
 1.95 
 3.45 
 -4.05 
 5.17 
 -7.47 
 -2.42 
 -2.33 
 5.59 
 -2.46 
 6.77 
 0 
 -9.73 
 -6.73 
 -7.33 
 8.76 
 4.35 
 -0.84 
 0.67 
 5.19 
 6.12 
 -8.6 
 3.79 
 6.71 
 -9.77 
 6.35 
 6.56 
 5.79 
 -7.61 
 1.36 
 2.68 
 4.88 
 6.36 
 9.39 
 0.63 
 3.34 
 -4.17 
 -6.56 
 5.15 
 -7.49 
 6.15 
 4.84 
 1.17 
 3.43 
 5.95 
 -0.89 
 0.0100002 
 1.44 
 0.65 
 -0.29 
 -0.67 
 -8.17 
 0 
 -2.91 
 1.36 
 -1.42 
 4.48 
 -9.67 
 -8.6 
 -1.01 
 -3.19 
 -1.09 
 5.79 
 5.29 
 -8.68 
 -2.29 
 6.86 
 8.37 
 0.6 
 -4.48 
 7.95 
 -5.2 
 9.47 
 5.28 
 -8.16 
 -4.85 
 0.73 
 4.78 
 8.99 
 -0.25 
 -2.35 
 -0.74 
 -5.57 
 8.79 
 1.29 
 -1.62 
 3.33 
 -2.38 
 8.73 
 8.29 
 -5.2 
 -0.27 
 4.36 
 0 
 -4.94 
 1.76 
 5.83 
 5.7 
 4.62 
 7.12 
 -6.82 
 -0.36 
 8.29 
 -8.18 
 4.92 
 5.01 
 -2.42 
 -6.51 
 -4.52 
 -4.36 
 -3.83 
 -1.02 
 9.85 
 -2.12 
 -2.09544e-15 
 2.07 
 2.59 
 -8.33 
 -2.25 
 2.96 
 2.92 
 -8.5 
 4.82 
 -5.03 
 -9.98 
 -6.16 
 -1.75 
 -5.45 
 -1.23 
 -5.27 
 8.72 
 0.15 
 6.11 
 -6.92 
 0 
 -5.47 
 -3.1 
 -7.24 
 -8.89 
 -5.46 
 6.94 
 -4.24 
 -4.13 
 -0.33 
 -5.57 
 1.26 
 8.57 
 2.15 
 6.86 
 7.45 
 -0.24 
 9.7 
 -4.09 
 1.49 
 1.88 
 6.88 
 -7.75 
 -0.62 
 3.92 
 -0.11 
 3.33 
 -8.25 
 7.87 
 -4.46 
 7.8 
 -5.82 
 -9.59 
 6.85 
 9.48 
 2.85 
 2.12 
 -8.84 
 -4.67 
 -4.38 
 3.22 
 0 
 -4.04 
 2.27 
 0.4 
 3.99 
 0.4 
 -5.09 
 -4.01 
 -6.39 
 6.99 
 2.33 
 -2.74 
 2.08 
 -3.89 
 2.31 
 1.44 
 2.34 
 0.0900002 
 -6.03 
 0.0799999 
 2.82 
 5.53 
 6.03 
 -5.26 
 -8.26 
 -2.84 
 4.47 
 1.88 
 8.41 
 7.46 
 7.48 
 -5.87 
 7.71 
 -5.96 
 -0.6 
 6.6 
 2.39 
 3.77 
 -7.3 
 7.8 
 6.46 
 0 
 8.35 
 9.9 
 -8.29 
 2.46 
 1.9 
 -2.08 
 7.1 
 -0.0100002 
 1.15 
 3.33 
 6.69 
 -9.9 
 -0.22 
 -1.31 
 9.76 
 6.4 
 -2.93 
 6.31 
 -8.85 
 5.97 
 -5.41 
 6.92 
 8.5 
 0.27 
 -3.28 
 -1.71 
 -3.37 
 1.07 
 -9.5 
 5.04 
 -4 
 0.37 
 -0.53 
 5.02 
 3.67 
 -4.3 
 -3.84 
 -1.75 
 3.06 
 6 
 0 
 -1.16 
 1 
 -1.14 
 -8.67 
 7.15 
 -7.17 
 -1.27 
 -2 
 5.26 
 -6.6 
 -7.62 
 9.7 
 8.4 
 2.27 
 4.32 
 -9.84 
 8.2 
 -9.52 
 -7.79 
 -0.26 
 -9.34 
 2.94 
 -1.96 
 -9.52 
 4.78 
 8.78 
 -0.87 
 -2.83 
 -8.87 
 7.4 
 -3.88 
 0.61 
 -4.51 
 -5.21 
 -2.65 
 -4.68 
 5.79 
 1.19 
 3.03 
 -5.13 
 0 
 -7.98 
 -8.27 
 -8.09 
 6.15 
 -5.76 
 7.89 
 -3.41 
 -9.36 
 -4.8 
 3.66 
 -1.73 
 -2.3 
 -0.62 
 -4.77 
 -5.89 
 0.6 
 -0.73 
 -5.11 
 3.4 
 0.0299997 
 -2.03 
 3.39 
 3.61 
 8.39 
 6.23 
 9.95 
 -7.2 
 5.74 
 -4.28 
 -9.1 
 -2.17 
 6.21 
 -2.33 
 7.93 
 -0.94 
 2.52 
 2.56 
 -7.68 
 7.78 
 9.21 
 0 
 5.43 
 -9.68 
 3.04 
 2.67 
 0.35 
 -2.05 
 0.9 
 7.21 
 1 
 -0.26 
 4.52 
 8.61 
 8.21 
 -6.99 
 4.98 
 5.62 
 7.63 
 -8.79 
 -8.78 
 -6.69 
 5.93 
 -5.03 
 9.65 
 8.5 
 0.75 
 -9.24 
 -8.68 
 -3.25 
 -2.94 
 -6.59 
 -0.16 
 -8.95 
 -1.28 
 -5.78 
 -9.39 
 9.21 
 -0.12 
 -9.44 
 -4.33 
 -3.14 
 0 
 -7.18 
 -5.7 
 1.49 
 -1.67 
 7.44 
 -1.06 
 3.14 
 1.83 
 -7.94 
 4.26 
 6.82 
 6.77 
 -3.07 
 -1.83 
 2.51 
 -3.49 
 -7 
 8.81 
 6.96 
 -6.45 
 -6.61 
 -3 
 2.5 
 -4.08 
 -9.95 
 -4.16 
 0.68 
 7.66 
 -7.64 
 4.2 
 4.61 
 7.58 
 8.01 
 7.52 
 -5.25 
 -3.44 
 8.11 
 -3.73 
 -6.58 
 -9.46 
 0 
 2.99 
 2.1 
 -5.22 
 4.58 
 3.37 
 6.82 
 5.05 
 -1.8 
 -3.34 
 -3.67 
 0.58 
 2.53 
 7.49 
 -5.26 
 -7.03 
 1.24 
 8.9 
 -5.24 
 1.84 
 -2.99 
 2.72 
 -8.66 
 7.73 
 0.1 
 -7.58 
 -5.11 
 5.38 
 -1.22 
 9.22 
 3.25 
 -4.7 
 5.26 
 0.31 
 8.68 
 3.32 
 4.41 
 6.11 
 -3.93 
 -7.96 
 0.49 
 0 
 -5.31 
 -7.99 
 -3.42 
 7.4 
 -3.17 
 4.65 
 0.67 
 -3.9 
 -7.19 
 6.36 
 8.43 
 -3.25 
 2.41 
 9.91 
 -0.42 
 5.73 
 1.33 
 -2.33 
 8.8 
 2.35 
 -3.75 
 4.17 
 8.01 
 -7.07 
 4.39 
 8.47 
 2.41 
 8.89 
 1.7 
 -2.58 
 5.09 
 0.26 
 1.81 
 4.38 
 3.15 
 6.72 
 9.96 
 9.29 
 -0.0500002 
 1.52 
 0 
 -2.88 
 -6.89 
 5.74 
 3.02 
 8.1 
 1.73 
 1.92 
 -7.43 
 2.94 
 2.41 
 -5.88 
 -8.79 
 1.08 
 -2.96 
 -0.0299997 
 -4.62 
 -6.33 
 -6.77 
 -8.86 
 -5.01 
 9.25 
 -8.72 
 -2.72 
 8.79 
 -1.42 
 -9.2 
 0.0900002 
 7.49 
 4.09 
 0.12 
 2.36 
 -5.9 
 9.73 
 -4.55 
 9.11 
 -9.47 
 7.51 
 5.18 
 8.59 
 0.0299997 
 0 
 9.47 
 7.67 
 -3.95 
 5.79 
 5.88 
 9.03 
 -3.85 
 9.71 
 3.34 
 -6.1 
 -8.3 
 9.86 
 -4.54 
 0.98 
 -9.56 
 -1.79 
 2.96 
 -8.56 
 7.26 
 2.09 
 -6.75 
 1.27 
 -6.02 
 -9.81 
 -5.28 
 -7.44 
 6.78 
 -3.14 
 -1.99 
 -5.86 
 -4.19 
 -2.1 
 -5.33 
 7.71 
 -9.15 
 -0.0299997 
 -7.15 
 -6.84 
 9.49 
 2.44 
 0 
 -9.46 
 -0.25 
 2.05 
 9.7 
 -4.39 
 -8.52 
 9.58 
 -6.69 
 -1.41 
 -0.73 
 -4.79 
 -2.17 
 -6 
 -4.25 
 4.17 
 3.49 
 -8.95 
 -1.91 
 -8.57 
 -5.29 
 -2.94 
 -8.98 
 9.5 
 0.68 
 0.57 
 3.21 
 1.16 
 7.3 
 -9.16 
 -5.8 
 -2.62 
 -9.27 
 -7.03 
 -8.46 
 2.86 
 7.84 
 9.24 
 -8.96 
 -8.97 
 -6.54 
 0 
 5.68 
 -1.12 
 9.45 
 -2.88 
 -5.3 
 4.73 
 -6.17 
 4.17 
 -9.37 
 6.98 
 0.8 
 -3.37 
 -5.62 
 8.65 
 8.04 
 9.52 
 2.17 
 2.7 
 -7.33 
 -6.35 
 -2.61 
 -4.91 
 2.9 
 5.44 
 7 
 -7.16 
 -2.19 
 0.0299997 
 5.82 
 3.58 
 -2.43 
 2.59 
 5.45 
 -4.89 
 -0.6 
 9.57 
 -2.55 
 -0.0699997 
 -1.21 
 0.8 
 0 
 1.18 
 6.6 
 -7.09 
 -1.71 
 4.71 
 4.51 
 -9.84 
 -0.35 
 4.52 
 6.49 
 -1.35 
 2.2 
 -8.83 
 -0.53 
 -6.23 
 7.47 
 -3.92 
 -6.07 
 6.95 
 3.91 
 0.28 
 -9.97 
 -7.77 
 -7.26 
 1.74 
 -3.92 
 -5.83 
 -4.06 
 -7.1 
 -1.4 
 3.74 
 6.4 
 -0.12 
 -9.59 
 -3.92 
 -1.17 
 -2.57 
 -8.86 
 1.29 
 1.33 
 0 
 -2.68 
 3.67 
 -2.98 
 -3.75 
 1.18 
 0.78 
 9.53 
 7.87 
 4.59 
 6.71 
 -1.32 
 -3.11 
 5.49 
 -4.4 
 3.15 
 7.81 
 -1.08 
 3.8 
 -1.93 
 -1.24 
 -0.89 
 -7.24 
 -4.93 
 7.8 
 3.06 
 9.41 
 5.04 
 -9.09 
 3.85 
 -2.92 
 3.45 
 1.64 
 -9.16 
 -8 
 -3.03 
 5.31 
 -4.05 
 3.19 
 6.52 
 -5.34 
 0 
 -3.17 
 2.52 
 4.21 
 4.18 
 7.66 
 7.49 
 -6.44 
 -3.2 
 -3.24 
 7.78 
 -9.3 
 1.03 
 -7.75 
 5.13 
 0.86 
 -8.99 
 4.66 
 -5.72 
 7.29 
 4.15 
 -2.08 
 -3.98 
 5.09 
 -8.56 
 4.66 
 -5.22 
 -8.63 
 4.97 
 -9.98 
 -8.34 
 9.52 
 2.83 
 0.28 
 0.78 
 -7.29 
 5.87 
 -2.7 
 -6.66 
 2.74 
 9.66 
 0 
 -2.7 
 -1.42 
 -1.62 
 0.53 
 3.52 
 -1.5 
 -9.81 
 -4 
 -0.0900002 
 0.74 
 0.77 
 -6.51 
 8.86 
 -2.53 
 2.24 
 -8.81 
 6.83 
 -0.53 
 -0.31 
 4.25 
 -5.07 
 5.96 
 6.89 
 5.45 
 7.16 
 -4.39 
 -8.72 
 -5.01 
 0.47 
 -6.64 
 -0.85 
 -10 
 7.18 
 -9.7 
 4.65 
 5.21 
 6.34 
 -8.65 
 2.91 
 -6.26 
 0 
 8.13 
 -4.3 
 -9.56 
 7.03 
 -8.36 
 8.13 
 -1.13 
 -6.79 
 -2.61 
 -1.25 
 5.8 
 6.19 
 4.05 
 6.13 
 9.22 
 -8.67 
 -9.59 
 0.64 
 3.53 
 -6.87 
 -3.78 
 -6.62 
 4.84 
 6.32 
 -6.53 
 6.66 
 -9.17 
 1.82 
 8.94 
 -9.79 
 5.97 
 6.11 
 -1.64 
 5.83 
 4.68 
 9.31 
 -5.27 
 8.07 
 -4.23 
 -8.4 
 0 
 1.74 
 -3.83 
 7.43 
 -4.92 
 -3.68 
 -9.12 
 -8.71 
 -7.28 
 2.83 
 -8.03 
 3.06 
 4.04 
 -0.87 
 2.86 
 -0.41 
 -4.63 
 -6.23 
 -8.74 
 -1.97 
 4.32 
 -9.73 
 6.19 
 2.67 
 3.01 
 -1.73 
 9.09 
 2.04 
 9.7 
 -0.27 
 0.0500002 
 -1.27 
 2.81 
 -4.54 
 -6.14 
 5.13 
 1.53 
 -0.38 
 5.85 
 8.72 
 -2.18 
 0 
 -6.02 
 3.48 
 5.38 
 0.32 
 4.94 
 -7.49 
 -6.32 
 5.57 
 -2.73 
 -0.13 
 -5.98 
 9.22 
 8.74 
 -4.69 
 8.73 
 5.75 
 2.8 
 3.68 
 -9.3 
 -5.13 
 6.03 
 4.26 
 -5.05 
 -7.68 
 -5.7 
 2.57 
 9.4 
 -0.0600004 
 7.36 
 2.89 
 8.34 
 6.53 
 0.2 
 2.78 
 7.67 
 4.24 
 0.44 
 -5.72 
 -1.93 
 4.23 
 0 
 -0.27 
 1.19 
 -6.59 
 -6.62 
 -1.03 
 -5.84 
 8.19 
 -7.4 
 -2.79 
 3.11 
 -0.65 
 5.8 
 1.57 
 9.22 
 -8.08 
 6.86 
 5.91 
 8.21 
 -7.76 
 6.34 
 -7.85 
 1.97 
 6.28 
 -0.16 
 -6.17 
 6.53 
 7.61 
 -8.15 
 7.06 
 0.96 
 -2.49 
 6.56 
 -0.87 
 -2.9 
 9.46 
 -2.39 
 -0.0100002 
 -3.98 
 -1.22 
 8.49 
 0 
 3.47 
 -6.93 
 9.19 
 4.64 
 -9.82 
 7.13 
 5.53 
 2.75 
 -5.97 
 -6.74 
 9.93 
 -4.57 
 8.4 
 9.26 
 9.77 
 -5.99 
 -8.22 
 -1.82 
 -0.6 
 -3.31 
 -5.59 
 8.04 
 -2.16 
 -5.21 
 7.26 
 -3.51 
 7.45 
 9.95 
 -0.0100002 
 5.6 
 -4.16 
 -7.45 
 7.23 
 -0.69 
 -5.48 
 -4.19 
 -2.58 
 5.72 
 -1.77 
 0.53 
 0 
 -6.22 
 3 
 0.0200005 
 3.05 
 -7.49 
 -6.89 
 -7.17 
 -3.21 
 -6.85 
 4.14 
 9.65 
 5.55 
 -3.62 
 -7.7 
 4.87 
 5.36 
 9.31 
 -5.66 
 -8.17 
 5.18 
 -0.69 
 -1.44 
 -6.61 
 -9.69 
 -6.16 
 -2.13 
 -6.61 
 -6.72 
 1.04 
 5.2 
 -1.15 
 0.97 
 -9 
 8.19 
 1.52 
 -1.99 
 -9 
 -2.38 
 4.29 
 -1.56 
 0 
 -7.46 
 -3.9 
 -3.46 
 -6.66 
 7.17 
 -4.94 
 -8.36 
 7.52 
 -4.86 
 9.22 
 -4.95 
 3.8 
 5.21 
 4.2 
 -1.78 
 8.1 
 3.81 
 4.01 
 4.38 
 9.02 
 -7.07 
 1.79 
 -5.11 
 0.85 
 -3.37 
 -8.47 
 8.07 
 -5.43 
 -2.69 
 9.91 
 4.8 
 -1.28 
 -3.48 
 -0.83 
 9.21 
 -0.04 
 8.9 
 3.18 
 2.18 
 -1.29 
 0 
 -5.96 
 0.38 
 -2.1 
 -6.37 
 8.73 
 9.3 
 -4.72 
 -0.7 
 2.65 
 -4.55 
 0.46 
 -7.47 
 -6.73 
 6.07 
 8.68 
 -2.81 
 9.98 
 3.09 
 -9.03 
 6.17 
 0.33 
 -4.84 
 3.4 
 8.8 
 5.64 
 8.14 
 7.51 
 5.59 
 3.88 
 -8.07 
 2.97 
 3.96 
 -1.16 
 -9.95 
 -9.37 
 3.27 
 -7.81 
 3.77 
 -5.02 
 -0.24 
 0 
 -9.11 
 -0.57 
 4.4 
 -5.98 
 -8.78 
 -9.1 
 -0.44 
 5.09 
 4.89 
 -1.8 
 -7.87 
 6.03 
 7.69 
 9.92 
 -0.13 
 2.97 
 9.87 
 9.84 
 -5.41 
 -8.35 
 -5.25 
 -3.95 
 -4.02 
 -4.76 
 1.92 
 8.95 
 -9.48 
 -9.68 
 -9.96 
 8.57 
 6.09 
 -6.92 
 7.09 
 4.89 
 -1.77 
 -3.1 
 5.96 
 -6.65 
 -1.16 
 5.76 
 0 
 4.52 
 -7.62 
 -2.67 
 4.05 
 -9.48 
 -6.68 
 6.9 
 -6.31 
 -8.97 
 -2.1 
 0.79 
 4.94 
 -9.16 
 5.28 
 -7.57 
 -0.42 
 2.39 
 8.75 
 0.33 
 7.71 
 8.45 
 -0.04 
 -8.25 
 -1.45 
 -6.27 
 5.29 
 2.32 
 -5.97 
 5.22 
 7.93 
 -7.79 
 0.54 
 0.7 
 1.08 
 5.99 
 9.44 
 -3.83 
 -6.45 
 -3.11 
 -6.08 
 0 
 -0.87 
 7.07 
 -1.25 
 3.58 
 3.62 
 -9.03 
 -9.06 
 -9.29 
 -2.46 
 -8.42 
 -9.38 
 -3.54 
 5.46 
 4.51 
 -8.27 
 -6.93 
 -6.18 
 -0.19 
 1.12 
 0.52 
 -4.13 
 5.34 
 5.59 
 3.17 
 6.31 
 6.66 
 0.28 
 8.87 
 -9.59 
 -7 
 -3.12 
 3.56 
 3.47 
 -6.22 
 8.26 
 7.62 
 -1.08 
 -7.93 
 2.01 
 3.9 
 0 
 -6.73 
 5.4 
 -6.86 
 -9.51 
 -4.4 
 8.16 
 -7.42 
 9.03 
 -1.28 
 -6.62 
 -3.4 
 -5.92 
 -1.03 
 2.86 
 -4.49 
 -3.84 
 -4.6 
 -0.48 
 7.73 
 3.81 
 3.65 
 -0.72 
 -5.73 
 -6.92 
 4.03 
 -3.25 
 -4.96 
 4.55 
 -7.09 
 3.11 
 2.2 
 -8.5 
 -0.91 
 0.63 
 -6.84 
 -2.28 
 -2.41 
 4.4 
 -0.13 
 -9.97 
 0 
 -8.77 
 4.91 
 2.5 
 6 
 -5.95 
 -5.4 
 -2.74 
 -8.81 
 -1.73 
 2.92 
 9.83 
 5.55 
 9.85 
 -6.72 
 7.09 
 -2.27 
 -8.99 
 8.97 
 -8.38 
 -0.98 
 -0.4 
 3.79 
 -7.03 
 -5.14 
 -6.99 
 -2.46 
 1.28 
 6.7 
 4.37 
 5.1 
 -7.1 
 -4.01 
 -4.47 
 -9.04 
 -1.2 
 4.58 
 3.54 
 -7.79 
 8.57 
 6.73 
 0 
 -5.97 
 9.99 
 -0.91 
 7.71 
 8.18 
 -1.47 
 -0.7 
 4.41 
 -2.67 
 -7.94 
 8.88 
 -8.13 
 9.37 
 -6.98 
 -1.4 
 5.83 
 -6.27 
 2.39 
 4.46 
 -8.34 
 -3.66 
 -9.31 
 6.2 
 9.1 
 -5.64 
 9.15 
 -3.45 
 7.74 
 -1.98 
 2.98 
 9.96 
 -6.79 
 4.03 
 3.58 
 -2.35 
 -3.7 
 -7.82 
 -7.24 
 -7.03 
 -1.53 
 0 
 3.21 
 0.0200005 
 -4.62 
 9.9 
 0.69 
 5.09 
 5.89 
 -9.08 
 6.08 
 -8.56 
 -7.39 
 4.23 
 -1.97 
 -1.53 
 2.88 
 8.79 
 2.1 
 -7.93 
 5.76 
 4.26 
 -9.68 
 5.58 
 2.99 
 -7 
 3 
 -1.74 
 1.78 
 8.71 
 1.38 
 -4.86 
 8.95 
 -3.48 
 -4.43 
 2.9 
 5.23 
 -1.09 
 6.6 
 4.35 
 -4.18 
 -2.97 
 0 
 -6.54 
 0.88 
 -2.66 
 -5.8 
 -4.73 
 6.71 
 -8.72 
 2.37 
 -2.7 
 -3.58 
 1.1 
 -2.61 
 -1.83 
 -0.5 
 -0.27 
 9.11 
 -1.4 
 -6.97 
 3.78 
 0.64 
 6.69 
 -0.23 
 7.52 
 -7.26 
 4.02 
 -8.41 
 3.19 
 -9.31 
 7.81 
 0.2 
 1.76 
 7.13 
 0.0600004 
 9.84 
 -0.89 
 -2.96 
 -8.74 
 -6.03 
 -4 
 -7.56 
 0 
 1.22 
 1.25 
 -7.4 
 -3.24 
 9.84 
 1.74 
 5.21 
 -7.65 
 -9.08 
 -6.38 
 3.73 
 0.66 
 -6.28 
 -9.78 
 8.38 
 -9.52 
 -0.34 
 9.08 
 5.2 
 -5.58 
 -3.63 
 1.17 
 9.45 
 9.06 
 3.24 
 6.25 
 4.4 
 -9.81 
 4.56 
 3.5 
 0.24 
 1.69 
 1.38 
 3.04 
 5.94 
 2.54 
 -7.66 
 -1.68 
 -4.63 
 -6.17 
 0 
 -7.6 
 2.42 
 2.25 
 -7.5 
 -3.14 
 0.0299997 
 5.42 
 6.63 
 3.83 
 -6.77 
 7.64 
 -4.06 
 2.38 
 -6.45 
 -1.04 
 -3.14 
 -9.63 
 -4.29 
 -1.29 
 6.58 
 -6.93 
 -5.52 
 -5.23 
 5.44 
 4.3 
 -0.27 
 -6.47 
 -8.12 
 -9.49 
 -7.85 
 1.05 
 -6.95 
 9.16 
 -3.86 
 -6.54 
 5.93 
 9.13 
 -0.0799999 
 7.95 
 7.8 
 0 
 -6.72 
 3.06 
 1.71 
 9.64 
 -8.32 
 -8.09 
 1.48 
 5.62 
 -0.3 
 -2.8 
 -5.35 
 -1.94 
 9.33 
 2.36 
 -7.64 
 -8.48 
 -9.79 
 -9.4 
 -6.18 
 -4.98 
 2.84 
 -7.37 
 -8.79 
 6.21 
 -9.43 
 -8.51 
 5.78 
 -7.93 
 4.14 
 -2.18 
 -4.93 
 0.45 
 -5.3 
 -3.88 
 -7.69 
 5.9 
 -7.78 
 -1.62 
 2.96 
 -0.55 
 0 
 1.27 
 6.94 
 -6.4 
 4.37 
 -0.1 
 -2.24 
 -9.3 
 -9.41 
 0.71 
 -9.92 
 1.06 
 -1.45 
 3.22 
 6.9 
 0.76 
 8.35 
 7.3 
 -3.39 
 -4.49 
 3.48 
 -9.19 
 -1.55 
 -2.65 
 -8.5 
 3.7 
 -7.04 
 8.22 
 -6.32 
 9.51 
 -5.52 
 -5.82 
 3.93 
 3.32 
 5.12 
 5.84 
 -7.65 
 -4.2 
 2.99 
 5.75 
 -4.34 
 0 
 -8.55 
 -6.5 
 0.49 
 0.42 
 -6.85 
 -7.44 
 1.41 
 2.42 
 4.89 
 4.98 
 -7.42 
 -9.01 
 7.62 
 5.53 
 -5.38 
 -2.12 
 -3 
 4.65 
 -7.73 
 4.73 
 -3.4 
 -5.32 
 -4.31 
 -4.4 
 9.77 
 2.72 
 6.76 
 2.12 
 -6.28 
 -1.48 
 -2.81 
 -8.43 
 4.58 
 6.67 
 2.96 
 -9.12 
 -1.95 
 6.98 
 -9.06 
 7.47 
 0 
 -4.57 
 8.49 
 3.08 
 -0.38 
 0.43 
 4.33 
 -4.78 
 4.36 
 0.41 
 8.09 
 -5.16 
 9.58 
 -8.57 
 7.81 
 7.13 
 -7.37 
 -1.47 
 -1.1 
 -0.72 
 -9.32 
 -6.6 
 8.53 
 -2.24 
 7.31 
 -6.39 
 -6.58 
 -5.82 
 4.72 
 -0.39 
 -4.9 
 9.9 
 -1.04 
 8.23 
 -3.28 
 3.16 
 6.52 
 -4.6 
 -5.24 
 4.45 
 -1.52 
 0 
 -4.07 
 -4.08 
 -8.27 
 -2.52 
 3.08 
 -5.52 
 8.99 
 1.69 
 5.48 
 -4.02 
 -2.69 
 5.04 
 -4.64 
 -9.08 
 8.68 
 1.43 
 4.75 
 -9.42 
 8.28 
 -6.74 
 1.34 
 0.04 
 -4.7 
 -1.19 
 0.55 
 0.27 
 7.77 
 -5.96 
 4.73 
 -8.93 
 1.68 
 -3.36 
 -5.56 
 0.0500002 
 -6.64 
 -3.89 
 -9.46 
 -8.98 
 5.33 
 7 
 0 
 9.28 
 -3.27 
 5.99 
 1.92 
 -1.21 
 8.93 
 -0.99 
 -9.39 
 -8.34 
 6.57 
 -8.31 
 3.33 
 9.63 
 5.58 
 -6.34 
 4.06 
 -0.55 
 2.49 
 2.53 
 2.31 
 0.45 
 -0.21 
 -8.19 
 -3.04 
 2.99 
 4.48 
 8.51 
 6.92 
 9.93 
 -0.67 
 -4.35 
 -2.52 
 -7.8 
 -0.59 
 -8.62 
 -7.54 
 4.34 
 7.17 
 -1.39 
 2.46 
 0 
 0.14 
 5.85 
 2.43 
 -9.71 
 1.55 
 -3.62 
 9.1 
 6.38 
 0.2 
 4.92 
 -2.82 
 -2.21 
 2.19 
 -4.24 
 0.72 
 -6.54 
 5.49 
 -9.23 
 -4.83 
 -6.45 
 7.54 
 -9.39 
 1.95 
 -9.24 
 -1.44 
 6.56 
 -2.55 
 -0.34 
 -1.63 
 9.56 
 -7.47 
 2.15 
 -6.12 
 -7.7 
 -1.43 
 -6.55 
 1.55 
 1.6 
 5.98 
 -9.57 
 0 
 -4.44 
 -4.01 
 -2.58 
 9.42 
 -6.65 
 5.29 
 3.87 
 -3.54 
 -3.11 
 7.53 
 7.07 
 2.38 
 -6.44 
 -1.05 
 2.31 
 -8.29 
 7.15 
 4.33 
 -3.35 
 -3.63 
 -7.71 
 -9.17 
 8.67 
 -4.6 
 2.5 
 3.98 
 -0.34 
 -0.28 
 5.73 
 -4.9 
 9.26 
 -3.57 
 -1.02 
 2.33 
 1.16 
 -3.71 
 8.19 
 -1.23 
 7.24 
 -7.47 
 0 
 -6.79 
 9.45 
 -4.89 
 -7.43 
 -9.22 
 4.85 
 2.11 
 -1.04 
 5.19 
 -0.59 
 -1.47 
 8.94 
 0.47 
 -1.24 
 7.31 
 5.78 
 4.82 
 -2.98 
 4.47 
 -3.8 
 -2.33 
 1.2 
 -4.58 
 -5.35 
 -6.28 
 7.67 
 -9.6 
 -6.69 
 6.99 
 4.94 
 -3.84 
 -4.44 
 -1.65 
 2.52 
 -7.14 
 5.16 
 2.18 
 -7.62 
 9.71 
 -1.91 
 0 
 8.8 
 -6.59 
 8.07 
 5.37 
 -2.07 
 -0.36 
 9.45 
 4.22 
 -1.92 
 4.68 
 9.9 
 8 
 -7.1 
 -6.28 
 -4.73 
 4.65 
 -4.58 
 1.26 
 0.47 
 4.27 
 2.02 
 9.52 
 -0.36 
 -4.62 
 -2.74 
 -3.01 
 -0.1 
 9.38 
 -8.14 
 4.82 
 -1.46 
 -5.58 
 -6.76 
 8.44 
 4.65 
 7.22 
 3.08 
 -5.62 
 -4.35 
 2.24 
 0 
 3.47 
 -2.22 
 -9.51 
 2.34 
 -2.35 
 -3.88 
 -1.13 
 7.36 
 -1.11 
 0.17 
 -0.34 
 -3.54 
 5.17 
 -6.34 
 -3.33 
 4.46 
 4.69 
 -0.57 
 -4.33 
 1.61 
 -2.57 
 9.18 
 -9.68 
 -2.08 
 6.92 
 -4.6 
 8.48 
 8.69 
 -8.4 
 4.46 
 -7.09 
 -5.34 
 -7.89 
 -5.83 
 5.71 
 -7.18 
 8.57 
 -0.31 
 -2.9 
 -1.37 
 0 
 -0.0100002 
 -6.29 
 9.96 
 7.67 
 -4.87 
 0.88 
 -0.6 
 -3.3 
 8.14 
 -4.16 
 -7.09 
 0.27 
 4.5 
 -4.77 
 0.2 
 -9.01 
 0.39 
 9.42 
 8.26 
 -4.29 
 6.21 
 7.16 
 0.74 
 -3.86 
 -9.49 
 -8.03 
 -1.04 
 2.88 
 -2.9 
 1.67 
 8.82 
 2.57 
 -1.43 
 -2.94 
 4.83 
 4.3 
 -8.18 
 3.6 
 9.52 
 -7.4 
 0 
 -8.27 
 0.72 
 5.74 
 6.18 
 -0.0500002 
 -2.73 
 1.7 
 4.5 
 -8.95 
 8.28 
 9.19 
 1.46 
 -7.07 
 -8.36 
 -3.1 
 9.27 
 -6.97 
 -6.98 
 8.97 
 6.66 
 4.16 
 5.05 
 7.67 
 0.96 
 -1.88 
 -0.62 
 9.69 
 -2.92 
 -2.6 
 -5.57 
 3.2 
 -8 
 -3.3 
 -7.04 
 1.28 
 -3.15 
 4.56 
 3.15 
 8.25 
 -4.01 
 0 
 3.55 
 6.52 
 -6.68 
 7.41 
 8.4 
 -0.72 
 -5.31 
 5.78 
 1.63 
 5.65 
 9.26 
 0.84 
 -8.76 
 5.28 
 1.63 
 -6.24 
 0.27 
 -1.83 
 6.84 
 4.1 
 -9.49 
 -9.5 
 0.27 
 -1.16 
 -3.41 
 6.33 
 6.35 
 -9.25 
 -8.33 
 -1.29 
 4.83 
 -7.57 
 -7.45 
 1.86 
 -9.49 
 1.72 
 5.83 
 2.39 
 -2.57 
 7.89 
 0 
 3.72 
 -8.63 
 -5.84 
 8.11 
 4.46 
 6.12 
 6.3 
 -5.23 
 6.78 
 -8.1 
 7.16 
 9.37 
 -7.67 
 -0.67 
 2.38 
 8.5 
 -1.6 
 2.45 
 -7.49 
 1.15 
 7.73 
 -4.87 
 4.49 
 -5.59 
 -0.24 
 -3.35 
 -8.37 
 -6.09 
 -1.83 
 -5.5 
 -5.2 
 -4.54 
 4.38 
 9.72 
 -8.74 
 -8.42 
 -5.29 
 1.68 
 -8.82 
 1.52 
 0 
 -3.67 
 -0.7 
 -8.27 
 0.79 
 -6.75 
 9.32 
 -7.73 
 -5.29 
 -4.53 
 -9.91 
 -5.61 
 -9.56 
 1.99 
 -1.14 
 4.23 
 -7.85 
 5.55 
 9.85 
 -0.55 
 8.12 
 4.73 
 -4.92 
 -2.85 
 -6.85 
 3.59 
 -3.79 
 6.69 
 7.48 
 2.01 
 9.29 
 -7.88 
 6.31 
 6.77 
 -9.82 
 -9.52 
 8.42 
 4.83 
 7.11 
 4.48 
 4.44 
 0 
 0.68 
 1.72 
 3.86 
 -2.35 
 6.81 
 -9.89 
 -9.37 
 -3.32 
 -4.65 
 -3.22 
 -5.74 
 -2.06 
 2.71 
 -1.32 
 5.94 
 2.49 
 -0.67 
 -6.32 
 -5.31 
 -0.49 
 6.94 
 -5.83 
 3.46 
 4.76 
 -1.22 
 6 
 9.71 
 -5.99 
 -8.34 
 9.99 
 -5.12 
 -1.51 
 -1.56 
 -9.76 
 5.51 
 -2.28 
 9.7 
 -0.85 
 1.84 
 4.34 
 0 
 1.64 
 -2.55 
 -6.59 
 -7.49 
 5.25 
 -1.63 
 -6.14 
 -9.05 
 -5.77 
 2.5 
 3.7 
 3.58 
 -4.09 
 2.5 
 5.07 
 1.02 
 0.15 
 -0.38 
 -8.28 
 8.97 
 9.7 
 -7.02 
 0.33 
 -5.51 
 -8.44 
 -0.51 
 7.24 
 -7.26 
 -3.91 
 7.46 
 -6.91 
 7.19 
 5.01 
 5.13 
 9.15 
 4.72 
 1.08 
 8.74 
 0.0299997 
 7.62 
 0 
 -7.1 
 -0.24 
 -8.24 
 9.26 
 4.95 
 5.09 
 -0.96 
 9.95 
 -0.33 
 3.03 
 -1.83 
 5.11 
 5.4 
 1.17 
 -1.48 
 4.8 
 1.07 
 -2.36 
 3.52 
 -7.65 
 1.16 
 -6.9 
 8.58 
 2.31 
 -7.08 
 9.56 
 -2.67 
 -7.34 
 -4.94 
 8.92 
 2.87 
 4.98 
 6.79 
 -9.96 
 4.84 
 -5.54 
 -4.95 
 -2.97 
 -4.98 
 9.26 
 0 
 -0.65 
 -0.83 
 1.44 
 -6.2 
 7.17 
 0.2 
 5.89 
 9.04 
 -0.91 
 -9.56 
 9.31 
 2.4 
 1.73 
 -4.99 
 -6.52 
 -4.71 
 0.79 
 4.5 
 8.55 
 -5 
 -9 
 7.16 
 7.02 
 0.87 
 3.24 
 -1.42 
 4.71 
 1.36 
 6.44 
 9.68 
 4.07 
 4.58 
 6.23 
 -2.67 
 -7.8 
 2.59 
 -6.88 
 -1.51 
 -9.43 
 5.73 
 0 
 -0.33 
 7.36 
 -8.12 
 9.61 
 7.19 
 -9.41 
 2.55 
 -4.59 
 2.79 
 7.23 
 4.34 
 -0.68 
 0.27 
 9.33 
 -9.25 
 -0.87 
 -2.77 
 4.58 
 -9.48 
 -6.3 
 -8.6 
 -7.46 
 -6.88 
 -9.07 
 3.46 
 3.87 
 8.17 
 -6.65 
 -1.4 
 3.74 
 0.0200005 
 1.52 
 -6.48 
 7.54 
 -8.55 
 -5.41 
 -4.88 
 -9.8 
 6.95 
 -7.63 
 0 
 -9.13 
 -4.54 
 7.88 
 8.2 
 -5.59 
 -9.09 
 6.9 
 5.82 
 6.93 
 5.8 
 9.45 
 -0.52 
 -7.34 
 -0.84 
 4.09 
 1.46 
 -5.71 
 9.66 
 7.77 
 -1.96 
 -6.86 
 4.3 
 5.54 
 4.39 
 -8.47 
 -8.1 
 7.78 
 -6.55 
 8.71 
 8.89 
 9.36 
 -9.33 
 5.29 
 -1.14 
 -5.17 
 4.61 
 9.2 
 3.98 
 2.15 
 4.11 
 0 
 -3.75 
 -5.42 
 -6.81 
 3.89 
 7.9 
 5.8 
 8.4 
 1.94 
 5.86 
 6.54 
 -4.07 
 7.99 
 -5.49 
 2.05 
 -9.88 
 0.0500002 
 -5.55 
 -0.17 
 -4.63 
 7 
 4.6 
 8.85 
 -5.67 
 1.63 
 4.68 
 6.97 
 9.44 
 -4.12 
 -5.46 
 6.9 
 3.39 
 -1.53 
 7.55 
 -4.43 
 -1.94 
 0.86 
 5.01 
 2.54 
 -0.95 
 5.94 
 0 
 -9.92 
 8.36 
 -2.68 
 5.43 
 8.57 
 -2.96 
 3.74 
 7.64 
 -9.98 
 1.76 
 5.79 
 -0.0600004 
 1.33 
 1.92 
 2.35 
 -9.56 
 -9.37 
 -0.44 
 -9.64 
 -0.0699997 
 9.53 
 9.65 
 -4.98 
 3.46 
 6.09 
 -0.4 
 2.69 
 -4.93 
 -5.14 
 -3.29 
 -3.23 
 8.13 
 -6.35 
 5.32 
 -9.99 
 -4.61 
 4.37 
 1.54 
 -7.72 
 7.4 
 0 
 -7.94 
 -5.08 
 -6.47 
 2.07 
 3.27 
 2.91 
 1.04 
 -6.91 
 -6.54 
 3.76 
 -0.56 
 0.2 
 5.05 
 -6.59 
 7.41 
 5.43 
 1.89 
 0.66 
 9.18 
 -5.63 
 -9.91 
 -9.81 
 3.97 
 -1.87 
 -6.23 
 4.06 
 -6.09 
 2.82 
 8.51 
 3.67 
 -2.99 
 5.59 
 -9.64 
 -0.57 
 -9.42 
 9.73 
 -1.7 
 2.42 
 4.06 
 -3.5 
 0 
 -0.65 
 0.51 
 7.8 
 1.84 
 8.14 
 2.54 
 -4.58 
 -6.35 
 2.86 
 6.63 
 -2.53 
 -2.01 
 -6.68 
 4.76 
 -5.35 
 -7.01 
 4.98 
 1.71 
 -4.01 
 -7.11 
 8.87 
 2.47 
 -5.34 
 -2.31 
 -6.52 
 7.49 
 0.04 
 -4.58 
 8.31 
 -0.88 
 -2.09 
 -8.71 
 -2.77 
 9.45 
 7.6 
 0.73 
 2 
 2.35 
 8.15 
 -7.11 
 0 
 5.58 
 8.54 
 7.7 
 -6.08 
 -6.22 
 -3.11 
 -6.85 
 2.79 
 -9.29 
 -9.95 
 5.82 
 2.53 
 1.78 
 -3.09 
 9.02 
 3.39 
 4.18 
 4.46 
 -6.9 
 1 
 -3.8 
 7.63 
 -6.05 
 1.95 
 3.8 
 4.34 
 -7.48 
 -6.21 
 4.69 
 -6.38 
 -5.44 
 -8.58 
 3.07 
 9.13 
 -0.39 
 -4.24 
 -2.98 
 8.76 
 4.4 
 -0.36 
 0 
 -7.09 
 8.5 
 -0.0900002 
 -4.35 
 -7.91 
 3.93 
 3 
 -0.55 
 -8.45 
 5.98 
 -0.0799999 
 -2.69 
 -1.45 
 -6.83 
 -6.72 
 4.58 
 -6.25 
 -3.51 
 2.95 
 -2.2 
 4.38 
 7.54 
 2.43 
 4.29 
 -5.18 
 -0.43 
 -4.46 
 7.86 
 -7.9 
 -9.17 
 2.18 
 8.29 
 3.54 
 -4.77 
 -0.0200005 
 -7.83 
 -2.11 
 -4.04 
 2.96 
 7.93 
 0 
 3.42 
 2.11 
 7.16 
 6.11 
 6.17 
 -7.6 
 -0.6 
 -6.63 
 -2.63 
 0.28 
 -2.73 
 -4.44 
 -2.32 
 6.95 
 8.69 
 -7.74 
 -8.84 
 -6.32 
 -5.32 
 -8.67 
 1.15 
 9.19 
 1.36 
 -5.02 
 -6.53 
 2.35 
 -0.9 
 9.9 
 -9.05 
 -1.63 
 -9.17 
 -7.72 
 -1.37 
 3.65 
 -9.83 
 -8.66 
 -9.85 
 -4.28 
 4.02 
 7.12 
 0 
 -5.82 
 6.08 
 -4.45 
 -4.55 
 1.52 
 3.88 
 2.16 
 6.48 
 6.56 
 -6.75 
 1.06 
 5.68 
 -8.36 
 7.63 
 -2.62 
 -3.9 
 -5.08 
 2.28 
 6.29 
 -6.72 
 4.21 
 5.19 
 2.73 
 -5.12 
 -6.42 
 5.76 
 -9.84 
 3.9 
 -3.56 
 0.76 
 -2.36 
 0.56 
 -7.91 
 6.85 
 -0.0500002 
 -2.43 
 -0.48 
 4 
 -5.31 
 -4.64 
 0 
 -1 
 6.2 
 8.66 
 4.97 
 -8.02 
 1.22 
 9.1 
 1.63 
 4.19 
 -4.54 
 7.37 
 7.58 
 -5.39 
 6.4 
 8.58 
 -3.06 
 8.42 
 -3.58 
 0.14 
 -7.76 
 7.77 
 -3.01 
 -5.13 
 2.09 
 4.95 
 9.98 
 -2.27 
 6.45 
 -5.59 
 -4.32 
 8.45 
 -6.94 
 -2.21 
 9.53 
 2.02 
 -7.85 
 -6.48 
 -2.84 
 -0.71 
 -5.29 
 0 
 -3.96 
 -0.78 
 0.1 
 -9.15 
 -5.43 
 9.24 
 -0.59 
 -7.69 
 6.52 
 -3.77 
 0.65 
 2.11 
 -4 
 -9.92 
 -7.1 
 0.78 
 -5.98 
 -5.76 
 -7.67 
 8.65 
 3.46 
 6.46 
 5.72 
 7.44 
 -3.59 
 8.55 
 -2.44 
 7.22 
 3.81 
 -4.13 
 7.03 
 7.71 
 9.24 
 8.73 
 -2.16 
 4.54 
 -5.78 
 -0.5 
 -1.96 
 6.63 
 0 
 6.5 
 -8.67 
 -8 
 -0.47 
 -6.53 
 9.24 
 6.74 
 1.43 
 7.02 
 2.35 
 2.14 
 4.34 
 -1.41 
 6.57 
 0.84 
 2.45 
 3.37 
 0.81 
 -5.4 
 4.64 
 -8.14 
 -4.83 
 -2.84 
 9.53 
 8.16 
 -3.29 
 -7.1 
 -5.96 
 7.44 
 -4.87 
 -4.39 
 5.74 
 -8.5 
 -9.22 
 -3.11 
 -1.13 
 5.45 
 -8.16 
 -9.74 
 -3.54 
 0 
 -4.54 
 3.13 
 -5.91 
 7.17 
 -6.39 
 -6.41 
 -6.51 
 -9.11 
 -1.69 
 5.34 
 6.43 
 2.72 
 4 
 -6.66 
 -1.4 
 -8.66 
 4.81 
 1.27 
 -7.78 
 -5.73 
 4.37 
 -9.13 
 -5.78 
 -8.21 
 5.3 
 -7.94 
 -0.63 
 -0.47 
 9.72 
 9.2 
 5.9 
 9.09 
 5.84 
 1.78 
 -9.77 
 4.59 
 5.48 
 5.61 
 5.6 
 -2.9 
 0 
 -4.32 
 5.42 
 -7.64 
 -0.96 
 6.24 
 -3.96 
 -6.28 
 -0.67 
 -6.11 
 2.57 
 6.62 
 -7.59 
 3.67 
 9.9 
 -5.82 
 1.07 
 7.02 
 5.11 
 -5.33 
 4.89 
 5.7 
 -5.51 
 -7.71 
 -0.2 
 -8.23 
 8.99 
 -8.27 
 -7.82 
 7.22 
 5.11 
 -2.72 
 2.42 
 5.37 
 -3.42 
 2.47 
 1.81 
 -6.76 
 4.02 
 7.69 
 0.35 
 0 
 8.4 
 -3.43 
 1.87 
 8.02 
 -4.26 
 2.42 
 -6.64 
 -8.21 
 9.63 
 2.96 
 6.08 
 4.65 
 -2.84 
 -3.43 
 -7.22 
 -5.06 
 -2.35 
 -5.09 
 -3.33 
 8.41 
 -3.75 
 -8.64 
 2.64 
 5.39 
 1.27 
 -4.48 
 9.83 
 6.72 
 -9.71 
 2.61 
 1.71 
 9.53 
 -0.63 
 -2.99 
 3.73 
 -2.4 
 1.89 
 -2.77 
 9.6 
 -1.73 
 0 
 9.59 
 4.24 
 -1.72 
 -0.87 
 8.23 
 0.0600004 
 -4.96 
 8.31 
 -1.78 
 -2.09 
 1.91 
 -9.53 
 0.84 
 8.94 
 -9.8 
 -9.72 
 4.07 
 -6.42 
 -8.9 
 5.18 
 9.44 
 7.81 
 9.33 
 6.92 
 -6.07 
 -7.39 
 8.8 
 -8.2 
 0.93 
 -7.55 
 -1.13 
 -5.05 
 -2.48 
 4.72 
 -1.47 
 -4.16 
 2.89 
 4.44 
 -3.68 
 4.06 
 0 
 -9.14 
 0.12 
 0.16 
 1.19 
 6.2 
 0.85 
 -2.23 
 -3.16 
 -5.1 
 1.16 
 1.57 
 8.43 
 9.13 
 6.99 
 5.86 
 -8.91 
 8.45 
 5.4 
 3.78 
 -7.19 
 5.98 
 0.23 
 -5.2 
 -9.48 
 -1.82 
 -4.62 
 -7.03 
 -6.89 
 2.48 
 4.94 
 -5.55 
 5.53 
 3.44 
 -9.52 
 -2.75 
 7.82 
 8.42 
 -5.78 
 -4.96 
 -7.36 
 0 
 -0.94 
 -9.75 
 9.09 
 -0.97 
 -4.93 
 8.11 
 5.38 
 -9.8 
 3.14 
 6.4 
 6.06 
 6.43 
 -2.86 
 3.81 
 5.46 
 3.57 
 -4.51 
 -1.25 
 -6.96 
 1.31 
 -0.14 
 -9.26 
 -9.04 
 7.25 
 -7.57 
 -5.38 
 2.43 
 -5.92 
 -1.62 
 -3.3 
 -1.26 
 -2.22 
 -1.02 
 -7.73 
 5.59 
 7.68 
 -2.67 
 -3.38 
 6.78 
 -5.58 
 0 
 -1.55 
 6.21 
 5.24 
 -9.02 
 7.52 
 4.66 
 3.52 
 -4.12 
 -0.66 
 6.12 
 9.47 
 1.96 
 2.93 
 -8.28 
 2.22 
 -8.84 
 4.66 
 -8.67 
 -3.14 
 -7.38 
 6.86 
 4.82 
 -3.07 
 5.46 
 -1.1 
 -1.68 
 5.06 
 1.04 
 -3.88 
 -9.24 
 -3.29 
 1.75 
 4.34 
 -7.31 
 2.97 
 6.61 
 0.86 
 8.2 
 9.01 
 0.95 
 0 
 0.43 
 7.69 
 0.27 
 -4.89 
 -2.51 
 -3.43 
 0.84 
 -6.94 
 -5.23 
 7.24 
 -4.89 
 -4.02 
 4.41 
 -6.5 
 2.76 
 3.99 
 -7.68 
 -9.7 
 0.0600004 
 -2.28 
 -6.47 
 5.63 
 9.34 
 -4.34 
 9.58 
 -7.66 
 7.8 
 2.17 
 -7.67 
 3.95 
 2.48 
 -6.86 
